-8.484805413631126307e-04
-9.560104911282341945e-04
-8.764402593519118314e-04
-6.354265854171158500e-04
-7.818232238710946889e-04
-4.957546002579269655e-04
-7.400377835635355917e-04
-6.048278197111209764e-04
-5.942226499174342591e-04
-6.105178358035866963e-04
-4.786046209995724440e-04
-4.628442562697626422e-04
-4.495683246674858917e-04
-5.132233033276921083e-04
-3.347602147041761774e-04
-5.511458361795880910e-04
-4.948741427328972979e-04
-4.458359549153877600e-04
-1.893650078383338100e-04
-4.129153988121866438e-04
-2.988578895380365210e-04
-2.722568417393406810e-04
-3.775094811074903743e-04
-1.593605064231326692e-04
-2.660405825852651799e-04
-1.814571852620692702e-04
-2.324233908270476935e-04
-2.803504633706138628e-04
-4.005922602919900722e-04
-2.331304046565118703e-04
-4.272296357189999012e-04
-9.919559374835414112e-05
-4.111493547271140596e-05
-1.624350917118219466e-04
-9.245182010736069703e-05
-1.466266746423324657e-04
-1.539711618549157617e-04
-3.813597162135757570e-04
1.182575581166852354e-04
2.568341030784395974e-05
-3.340967811161534018e-05
-9.723122655446978272e-05
-8.034076943238224907e-05
1.433592714066405098e-05
-1.397742035352566626e-04
-1.459901015616601539e-04
-1.237120216845482516e-04
1.384291388648233595e-05
4.752186954601588789e-05
6.889216316209857853e-06
-5.150655361802864248e-06
-1.689901566115695447e-04
-1.049508024014700596e-04
-6.049600407205012930e-05
-6.370383749356483736e-05
-2.261464452105343590e-04
-1.523781712481510190e-04
-1.283060493618610760e-04
-2.961495300335121637e-05
-1.768779152574186358e-04
9.334621271151102688e-05
-1.816653988578478352e-04
-1.044510999229357636e-04
-1.878817266478898212e-04
7.871859564614014598e-05
-2.593635384028846976e-04
-7.213173951902276211e-04
-6.035409732153358193e-05
-8.124461521085722996e-05
3.858372913519385187e-05
-1.331063970605776375e-07
1.502817933416973151e-04
8.457011275696078986e-05
4.602722078775527777e-05
5.147031762931065726e-05
1.359969179655445511e-04
2.105906083958160038e-06
5.070488453179229131e-06
-2.334036518335136598e-05
-4.403983091426130189e-05
2.227095436986554046e-04
-8.457136229748311168e-05
-1.452426866185730497e-04
2.831637639311694208e-05
-9.814891635095142721e-05
-7.342594951758782927e-04
-8.242719755550621981e-04
-5.815587330632870791e-04
1.192714494142011731e-05
-5.523943313425953936e-04
-4.959752225348985563e-04
-5.200156790878935308e-04
-7.562930815762679889e-04
-5.089817736498169912e-04
-5.933698789849803455e-04
-5.892957352928661872e-04
-6.472983392494006342e-04
-3.780676385118796512e-04
-3.915248624344678900e-04
-5.439437030316752672e-04
-4.212570131076648241e-04
-4.312518041589857203e-04
-3.596956803894178658e-04
-3.238083405755730879e-04
-3.399621405179914166e-04
-3.319936054598263630e-04
-2.783110527243771093e-04
-4.699345422884989134e-04
-1.531194371734161835e-04
-2.662253033529124306e-04
-3.615161231134647753e-04
-1.592320195708560673e-04
-2.584205819917491549e-04
-2.177509021981577147e-04
-1.801728872076715420e-04
4.645327006135778177e-05
-2.552658881311158675e-04
-2.305553204809777110e-04
-2.770812987785903006e-06
2.268402900836950374e-04
8.536406383377956189e-05
-2.131088571147980205e-04
-8.224814054580583105e-05
-1.679714603305297658e-04
-1.155648923093532986e-04
-1.175863624625429532e-05
-8.031484513871952290e-05
-5.884021051828407174e-05
8.300822939295317542e-05
-1.745889992330152221e-04
-2.003931764976285416e-04
4.725754602079385615e-06
-1.950268583143638639e-04
-1.365006912182046195e-04
7.078998638226841522e-05
-3.258475629780870401e-04
-4.105896700324485190e-05
2.142575046907906769e-05
-7.074622675766339020e-05
-1.073571796318693655e-04
-7.574198471233615907e-05
-5.188798026789144958e-05
-6.956169709238179094e-05
1.197014250421414821e-04
3.839908281951552387e-05
-2.775303771924845023e-05
-4.162342532480280707e-05
-1.743367075128512359e-04
6.346909625569687927e-05
7.545630461184588296e-05
1.928571700753055034e-05
4.870965063206090015e-05
-3.713882064714471738e-05
-1.606571409301791513e-04
-1.231906072631951986e-05
-3.855837762036864200e-05
-1.407330341710543317e-05
-1.220188737885061328e-04
-6.885578647807595862e-06
3.051726466780331829e-05
-3.361845083792190983e-04
1.124304969341001172e-04
-1.988091051600448771e-05
-3.061592302222080041e-05
-2.513999183897048574e-04
-1.597082146734090638e-04
1.087633737597016539e-05
8.700990607803560546e-05
7.224719007608499982e-05
5.912307437171109020e-05
-1.290949195286911536e-04
7.267238187385874533e-05
-4.906089297660056305e-05
4.853730821675940614e-05
1.484813976219626216e-04
-7.577988169030245387e-05
-3.891171928179487904e-05
-8.327393272829364940e-05
1.355112648446340716e-05
-1.974325771495580881e-04
-1.362008159085328245e-04
-1.059332775896807308e-05
1.677912940815929602e-04
8.246264142407713933e-05
3.455708190709197718e-05
1.983321530072952674e-04
3.608343615298006523e-05
-9.252609692073711671e-05
-6.501731117494921575e-05
5.977892104411790958e-05
-2.722532709856443213e-05
-4.930106633544260609e-05
1.094373122821753818e-04
4.940207790373055748e-05
-4.867680465848554653e-05
5.531227797461154481e-05
8.839893366620942623e-06
-1.041766142254321942e-04
1.361387575999111399e-04
2.682442947983598518e-05
-2.108603337574102424e-04
8.458486178831220914e-05
3.046106715887128362e-05
1.201860076894022741e-04
-1.687330840653595307e-04
6.487954912387125202e-05
1.375167140429362856e-04
-2.129217394525508976e-04
-5.655673616189161684e-05
1.136401569650197745e-04
1.833150907791964183e-04
-5.500524873362558749e-05
-3.932539121898809330e-05
6.697790508769200124e-05
-7.371808950811690440e-06
-1.217333266901439529e-04
-1.162909100570220943e-05
-2.381894949925315614e-05
1.792026319007636987e-04
-4.644729128819062109e-05
9.435758217383640584e-05
-7.632842253099455924e-05
-1.679822240997494508e-04
-6.820862409950671518e-05
-9.976635156169894861e-05
2.753590816240793598e-05
6.962017485955741716e-05
4.656137620918400082e-05
4.939107534781092573e-06
8.831239410574946334e-05
1.748802033026748855e-04
-1.654897619198170610e-04
1.113384583877582931e-05
1.120030230871299131e-05
6.473949197977468676e-05
-2.350737442381616081e-04
-7.209007615255395808e-05
-8.831387324955927527e-06
-8.647674629676637271e-05
3.928492776289526836e-05
-2.259047668390961802e-04
-5.029184001377026334e-05
1.048924735042093504e-04
-3.903055710228690015e-05
-1.074869557888205330e-04
5.698851984965051988e-05
2.863410525354802809e-05
1.143782684421480896e-04
7.292163691860615562e-05
-1.880084921591827177e-05
-8.245189425304512247e-05
2.483840426391643202e-04
-1.523492021265085655e-04
1.065204048104844125e-04
1.250375808787497121e-04
-9.804058984870951112e-05
-4.557159114929018503e-05
1.186289559355247245e-04
-1.473828567554825238e-04
2.194850612264418632e-06
-8.544969283481935649e-05
-1.420215684290785678e-06
5.779540938175920309e-05
1.600086489958493069e-05
1.418449875282290235e-04
-7.483671723030743683e-04
5.634469624043273323e-05
1.383975401510615028e-04
-5.371495042729791306e-05
-5.559622111186618328e-05
1.182367131484794221e-04
-5.282647822263813579e-06
-2.312487712594944809e-04
1.121428206520908634e-04
-6.872199254306071269e-04
1.551927695691145300e-04
-6.818448400980116092e-05
-3.361606958848398035e-05
-6.989398424802065668e-04
-6.805603450485094887e-04
-7.216829258996553063e-04
-8.013267993283825549e-04
1.649224055502991441e-04
-7.621982167933453838e-04
-4.678974117478389995e-04
-6.915999707631888998e-04
-6.473209526241201607e-04
-5.380120601894958958e-04
-5.589144175281625252e-04
-7.105350165876475827e-04
-5.237480855761812194e-04
-2.786456263830377773e-04
-1.752393209245903358e-04
-1.710978166840262514e-04
-2.908943113425713363e-04
-3.738723040114697808e-04
-3.397207914459865539e-04
-2.318029325290468757e-04
-9.289073854738539833e-05
-3.369855146901841220e-04
-2.885441679706105184e-04
-1.457904013883221551e-04
-3.023069767173877024e-04
-2.525432446529136347e-04
-1.738859238934703066e-04
-8.181034382405831290e-05
-4.725611743708193016e-04
-2.990020356045222411e-04
-3.360376078931245859e-05
-1.355238148008894078e-04
2.810586869146298710e-05
2.909112925807343867e-05
-8.157200578254715463e-05
-1.553213451379732810e-04
2.643614113129881909e-05
-2.969647738088361652e-04
7.160506287820225465e-05
-2.054299641077296870e-04
-7.664958507990525061e-05
-1.902678762641956030e-04
-1.562101208284365271e-04
-1.048197685457272492e-04
-2.839479069768810742e-04
-2.359421936354788520e-04
-1.662314875878021393e-04
-1.161615332729548080e-04
-4.829491469480714280e-05
3.199474627649552126e-05
-6.333417453503003799e-05
-1.807151674298390024e-04
-1.266180000041964584e-04
4.495598579892287193e-05
-1.260961561789745994e-05
-3.357103237902626643e-05
1.965482306811663017e-06
-1.006859548893635598e-04
9.102471147905331320e-05
1.176419825400434741e-04
-4.791126515459129959e-05
-1.409356074908107125e-04
1.251401761475338806e-04
-7.887045627887828236e-05
-6.778425454367274739e-05
3.526351962264714739e-05
-1.612638892345634835e-05
6.692554267715325575e-05
1.342048261277389727e-05
7.566834649510503633e-05
1.504189532226460617e-04
-1.633188721495877898e-04
4.301431081930570302e-05
-1.742259153836618754e-04
-1.219859993483187160e-04
4.576317621251421394e-05
-2.945864576927768007e-05
-1.942387319737027391e-04
1.461076913799394127e-04
2.057252218022170820e-04
-1.949808218544334733e-04
-9.435946825379502769e-05
-1.856661523681059464e-04
4.468255395458006616e-05
-8.552095538365749193e-06
2.289014909129397031e-05
-1.707423671797541980e-04
-9.810009372014538600e-05
9.271296389372414462e-05
-2.598360931271629132e-05
6.362953844377846582e-05
-1.618957736754709185e-04
-8.010891482533365009e-05
1.045963472096534568e-04
-9.699376817545264835e-05
-1.595724660023650017e-04
-2.476505655481869785e-04
1.075842077802567100e-04
-1.862183105843717636e-04
-2.526374192307710432e-05
1.262559946225236685e-04
-5.952115502732667253e-06
1.002744738610810527e-04
-1.944874561951719398e-04
-1.773295940265208666e-04
-1.274880941167431904e-04
-9.815875831900102192e-05
2.496971639415855181e-05
-3.426590947096301533e-05
7.714505712935119768e-05
1.971943908184191203e-05
2.460673737946610231e-05
-4.379905853210709079e-05
5.990001900979937608e-05
1.189064047807812706e-04
-1.955956778510604792e-05
6.618132867716524596e-05
6.521917326341166127e-05
1.718778437593930508e-04
1.276707393895987848e-04
-1.085487544606081962e-04
6.325777136539818552e-05
-1.047171074363932987e-04
3.404027157211430520e-06
2.699747310535840974e-05
1.033824216585967179e-04
-3.415143182896911362e-05
1.667297323820232820e-05
1.123611212117397187e-04
1.268674912729694521e-04
-1.453259350349326311e-05
-2.751150954309926076e-05
1.567270200212617334e-05
1.728283302799362732e-04
-1.165794912698038863e-04
-2.357559343382884150e-04
4.895483518687229703e-05
-7.930720063186095614e-05
-9.679941496616430120e-05
-1.254468455004221215e-04
-2.157721808893839501e-05
5.345082517978625483e-05
9.853860837399381213e-05
4.870846021338262258e-05
-3.696728532916473407e-06
7.619317612252133232e-05
-3.772989962328497600e-05
-1.379984072579057734e-04
-3.829670256885690642e-05
7.860919397181871551e-05
-6.262582206256391297e-05
3.002884459635194857e-04
-8.812068698382943214e-05
-1.648026442864707909e-06
6.844494656202102271e-05
3.575877411291520031e-05
2.116659102361616657e-05
7.522413626810462567e-06
-6.444508483929755802e-05
1.618800890499445171e-04
-8.080161492919027844e-05
-5.496994077713376886e-05
-4.320386515327603188e-06
8.532013735042406032e-05
-2.111072979282503583e-04
1.905076074160970659e-05
4.360119923671766434e-05
1.202896061766278477e-05
-1.959319346562041490e-04
-1.583808936915540944e-04
-1.318552373688930151e-05
-8.044328074244326511e-05
8.980977142930863326e-06
-1.078695075707216251e-04
8.301430246796076789e-05
7.365443244197340789e-05
-3.122856096418332816e-05
1.125369546457590447e-04
1.206972130970722010e-04
-9.556903425314124673e-06
-2.590696501009854234e-04
1.078045994055117567e-04
-1.708500315341284704e-05
1.031654914017701111e-04
7.557951270292021493e-05
1.317246668258820023e-04
1.424234349105373270e-05
9.083569569260095981e-05
1.125780306612851075e-04
-1.745691320633742356e-05
1.344236797929678178e-04
-8.047602582250020496e-05
-3.853867057618685292e-05
-1.336163981883024560e-04
-4.606579572550129184e-05
-6.815613152039256119e-05
-5.049477381241820817e-06
-3.890363193327409075e-05
-2.704773542885949747e-05
1.120840258232882027e-04
-3.287512341853231082e-05
1.383382506289550110e-04
-1.978136085942583204e-04
-5.980251740621162637e-05
-4.266993969908712629e-05
2.030599404360174803e-04
1.163639485665364997e-04
-2.293606638832545628e-04
1.022871565596989395e-04
7.895376616661380987e-05
5.381095959372893003e-06
-3.273953981581952620e-05
-3.000635172247313436e-05
2.243460893724064174e-04
-1.179498171947156561e-04
-3.735803108675435645e-05
-1.913187045496751661e-04
2.121915404021314656e-04
-1.579219327479142198e-04
4.465984214649812561e-07
-9.660533024717384671e-05
-9.567475585922382262e-05
3.028926743651647228e-05
-5.112367006909714404e-05
-3.318773135492806767e-05
2.121442429152231948e-04
7.159942219073783126e-06
-1.801650464603015149e-04
-4.024254410588270310e-05
3.699014637439430484e-05
1.226921755652657999e-05
-3.964216284516948738e-06
-6.650283957523096020e-05
1.010048506490514531e-04
8.514549342149620593e-05
1.365511604458292038e-04
-1.713357111488943011e-04
-8.484081579062640590e-04
1.354733384085232044e-04
-3.085091239355024960e-05
-2.799036037227297605e-04
-9.731046950099144464e-05
1.497769843551995553e-05
-3.981259395406789952e-05
5.724378655926864064e-06
-1.695710148210531574e-05
-1.958198112946058807e-05
-6.602388406266446316e-04
-6.657332997311401937e-05
-1.220115460603209649e-04
-1.708391521590748316e-04
-2.351904535306628436e-04
-5.474741815359146068e-05
8.545067762025284068e-05
1.550618089218417132e-04
-1.195179575062081089e-06
-7.682294043156424757e-06
1.480951783662586094e-04
-7.674456884632142352e-04
-7.747221986631557368e-04
-7.508308408433036953e-04
-8.346010249863690129e-04
-1.252928415716346379e-04
-6.444133755960897506e-04
-6.298706527571873177e-04
-5.172589300030305728e-04
-4.630286758173417986e-04
-4.854635011076822559e-04
-3.169869211927372750e-04
-4.771132379178163454e-04
-5.465120579687236541e-04
-4.029316486255228483e-04
-5.897498766925827682e-04
-3.200609144417814063e-04
-5.599093294941685306e-04
-1.987544018359348218e-04
-4.174708696322491593e-04
-3.358191196007622413e-04
-1.177094857135861259e-04
-1.841936482125653871e-04
-2.276587607246253770e-04
-2.394117744284443886e-04
-3.126296606395029330e-04
-1.043332905519998643e-04
-3.605745319296719750e-04
-2.652259602235621308e-04
-1.858415312910701779e-04
-1.500277608968468779e-05
-8.986378817813365691e-05
-2.593346220655726175e-04
-2.530559058928643867e-05
-8.905592841747651768e-05
-7.938281241843858681e-05
-1.406800656425329012e-04
-1.835624226341357388e-04
-1.983989449222984950e-04
8.211318833332592224e-05
-2.167769808675893664e-04
-5.132810152206855050e-05
-6.763339845810291916e-05
-1.243535718943482912e-04
-1.932355234583279689e-04
1.666976520859996924e-04
-1.876445900982503078e-05
-2.421453997365698879e-04
-1.922326714111771695e-04
-5.451733372407384067e-05
-9.300747966049101957e-06
-1.899965273963789305e-04
8.913810984717088237e-05
4.619362551899523978e-05
-1.989860314011396183e-04
-1.685078261443385654e-05
3.850055899535800516e-05
-1.041969203446398167e-04
5.536662634021319957e-05
-6.848711185438023338e-05
-2.635698067143946231e-04
-2.585101234381802400e-04
-6.956919472370554124e-05
-1.960578822522269734e-04
1.388198242297765124e-04
-4.385109031221133362e-05
8.720743035570041038e-05
-3.987406369944515783e-05
-8.430566577301366448e-05
-7.035490456690592824e-05
-2.759836598573912653e-04
-1.188007714516921065e-04
-2.869958553832761657e-05
-6.741840203728778993e-05
-2.811671239836885773e-04
8.224691838164216267e-05
1.450035946514698234e-04
-9.105903782428731875e-05
-1.272196413090143595e-04
8.116643868209172570e-05
-1.195163538244981959e-04
9.345368687058715586e-05
1.376671288028116053e-04
1.369537843411632780e-05
1.699367074673898000e-04
1.198247747777495898e-04
-2.973714962546039750e-04
-6.733384234467814061e-05
7.835337865635396640e-05
-2.467366600770575782e-04
-2.243401663710463309e-05
4.014572250891544096e-06
-2.035734072853797900e-04
3.041741805383421955e-05
-4.003790221917501700e-05
1.682524365262257852e-04
-2.024388980987794037e-06
-2.362028192249179082e-06
-1.331454810646294702e-04
-6.651179014703867366e-05
1.440758038269488155e-04
8.501490744627371863e-05
-1.563368742380866563e-04
4.660718188188089028e-05
-6.411163710351939213e-05
1.399481121289028246e-04
1.517134004361547100e-04
6.212644633170528617e-05
6.640043538504826004e-05
-1.874078591462402380e-04
-2.960924254386638685e-05
-7.376449860607720975e-05
-8.598783974427434934e-05
-8.082385049332265468e-05
1.913526802367872341e-05
1.389739705517166068e-05
-1.875700359924213345e-06
4.369231692826563513e-05
5.960258829446461889e-05
1.623979591789856381e-04
-5.088887887303119353e-05
1.512599336339991824e-04
1.800185415694628558e-04
6.904749728651068095e-05
1.017006953800492024e-04
-3.224988152274209981e-05
-2.424570142990710550e-04
-3.571833179169977255e-05
-8.570538778727576775e-05
-8.894573262402638943e-06
-4.799440122355064155e-05
1.176602114791118595e-04
-2.554235426905598731e-04
2.195581253409274912e-05
1.646193651936945026e-04
1.906445324877066783e-05
9.285205978432595241e-05
-4.518616667247736459e-05
-9.840377066900907752e-05
1.880881188966798201e-04
-5.740078886669420984e-05
1.110261694264675630e-05
8.152172721267078571e-05
-3.081507659560328214e-05
-8.988318135388502733e-05
3.852466319489260068e-06
-2.111876410252069036e-05
1.073997139740667236e-04
-7.240761431241654166e-05
-1.508570001994394157e-05
-2.144221453691814831e-04
5.221675801253617197e-05
-2.073942559922615887e-05
7.381136535515386106e-05
-2.182156577366517751e-04
-5.068308861715837296e-05
9.860328683823333209e-05
-1.563136409012292152e-04
7.992071758047113856e-05
1.269226225868029928e-05
2.431210147325338426e-05
-1.098262148085928308e-04
2.988667290298295954e-05
-1.324138397892884202e-05
8.885443732772398834e-05
1.085312998223782909e-04
-2.590252906726794220e-05
5.618822949648964054e-05
-8.078972943541200377e-05
-1.085979630556551247e-04
7.984888484019777427e-05
3.217156295321590466e-05
-3.747542718316954421e-05
-1.406094461641004651e-04
-2.361143658214380728e-05
6.101781192451567970e-05
8.571230512462146010e-05
1.527529507758389497e-04
1.099177921348954497e-04
-9.182048680137026289e-05
-1.423279151778469551e-05
6.065384414407048444e-05
1.430141785298375706e-04
-6.103134237754640560e-07
5.343072680985830531e-05
4.782942234107094863e-05
-5.063938320600799630e-05
1.067475427392240055e-04
1.529698116925247496e-04
7.395567415881203138e-06
3.208491495228047048e-05
1.756882450565009322e-05
1.963889982023547082e-05
-1.231589797288275550e-04
3.122424611568653087e-05
-3.674995128665058418e-05
9.455813940329344957e-07
-1.996742478207594643e-04
-2.854673567305766879e-04
1.318859740770150270e-04
-1.196838040112298257e-04
1.515178231165503081e-04
6.156260124969332071e-05
-1.612454057033126250e-04
1.438064015516305545e-04
8.969921774983279593e-05
1.063526369128532491e-06
-3.042251640334587743e-05
1.470201857197561549e-04
-5.793297948436338188e-05
3.329576945826114422e-05
4.185366090699993159e-05
2.615308675179656531e-06
-9.698607801319480428e-05
3.843078038427749280e-05
-8.987783773733556882e-04
5.724006476456077380e-05
1.529035570764177335e-04
-5.824734964511866429e-05
2.774538306813344361e-05
1.964315309740823667e-05
-1.242971032239074687e-04
-2.331518806033428269e-05
-3.929481228427429419e-05
1.248274057768092510e-04
1.568229578870681781e-04
-3.210297618100585367e-05
6.076125589718017837e-05
2.633228754558557282e-05
4.929054093232014707e-05
-3.037377328796785438e-05
8.742802329195152838e-05
-1.882328536252879240e-04
-2.333164495139212710e-04
1.631454398820654354e-04
-8.791995723702344294e-04
1.919848572445283707e-04
-8.591483635369902869e-05
1.773799137764793256e-05
-3.100471019252076891e-05
-2.043929723377924123e-05
-2.605597863741929187e-04
-5.728096694986923492e-05
-1.300742705745682866e-07
-7.696071979743858600e-04
-6.858291261713693281e-05
1.643798387605266973e-05
-6.010951671530638958e-05
-5.462834948273374716e-04
4.704941620233349191e-05
-4.913621257372593251e-04
8.322580253170858567e-05
-1.827074759847337757e-04
-6.081814137363446195e-04
-6.700888868710558680e-04
-7.302018356891858044e-04
-4.884759033495242406e-04
-8.492967928294569606e-04
-4.547799032901743660e-04
-4.205136747305569258e-04
-4.003983813183010425e-04
-5.086058517447886044e-04
-3.165497241342496958e-04
-3.928639349295793616e-04
-4.755125710653478792e-04
-3.986965635080617519e-04
-2.825797682589360478e-04
-4.097783773123549363e-04
-1.925277240610769188e-04
-2.545372478114241513e-04
-4.010869522382190370e-04
-5.134962251774604497e-04
-4.194442451926781094e-04
-3.023987878130850052e-04
-2.218639881402865142e-04
-9.000075342552213116e-05
-1.903213986646671110e-04
-8.353661044405621939e-05
-1.264835857105457261e-04
-1.049205663746991798e-04
-1.891110512957011928e-04
-3.349336915455313293e-04
-1.535010994238561715e-04
-3.004033488806875539e-04
-8.273871344055796682e-05
-2.669916201195851363e-04
-1.756006741660972822e-04
-2.510937053201875392e-04
-7.711608869398755032e-05
-1.208361216835508153e-04
-5.657140351704630570e-05
2.646242121061184214e-05
-1.387412683123222625e-04
-3.733509075086814853e-06
-1.450964068298637370e-04
1.820374087039657637e-04
-1.091902442852955678e-04
8.266384623525785684e-05
-1.206365150189682157e-04
-1.775170323659822915e-04
-1.272057314481408867e-06
-7.307275878917803675e-05
-2.098867779835614461e-04
-1.130881763152289087e-04
-8.908960250273577255e-05
-7.241939585322013960e-06
-6.002930178825284594e-05
-7.417595983352186760e-05
2.181970666931243286e-04
4.537521998345409252e-05
-2.580093569537619206e-04
2.375344352863026007e-05
-3.925993079024911415e-05
5.323145454564218642e-05
-1.267412386290054293e-04
9.968947809240816531e-05
-1.311300979837634096e-04
-1.824618905668291575e-04
4.702300778167386509e-05
-2.238461375673690744e-04
-8.087130666843832965e-05
-2.413467071989019405e-05
-3.868281118543003889e-05
-2.123651570835764156e-05
-5.699726457485643861e-05
6.779766636161240227e-05
-1.458005965953116929e-04
2.043658598767342412e-04
6.922687396183198566e-05
-1.384974039233464701e-04
-4.186918988495604764e-05
-1.683106547044857949e-04
-6.446239083946138815e-05
-1.172895056200280728e-04
-3.240735755165101661e-05
1.266675655962620306e-04
-1.336961767113785100e-04
1.015301228866757518e-05
1.089974271426714936e-04
-9.733908246144194211e-05
9.023297782349669208e-05
4.213227889502061423e-06
3.570243114236169179e-05
-8.572516998142421006e-05
7.587263589651760648e-05
-2.366839803484538685e-05
5.286713199248643314e-05
-5.827880390619549826e-05
4.290819458764885710e-06
-1.780282376798386168e-04
2.815645073751262437e-05
-4.108898217243398335e-05
-1.283143351724229701e-04
2.346718931577206445e-05
1.113257078757833084e-04
6.208566594255884136e-05
-4.900667549013118106e-05
1.485623720221655436e-05
-7.093365727131412341e-05
1.769548082110623387e-04
-5.539144238920907224e-05
-2.952129512702161412e-05
-6.556973461795007085e-05
3.896206009502004909e-05
1.306677889363964105e-04
-1.956679517541585393e-04
-1.763579168297710914e-05
-1.940352591148083804e-05
-2.400138166611624627e-04
-1.127102652282929246e-04
-4.841817394120139081e-05
6.872666656038654972e-05
-2.985327086114778795e-05
-1.065674580873459537e-05
1.771202022120193983e-05
-9.186975758865895852e-05
-5.161877506871762761e-05
2.680629341904034360e-05
-9.769726485712984976e-05
2.447826817460596995e-04
1.100430447574672534e-04
-2.130700384585170425e-04
-1.349454794525388988e-04
1.193474765537965544e-05
-3.030894699659092179e-05
-3.295229191393812308e-05
-9.215346629475791606e-05
6.198448158143804398e-06
1.074934195996212524e-05
1.291409233316540277e-04
4.904996319110656230e-05
-8.093415093117835725e-05
1.396039396695985320e-04
-9.926110744874896666e-07
-1.941760760193476625e-05
1.053713297278613658e-04
1.306093224578577339e-04
1.341447156130836239e-04
-2.233635719125292662e-04
1.202366056093777559e-04
1.289502883699363727e-04
-7.641719646563676564e-05
-4.493806585811107451e-05
-9.430028875609005842e-05
-8.961693411145823523e-06
3.490573466410351058e-05
2.974093795053896769e-04
2.259103036248984544e-04
-1.548785222783760717e-06
-2.053840360344661527e-04
2.116561960329631448e-05
2.915049711699611070e-05
-8.274426491979019896e-05
3.050213105825546212e-04
7.081020815181962775e-05
-1.304046084495130839e-04
8.065249212326057210e-05
8.482259114523522903e-06
1.571477017972496861e-04
-2.991333788933373360e-05
-1.928607754004594643e-04
3.582442405933439477e-05
1.233152046610199540e-05
-9.324220795791104976e-05
-1.308458134489762941e-04
-6.937816640524634523e-06
-2.188197601251190235e-04
-2.728619423782547925e-05
-1.406958520395257197e-04
-1.281283063204843896e-04
-1.024825600494139481e-04
-3.581769572215660842e-05
-3.740357606811509279e-05
1.866233890238791897e-05
1.805250075598362582e-04
5.390182639684551079e-05
1.473631410467417488e-05
6.048667843406808968e-05
-8.167645226557871546e-05
1.802266317830256539e-04
-1.381654538212405046e-04
-1.336609188973229151e-04
2.127953919223076482e-04
8.541324452172809165e-05
-8.464480050559917014e-05
4.569897509528192544e-05
8.717894764155834813e-05
6.409022727777647830e-05
1.924506936323667426e-05
6.364339551594979869e-06
8.039030884242023313e-05
6.567371211447386743e-05
1.249826437501956643e-04
1.895977345187617393e-05
9.569143099803385506e-05
7.487350011423188714e-05
-1.785988553650288382e-06
-3.205351526319113618e-05
3.721164089766298375e-05
1.186081380299578792e-04
5.177868507495554310e-05
6.656175634074081233e-05
-9.528307953969224490e-06
8.090320494493657196e-05
2.421638007367326155e-05
1.872847917240197499e-04
3.253779151341036673e-05
-2.958178122311862571e-04
2.512539994427642141e-05
9.882396493875431921e-05
4.152431988710320809e-06
-9.070812129026594351e-05
-1.932931012917797403e-04
-1.459915246032567689e-04
4.319344110107599198e-05
-4.879754702972036358e-05
1.615101324344594394e-04
1.953466069710028740e-05
1.278811998566431072e-04
-1.976840510293268415e-04
1.106750820806826980e-04
9.484715284193278998e-05
2.254720705343867747e-05
-6.421285488837473205e-05
-1.229707013635297774e-06
-5.181778790960905113e-06
5.021868650838257742e-05
3.683596391896449944e-05
-1.196873304419480906e-04
3.664938771104684192e-05
-2.856466267418925362e-06
-4.889050107250424995e-05
-2.027217146596146078e-04
2.165612067708588194e-05
-2.819771190271877650e-05
-1.294126057368216504e-04
3.086240454891691856e-05
-2.195498198329004687e-04
-4.521007049525180299e-05
-4.560610253307318795e-05
1.847125192068310284e-04
1.205204105937859047e-04
-1.812776541954295100e-05
-4.847082157885848852e-05
-1.070385820680129301e-04
1.652950500585153931e-05
-1.843797469998310012e-04
-9.832253558555896034e-05
4.986968782296813038e-05
1.065161531795918352e-04
-9.044407127394098710e-04
-5.190952057185096671e-05
2.781212678853174129e-06
-6.712402248886450637e-04
6.047770153316887453e-05
7.398080484992762304e-07
-9.566750472393009425e-05
5.576821211124044931e-05
-5.573119975869050412e-05
3.670545301603938296e-05
7.929469999084658074e-05
-1.480805600435851073e-04
-2.019831052961727080e-05
-2.576067976728333643e-05
1.654545914709693347e-04
-8.312277820103687077e-04
-1.490412715932816490e-04
-4.856392934660373767e-06
1.201669843298555678e-04
-1.254850101582829559e-04
-1.313178480248481143e-04
1.962996628242777490e-05
-7.136609342117951294e-04
1.240602833043583813e-04
-1.392045160142087970e-04
-1.695496160800225949e-04
-5.981337485755856744e-04
-7.018664613978901554e-04
-6.416966068051295578e-04
-5.133376068852479965e-04
-5.558264976788261430e-04
9.503280794522482328e-05
-1.288057685939354691e-04
-3.021751112098388769e-04
-6.683954008474246025e-04
-5.001887327928843585e-04
-6.273855754103873587e-04
-4.109977604427806535e-04
-3.383047243249130828e-04
-4.524529519332768312e-04
-3.289981440836175922e-04
-3.053873833875324502e-04
-3.524036198903864655e-04
-3.865834094869270818e-04
-3.437279875467965057e-04
-2.094330173828220143e-04
-1.752699150456497445e-04
-3.831152352869728007e-04
-3.658970036508883586e-04
-1.422617196194495318e-04
-1.598554293780812742e-04
-2.192336371865704541e-04
-2.256118251860193065e-04
-1.111789404344539557e-04
-1.155527280581851587e-04
-1.362630845386495653e-04
-2.528978130846932441e-04
-7.308140871206938376e-05
2.612352459922848188e-05
-2.364513207135883260e-04
-1.381466712216774032e-04
-1.157698403090805201e-04
-1.319228128821187422e-04
-1.054788310970207618e-04
-1.654687790211650084e-04
6.953035368781687467e-05
-9.789286356105956534e-05
-1.619154886622496594e-04
-2.531540457191456552e-04
-1.103775178043108125e-04
-6.063741027910429218e-05
-2.749465993131473200e-05
-1.856567910860551759e-05
-1.799499930297301898e-04
-1.689051828821180694e-04
-1.819497430208420806e-04
-3.691084695659468300e-08
-1.046148089981842371e-04
5.502710179666249636e-05
1.874236720030571953e-05
-3.293877807538213450e-05
-8.718924929072113101e-05
-8.636311785537712274e-05
-8.014210664600232451e-05
-1.936785101054095976e-04
3.318528177675636199e-05
1.843866707250583180e-04
-6.328831580118500830e-06
1.372521781863077835e-04
-3.314660659750455772e-05
1.845248745919605504e-04
-1.018517858005225021e-05
6.054249088958220176e-05
-3.811319718696026110e-05
5.571478413879113939e-05
6.070928116321467323e-06
-8.286187260708688070e-05
3.739472007808490893e-05
-3.495482836303032121e-05
-1.094956803170391073e-04
-3.140861609330626266e-05
1.104141425476964728e-05
1.362902305266673467e-04
-5.277450531688636360e-05
5.447846060062183448e-05
-6.598740708242266557e-05
9.784519642759761254e-05
-2.266518638230425513e-04
1.318810389275393671e-04
1.124793256584733783e-04
1.834854145239451671e-04
-2.259418926195632359e-04
-2.290644185537168195e-04
8.502747857680678927e-05
2.101340826939742583e-04
-5.582528272595853184e-05
9.498438586445056414e-05
-3.043904844887858054e-05
1.093834099960646521e-04
1.154228171562944198e-04
-1.963465979670915801e-04
-2.333992016011907521e-08
6.764477121619944119e-05
-1.917347149199609771e-04
1.540677657732054809e-04
-7.708146125901866761e-05
-5.685908159691556354e-05
1.909742739975628433e-04
-9.249014041743254099e-05
4.993331471207461527e-05
-9.180352774246962002e-06
-8.403560948249606572e-05
-5.642099151356317347e-05
-1.795831259989326737e-04
-7.726475385438493306e-05
4.899630474838510640e-05
-1.918721068623879117e-05
-1.000126841312388732e-04
9.042977351403798912e-05
-2.331549381631371396e-04
-1.628558960635079244e-04
1.899149409913401170e-04
2.646340253527767027e-05
2.201471404985872363e-05
2.358675101191683303e-06
-3.655425835987181568e-05
-4.204162683023478660e-06
1.715230210782301757e-04
-3.893699293928395082e-05
-1.190982604810257502e-04
6.192669043593794465e-05
-1.766005135183205141e-04
-1.177700876282002882e-04
1.410769182337842176e-04
-8.476792028834280208e-05
8.894789972026256744e-05
1.132946504368395781e-04
9.515004246102022308e-05
3.846656175074091564e-05
-1.006821798802481709e-04
4.569254157872286286e-05
-1.368060416286696490e-05
-4.035964617842482537e-05
-1.033824098536569475e-04
-1.336002199271879738e-04
2.446058566147725101e-05
-6.757133423955215863e-06
-5.503857679187336167e-05
6.504005143025484454e-05
-2.910465936835245738e-05
-2.648271606080101784e-05
4.243878002823534484e-05
-7.826532219119738728e-06
1.785229798748456272e-05
-1.907897860145518659e-05
-1.912222938886907607e-04
6.108503293450257330e-06
-9.273907090699965350e-05
-4.476946880395731509e-05
2.459437673458122575e-04
1.593363643467215151e-04
6.026350909862403342e-06
-5.162187868695850706e-05
-1.256261294068568052e-04
-9.251300177081622756e-05
-2.652240057090999683e-05
1.249413594875044839e-04
1.500499223063102292e-05
-2.192707576639345280e-05
1.273029183246781910e-04
4.729117486970116440e-06
-9.604260539260038902e-05
2.190237230148076652e-05
-1.963746183152742801e-04
8.147348185534356003e-05
-1.442126444051404488e-04
1.586182606435446551e-05
-1.834086228340777998e-04
4.289362200660104188e-05
-8.891957238159036033e-05
-5.984896316436595859e-05
9.411122902873038224e-05
7.424796241908924316e-05
7.642460300062883891e-05
-1.720397573674985474e-04
6.687059866444341410e-06
3.964595612693386130e-06
1.543004726232289204e-04
1.433632527347157267e-04
-4.827490495898451110e-05
-1.041543365388711447e-04
-1.819873103059891671e-05
-5.790001629271968053e-05
2.434153737289544131e-04
1.371090516213313733e-04
-5.896343639414923531e-05
5.489088711607536663e-05
-1.703773291268748818e-04
1.732326370437557435e-04
4.849105964459513078e-05
-1.507544173637675566e-04
1.005439998667000855e-04
-5.204717270313351707e-05
-2.152205825981409163e-04
1.829642915134008059e-05
-1.727410079576025318e-04
-3.756329993898246375e-05
3.664195547778912996e-05
-5.614689119610351427e-05
-9.538099826802910367e-06
-1.113918512085779118e-04
5.264880324525822353e-06
1.130275338956625032e-04
-5.050175048271669196e-05
-7.756890696082103425e-05
6.438593188219153096e-05
-1.367396325656844100e-04
1.189100867300413158e-05
-2.093762750029898176e-05
1.828083307544865592e-04
-1.496882195614820130e-04
-9.889656295664940588e-05
1.248161732834582092e-05
1.553465242313655653e-04
6.243171229854670992e-05
3.419370510370821830e-05
5.088780602662531583e-05
-5.185091511282275187e-05
-2.217019322339412843e-04
-1.698640668935197409e-05
2.663767473466994713e-04
1.045870418224949911e-04
-3.659639455510493026e-05
-6.604633491818068366e-05
-9.626250673190477633e-05
-1.618496056772256739e-04
-3.955296945800961439e-05
-5.078821026247542218e-05
-5.332205995313752224e-05
1.583331132935623334e-04
-3.932212352251096625e-05
-1.186206831945334976e-04
1.230557822600465137e-04
-8.293447156746436050e-05
-3.860321370207318441e-05
-5.129465940075552928e-05
-1.543847487402765981e-04
1.225392903373234514e-04
3.025144318513291219e-05
-7.614652949087402384e-04
-5.743194326946892162e-04
-8.190175096097595381e-05
8.142922108821770255e-05
-4.662740714393388890e-05
1.400665072046720851e-04
-4.527562689480131114e-05
-5.955841406356886096e-05
1.088943139631162961e-05
-1.707139518147656387e-04
2.703205478415504113e-05
-6.151901516453523594e-04
-6.022515339723456601e-04
-5.778736113095017321e-04
-6.665238451720439244e-04
4.671908290084628234e-06
-6.968661794251069120e-04
-6.228888219710343585e-04
-5.545124119377368033e-04
-7.132257392275866440e-04
-6.704111003433838728e-04
-6.178193713874813439e-04
-4.400184019325092217e-04
-3.241546034867037523e-04
-9.682195926207579214e-05
-3.495893034290570300e-04
-4.585330446818877562e-04
-6.075297191723400513e-04
-4.319634262696169327e-04
-3.606598038778056751e-04
-4.779120492714889487e-04
-3.610288951423965128e-04
-3.155665460495258885e-04
-3.192906968095329942e-04
-3.315431165790453066e-04
-1.248182220549900741e-04
-3.022563473593417442e-04
-3.088048175978306176e-04
-4.303076549056674690e-05
-6.421221233449788594e-05
-4.644760551154140395e-04
-2.241108126695652895e-04
-3.183799935451626277e-04
-8.159604164642981746e-05
-1.599329882572068896e-04
-2.383544971384617735e-04
-1.232666448664260141e-04
-1.954252679084045877e-05
-1.235418663624575928e-04
4.420151215546501639e-05
-1.879533900671196984e-04
-9.899935553920729278e-05
-1.451398281212652947e-04
-5.746460933502365171e-05
-4.275280952968833981e-05
-2.139743132458803469e-04
-1.512827478772421023e-04
6.996704191849378472e-05
-1.050601415275988990e-04
-1.913341906950242056e-04
-1.005182904610271266e-04
-6.066588477396012055e-05
-2.612455192675354341e-05
-2.053743162332829570e-05
9.974306979192000219e-05
-1.381720654044927394e-04
-5.398259284756942939e-05
1.402547335412655197e-04
-3.755699588901597881e-05
-1.400258116471641125e-04
-7.201191569382043699e-05
-2.487385876987585577e-04
7.639353184750249264e-05
-1.941597787866574727e-05
-1.110022453172632671e-05
-1.634135251204673043e-06
-3.085257956238858843e-05
-3.621414782990586449e-05
-2.813364823049515357e-05
8.661593591256241216e-05
1.793078637048839901e-05
-2.974150862557636190e-06
-2.286454654767442298e-04
-3.699661386443977218e-05
3.004178495868072983e-05
-4.544402566236683801e-05
1.467024492018199932e-04
4.295107455759851456e-06
2.204865122985206382e-05
1.622777293268407942e-05
-1.096923915658408742e-04
8.907885614080845137e-05
-9.092728991974332871e-05
2.168691850984668951e-04
1.191847550497556721e-04
2.624974731071961917e-05
5.345062467050451678e-05
-1.779556279437788564e-04
-1.337793974642514175e-06
-1.039290731525849118e-05
-1.414252997300965184e-04
1.245942948551703158e-04
9.920186309798057866e-05
-6.315228408553089133e-05
-3.590752526149552501e-06
-2.377357303125622828e-04
-6.212664412118342773e-05
1.919509955435264449e-05
3.373422362721186743e-05
-2.064877865146533904e-04
1.229716511654498509e-05
4.311839812458453822e-05
-1.287971265493857644e-04
-7.805777246854001192e-06
-9.892725868716126106e-05
-2.486293479684426283e-04
5.855284153928376489e-05
7.204434799036016400e-05
2.000168673334439342e-04
2.804520641974555766e-05
-9.914327065480243962e-05
1.866561177689969435e-04
-1.184179686033036646e-05
-1.539413751997813142e-04
1.276989756577744703e-04
1.693370745337633928e-04
6.696138741552720133e-05
1.501710499830339837e-04
1.103222711294745051e-05
-8.612467568015524976e-05
4.356580864283474792e-06
-8.181007045980821270e-05
1.286312915844740499e-04
5.880503253686585795e-05
-1.855924672885846929e-04
9.432757989559831702e-05
-8.152408218096769308e-05
-8.936646470426539541e-05
6.094046588295731842e-06
-4.928289589849467966e-05
1.445972255492787692e-04
5.117995890745501223e-05
-3.092750600983068608e-05
1.032340032550097680e-04
1.218430982324679554e-04
-4.110224579195280437e-05
6.273748754678384833e-05
-7.519157790100336990e-05
6.852738666714824065e-05
-7.755442547612378490e-05
7.041286756544345190e-05
-9.590663122556141698e-05
5.021465218819790786e-05
1.625647966499688905e-04
-2.759815298342221766e-05
8.586696256392357797e-06
-7.127179731074856773e-05
-3.395695921244228858e-05
-1.928718852590011721e-04
1.004798770418972078e-04
5.768605799912081533e-05
-1.711679389870651680e-04
-4.267456602016105109e-05
-1.247234630035927189e-04
-3.485010112343739618e-05
-3.341515839143326095e-05
-2.466359372189111344e-04
8.205461085450490211e-05
-4.065725369533156828e-05
9.773113126645008859e-06
4.703982202036071031e-05
-3.957149423003311064e-05
3.311334054223424286e-05
8.174890995837577091e-05
-2.071813234892025954e-04
4.529806872177743348e-05
4.523218084853404108e-05
6.688131310157367879e-05
4.117379309162686368e-05
1.513557948599500494e-05
2.693074782021755254e-05
-3.530437668691760586e-05
-1.511912550915395898e-04
1.343641063239003605e-05
3.266202961250391627e-05
6.723364557459230373e-05
-6.714480292368755880e-05
-1.013565012735906395e-04
8.248247109035795367e-05
-2.263923436455170821e-04
8.781686467145660127e-05
4.993734185438350519e-05
3.157266123952392610e-05
-5.660614617591247928e-05
-6.090576531783828477e-05
1.697863631495277054e-04
-2.445623801836039325e-05
-1.060093831763758498e-04
7.090138446758310495e-06
-1.718097823926110471e-04
-1.270171534401918611e-04
-1.661594072367355505e-04
2.218690105145096456e-04
-2.639098947745172869e-05
7.042301296724697273e-05
1.778303781046526729e-04
4.035500614343997329e-05
-2.661805166933524131e-04
2.504386966462771421e-06
-6.111355484537097168e-06
-2.428680698006479340e-04
-8.979980666735617491e-05
2.051488690171921790e-05
2.270369583756352123e-04
-1.947540273288343173e-05
-1.924013847341365881e-04
8.988645538953799526e-05
-1.550546884910761384e-05
2.318087483838739290e-05
1.034680559999513999e-04
1.545400247917112400e-04
2.117554024749817492e-04
-1.293816449010392006e-04
1.454697243269767369e-05
1.844440967089556744e-04
-1.617176212421551820e-04
2.567627737166965863e-05
-3.772544464489003537e-05
1.055167893542352932e-04
1.819470296944297066e-04
2.938000177227857558e-05
-7.239858872618216119e-06
-2.184349821854071865e-04
1.251461920077323565e-04
7.917754723877394000e-05
7.864857562435374804e-05
-4.487732443169255444e-05
-6.144889780002041530e-05
-7.653205353914184798e-05
1.354866965988904515e-04
-1.705085549999886627e-04
2.483190028433494086e-04
3.214275948343654093e-05
4.887923985216685244e-05
-2.177370788528219762e-05
-1.395607934822112504e-04
-3.461930291575454751e-05
6.605192372386669262e-05
4.321760499928559688e-05
-9.866317325105896676e-05
-2.846493496736887045e-05
5.437615410801603048e-05
-2.237965378745920575e-05
-3.211719365706599394e-05
-1.147429160731740439e-04
-5.494708898656201648e-05
1.701494357143354614e-04
-1.069331548954197879e-04
9.169957652918182096e-05
1.977853956032766094e-04
-7.516670153028368496e-05
-7.436114588239340663e-05
7.862676459554084106e-05
9.004942173883457429e-05
-2.059529600339927557e-04
2.144206564337530546e-04
1.224145578683475701e-04
7.880025123173461205e-05
5.299153351033382642e-05
-9.820035353050829581e-05
1.358683976206083826e-05
8.999052501170060156e-05
1.080570655034095124e-04
-8.828434036219632349e-05
-7.943064786320080722e-05
-2.427227716186750674e-05
4.762029952045736768e-05
2.364417668531903046e-05
7.427712880575160800e-05
2.408291646930491638e-05
3.888279657721494095e-05
3.972920879430852180e-05
-2.185694937697840804e-05
-9.013526819804557630e-05
4.360488491589737244e-05
4.214749146951206820e-05
9.606939702879414700e-06
2.610219539761089984e-04
-3.415778374894074535e-05
-1.298460871794420541e-04
-6.832070087122333202e-05
6.776171150393991635e-05
-2.822952885172585666e-05
-1.330203528049233750e-04
1.143889380271562785e-04
1.130136590643121993e-06
-2.448319253906859963e-04
-6.460938918798861700e-05
-6.814504035696846449e-05
1.065692735069637531e-05
-6.850380586250991968e-05
1.382623334690286749e-04
9.357605195073822615e-05
9.059807160626542086e-05
-2.039831804033700872e-04
1.767800331555495930e-04
-1.058412335961116026e-04
1.110369176426471299e-04
-1.051594853097700326e-04
-2.323602401901366513e-05
7.894586295300272719e-05
2.670571512886279618e-04
-8.337266731985021719e-05
-1.574802803941952652e-04
-8.199403069503829577e-05
-6.020226423455461013e-05
-1.065121592083408258e-05
-5.540852572654481262e-05
-8.539973544847666840e-05
8.156751958209222208e-05
2.256169882915223660e-05
-2.874429649920680005e-05
-5.383917196456645818e-05
7.255690204335568834e-05
7.389935860549473731e-05
1.766576770370648791e-05
2.151147080140216250e-04
7.099534293571348447e-05
-1.481310716296893119e-06
-8.164258957535895384e-05
-2.541878877749910101e-04
7.220391009807082549e-05
-7.499741175339703079e-05
-1.369013036441771129e-04
-4.198686824592424781e-05
1.621848869232065944e-04
-1.560368673237417928e-05
-5.326779519577494682e-05
1.171592727422418206e-05
-2.443598946142029786e-05
-2.471145300037064831e-05
-8.394576114137157952e-05
7.255132244067624095e-05
9.084689948544312336e-05
-8.370725357720115115e-05
-1.320681251375202970e-04
8.283624955466410158e-05
-5.437679890048274426e-05
1.582498437429963507e-04
2.825117627583783019e-05
-7.400737585689397323e-05
-6.329235287834918447e-05
-1.276675487258334711e-04
5.003835883298210415e-05
-6.035722604865786510e-05
-8.208414976751383609e-06
-1.372974031376001899e-04
8.908562552104664039e-05
5.982872387624178903e-05
-1.098898678237389680e-04
-2.813343481540937573e-05
-1.025849624730644017e-05
5.322570131631870320e-06
-1.979597630484147028e-04
-7.561210329379690364e-05
3.798648288823695682e-05
1.201025611732014370e-04
-6.055070336092652477e-04
6.093683270783422588e-05
3.987022532083592605e-05
-2.148017074422601671e-05
-1.607998295796512469e-04
8.527521943493923976e-05
1.861787735628459936e-05
-1.039743562022930483e-04
2.936497627298972196e-05
3.536049602401644394e-05
1.876991042774450974e-04
6.689062248168976105e-05
9.094824157590912213e-05
9.508876536360594267e-05
-1.309036540364934785e-04
-1.767221027654019481e-05
1.737879239801528143e-04
-6.066044281454390863e-05
1.809290531303388611e-07
8.223175164659547547e-05
-5.066583852236510602e-05
-5.087970816618316353e-05
8.025063584753964858e-06
-5.586709923823652375e-05
-1.219235988010887898e-05
-3.110200891082159913e-06
-3.955698956661522683e-05
1.309811445375785866e-04
-1.602109665730391493e-04
9.257408623864388274e-05
-1.554100320225671315e-05
-1.061862537272204603e-05
-2.702958543506027078e-05
-6.165456117483425040e-06
-8.393057092028885968e-05
1.285576364488539419e-04
1.095134475915139215e-04
3.935416661284692842e-05
-1.032930394744749195e-04
1.231120874706909379e-04
-1.349008603359008003e-04
-1.442298206156447226e-04
-6.086452658589128987e-04
-5.504318807272871097e-05
3.795630290186946716e-05
-1.657183245276752149e-04
-7.212386787408444754e-04
-6.282999934471816383e-04
-1.822705469596111561e-05
-6.726268726384160160e-04
-6.390879965298500555e-04
-1.352791856221216267e-04
-1.497397267639436738e-04
-7.281350934763465435e-04
1.954474715606587811e-04
-9.964034562898334800e-05
-5.570906932920647019e-04
-5.653627110085009079e-04
-6.534229371417127211e-04
-5.508754893123855726e-04
-3.598617986773137946e-04
-4.055993109119253597e-04
-4.988582062548508993e-04
-4.780363192341245291e-04
-3.172740550493742778e-04
-4.888881767177308746e-04
-4.937571909869444085e-04
-4.043958449916902728e-04
-4.307876539627166824e-04
-4.167139332883438305e-04
-2.719243530080438513e-04
-1.581621871040264128e-04
-3.210268102770995661e-04
-3.798079935953076647e-04
-4.973432318538723897e-04
-2.604200526370679123e-04
-1.826439021029892251e-04
-1.815808121623737909e-04
-2.166582212635761984e-04
-1.180571409049982658e-04
-6.377039751620003198e-05
-7.682893986413517158e-05
-1.786717870849063221e-04
-1.489757105498135971e-04
-1.294594655595300635e-04
-7.945148153788477092e-05
-3.717148786983261633e-04
-2.196231517098107646e-04
-2.126512502666494256e-04
-3.373219953043879709e-04
1.294721653574882440e-05
-3.824606365820914231e-05
1.550333257622562912e-06
-1.395608827406868611e-04
-1.896688920621066791e-04
-2.654479742680333635e-04
8.434013701096559738e-05
2.064305083543241446e-04
-8.065035247497360138e-05
-3.650468363736863330e-05
-9.455080035494470736e-05
2.539435582662536101e-05
1.038100905296821501e-04
-1.080535471524594931e-04
-1.312805329778784147e-04
-3.342725370311633954e-05
-7.365268732932680107e-05
1.547568236651555103e-04
-1.540950063917973368e-04
-2.906709533594402207e-06
-1.470919446068476213e-05
-3.546662310978848697e-05
1.255054091751743595e-05
5.124926764321929720e-05
-1.188093722050587056e-04
-2.162488665628789562e-05
7.765098262205607333e-06
8.504653857732666941e-05
-1.029393036399174068e-04
-1.536773804020944941e-04
1.238894992732748424e-04
-1.557385458825942597e-05
-1.241761378407042760e-04
-7.763003976031129544e-05
-1.459612533070645674e-04
1.511840255096306132e-05
3.595147328819611873e-05
2.725581640571949276e-05
-5.179507873192127271e-05
-5.349876927242285034e-05
-1.707772292131188576e-04
-7.650316515528360990e-05
-1.058742883371649180e-04
1.114982400088772122e-05
3.865880498734577188e-05
7.958747734682602960e-05
-1.128314018764558238e-04
-1.028635256084585930e-04
-1.963859725008923539e-04
7.522089720642498724e-05
-2.426059257838639635e-05
5.294433833075585377e-05
-6.844954352473176776e-05
-3.500393276752369881e-05
1.734344071213438191e-05
-4.978552725748421965e-05
-1.234472028563567386e-04
2.466315604765363579e-06
-3.914165323941961195e-05
-7.310174817962259639e-07
7.335684735402791401e-06
6.127511253398345962e-05
9.738432801804705195e-05
8.680782015133337351e-05
-1.007310129484230226e-04
-9.659698483456579440e-05
7.824626376360300942e-05
2.036377293880365432e-05
-1.682842296355050457e-04
6.895877574118684902e-05
2.257548744951935922e-04
9.144119772488058415e-05
1.120365789032353219e-04
4.245707593959639135e-05
5.076299474410491053e-05
3.615006054950003621e-05
1.488864828114196121e-05
1.022081713192813605e-04
6.217890212418814965e-05
-4.816712108752449291e-06
-1.118188339312046282e-04
-4.019588080781909392e-05
-1.254706207611125195e-04
-1.651301030490205898e-05
-8.706584333674426373e-05
-1.299362808195692795e-05
-7.339069320246380127e-05
2.183870036989105979e-04
-7.030345579177279451e-05
-2.155536663214220369e-05
-9.283603190076416208e-06
2.575289877495140896e-05
2.055627873751854793e-05
9.699916199355721055e-05
-1.892203681182180033e-06
3.305833725366710563e-05
1.025155852114610676e-04
-8.795322447836054485e-05
-8.395844725009421711e-05
8.512077871807615845e-05
-2.258152751481524772e-04
4.883950805801791551e-05
-3.552297073532254554e-05
1.516516669085402351e-04
-6.823084469519461164e-05
-6.077242564525645448e-05
2.162235522901295026e-05
-3.382250142573464241e-05
1.230921075209673288e-04
1.206599717845347169e-04
7.104403065777854104e-05
-6.472049018032785019e-05
-6.291694435531072543e-05
1.431339268904410951e-04
-2.497802613955716483e-04
-4.271591914150820482e-05
-3.970624508520719041e-05
4.875859761651778532e-05
-1.394906191149000339e-04
3.358880326941989717e-05
-4.649498125874621310e-05
1.054761868902916584e-04
1.626935633116017871e-04
5.369980124100274030e-05
-5.600319552363621428e-05
1.145123376118261543e-04
-8.589645607457066609e-05
1.272936538095494172e-04
-3.507934189269894602e-07
-9.118350042180498462e-05
-5.078815496011782597e-05
1.553044295218243738e-04
-7.755979335655947783e-05
-1.466609557304114598e-04
-4.559072222223782051e-05
-1.292732156862376491e-04
4.020816866543597972e-05
5.102851483482397636e-05
-1.909645438536440142e-04
1.428200493258911818e-04
-4.877312086528530483e-05
1.260426511067077042e-04
2.036486060640999333e-04
1.453021032608158990e-04
4.059048892427705055e-05
1.321209897403652997e-05
9.907684822165091531e-05
-4.123486240516079863e-05
-1.506522831632196993e-05
5.781365923581052301e-05
-1.499420113318837772e-04
2.328463136683438280e-05
-1.891882648278980198e-04
1.543442002287848851e-04
1.354581787253464559e-04
1.024622926377166535e-04
-4.962901932789265483e-05
-2.035586290846348533e-05
2.457271076153845607e-05
1.270245415340923579e-04
-1.401733704559886132e-04
1.699978673544096954e-04
7.472816118897119436e-05
-1.387997872345995813e-04
6.577086386366158251e-05
8.726525368651998445e-06
-9.274897983549769181e-05
-4.522976614380389259e-05
2.288734141710900384e-05
-2.340305435502106535e-04
-4.969229623234637646e-05
4.302337783505794360e-05
2.725860982652135138e-05
-1.255030574550500943e-05
-1.659568531508189611e-04
-5.508996860965872840e-05
2.022634649577737778e-04
4.390982085855930960e-05
2.120831467934533511e-04
-1.262862153225303782e-05
-1.988568847334534469e-06
8.988913068578899246e-05
-1.174818181728610539e-04
-7.063825995836442906e-05
-4.371562387013271981e-06
3.165804946373650651e-05
1.092408639659662241e-04
-6.601803545310280547e-05
-2.022513580611533170e-04
9.416404326549496174e-05
-5.500773510189573348e-06
5.871453169354691107e-05
8.512162122359951256e-05
-2.554485115980373419e-04
1.696342954516921601e-05
1.531339102385840091e-04
-8.258944511444850551e-05
2.812447597976149876e-05
1.174532258884904368e-04
-8.559543586050752655e-05
-9.623464343576986174e-05
2.202739631994825856e-05
-6.977793642532751815e-05
3.047876300102431331e-04
1.775135948790155062e-05
-2.136788557085128333e-04
8.248317580106588707e-05
-1.696826620137927900e-04
-1.052527260866486250e-04
-9.292719449575115591e-05
7.969549207624307646e-05
5.296897437376426156e-05
-4.050281757413476885e-05
-1.835740459592142323e-04
-2.001604839382648763e-04
-6.988562397005711375e-05
1.105454338843275071e-04
4.418404510420819234e-05
1.538520573896057122e-04
-1.469344428309344512e-04
-5.690704589031061565e-06
1.444305406601534996e-04
-2.349044634643541877e-05
1.117809791331708945e-04
-1.072321559033914397e-04
5.856210877067451420e-05
6.227634711213556864e-05
-8.725092677257368886e-05
6.318184662725020279e-05
2.346981733919369659e-05
-2.013707624049100966e-04
-8.275003785671981263e-05
1.101796589084807389e-05
1.081832005808933567e-04
-1.318687343580597865e-04
1.256148874588829589e-04
-5.603350869652230760e-05
1.129135031441173846e-05
2.078996820946348663e-04
1.203181557442670473e-04
1.186065236160379076e-04
5.238896037432218912e-05
-1.219939595145231968e-04
-1.725749297848930307e-04
-1.200363936328750753e-04
-6.426625651956258053e-07
-2.053031178871725674e-04
3.486806468450991060e-05
-1.920432124792436767e-05
-2.873639915068600472e-05
-9.636417425273152129e-05
2.942004894804156270e-05
-2.274755747391803606e-04
1.285690229707504697e-05
-1.267398621435986529e-04
7.643772269906465517e-05
-4.436747218246213365e-05
-4.168795592926710864e-05
1.530107256425708255e-04
8.635696073300007012e-05
2.751726513847906302e-04
-9.037521480440339171e-05
8.390731392052066281e-05
-2.921025293726261615e-05
-5.306361049845738023e-05
1.360968227848085123e-04
-6.694259869558660684e-05
1.497883595432142757e-04
1.111015928050623648e-05
-1.226095053063279875e-05
9.443575099640789657e-05
-1.810442800909556744e-05
3.030685937537136890e-05
-2.700776546014201234e-05
-4.056761589803898981e-05
-4.465374763821086305e-05
7.673821985314977390e-05
7.032304119924670256e-05
2.147188665636465030e-05
8.183468860351837953e-05
7.731333518075380836e-05
-6.889876181854279592e-05
6.943642778070936489e-05
-2.331439685973158454e-05
-7.107663258126877470e-05
-3.829387557080109108e-05
4.824169258870926463e-05
6.371637143976998491e-05
2.397953145713635769e-05
2.976158383506739049e-05
-6.412121114013263142e-05
4.519193357541857194e-05
9.809573697032770187e-05
-2.865592857476702141e-05
2.584844831125740754e-05
2.454072098191869376e-05
-1.157142792431203367e-04
-1.395341692884834010e-04
-1.370363718260292563e-05
1.354429197995998636e-05
-2.980333099993630605e-06
1.830989545256783335e-06
-2.570253343778367323e-05
-2.818831846213552635e-05
-1.054545239987010483e-04
-1.368927070111813200e-04
1.374096237094317870e-06
-2.045905880608718530e-04
-1.107658013523435192e-04
-4.903990792630565321e-05
1.301822104656998351e-04
1.287472021145005298e-04
1.617928942468005091e-04
-7.274369784943514414e-05
-7.798514696292719922e-05
-1.089447692125153718e-04
3.453556470692713498e-05
1.583116528054172084e-04
6.586925994189158176e-05
3.707789926424734741e-05
-8.008263596981717670e-06
9.212593299192443390e-06
-3.971890782243339875e-05
-2.035494296125742739e-04
4.591937705537432144e-05
6.855759228931338540e-06
1.127282652640199871e-04
3.686769194000087267e-05
-1.011890525947154308e-04
-1.074633244633548494e-04
1.625781241754561124e-05
1.931823997894162748e-04
1.324765078002324969e-04
-1.870114542018707780e-04
-4.137685732863858787e-05
1.089962168540312576e-04
1.153309516664054177e-05
8.057035472794538114e-06
-6.519176477648619178e-05
5.400492534254732057e-06
3.095163623972416330e-05
-5.629900508661163068e-05
-1.526891534390736633e-04
7.283143658583623027e-05
-1.222603012841501466e-04
-1.120581287123504467e-04
-2.261632169190799878e-06
8.577111708865103336e-05
-1.063830849592141035e-05
-1.271197136712212954e-04
2.619721176645837700e-04
-2.001550077620345154e-04
1.872949873398873516e-05
-3.618215247073827852e-05
-1.133561501948501858e-04
-1.137599580111078005e-04
-9.567748450016742888e-05
-8.443150244259788138e-05
5.411529926554171596e-05
-1.514998952018094646e-05
-7.776319089798078006e-05
6.284693718868292905e-05
-1.717178348942450974e-04
-1.665939770709756162e-05
1.894504192159846771e-04
5.429785806766215643e-05
-7.131492179805642615e-05
1.656238323414647366e-04
-2.031971884670971933e-04
6.329749109273289981e-05
5.630217787415654296e-05
-1.345038670360411447e-04
-2.957421398301088449e-05
-1.654051244857996316e-04
2.244769034730924416e-06
2.244270742762728200e-04
2.927892757212819655e-05
1.376649783882320734e-04
-2.637061029076363434e-05
1.845797117098423555e-04
-1.333237011194214895e-05
-1.360535020958508648e-04
5.924868591826243440e-05
-1.349090009867646035e-04
5.744733025176381645e-05
6.152457325424541274e-05
-9.883531619984542579e-05
-9.378126770102650949e-05
-2.367109317723012060e-06
1.642266893009182470e-04
7.620175425941891757e-05
-1.878544745187872675e-04
9.386052502869900974e-05
-5.763147404716795896e-05
-9.985607818420386280e-05
-9.838910067398781896e-05
-3.891525924310970896e-05
-2.596951901391669840e-05
-8.854783004093639580e-06
-1.305322833105381389e-05
-1.948390977055505688e-05
7.755658844429361848e-05
1.019980635032394456e-04
-6.225462330427775656e-05
5.666916350545978934e-06
5.878424252218535648e-05
1.055073891728101258e-04
1.231154715449789294e-04
-1.355368201209109999e-04
-1.596044657862019656e-05
-8.358723875482141242e-05
8.998480398640956344e-05
1.279791237668924213e-04
1.181300771530065404e-04
-5.589280912608876806e-05
2.817300780013365312e-05
-9.347135665302431351e-06
-2.455654004642667936e-05
1.039324844005511312e-04
9.880502236304685961e-06
-2.250139080433057309e-04
-7.613267392937565249e-05
4.286248716625750674e-05
-2.059353268558378864e-04
-6.252847617718650621e-06
1.121262245831198049e-04
-2.576829247738349668e-05
-4.424001555341964631e-05
8.002751970370742152e-05
1.192040322603047444e-04
-2.011597142338243831e-05
1.469280307508649621e-04
3.892698480684333935e-05
7.552011106619180364e-06
1.213828748378993047e-04
-1.560492454212915889e-04
1.223871110335262918e-04
-8.342220750718904593e-05
2.766221169352382211e-05
-2.712534347103987540e-04
1.301408721673699253e-04
2.007745344553265384e-04
-6.934899431694831749e-05
9.577345182554268435e-05
2.347624250661287386e-04
-7.174605238417302254e-05
6.774343721676011592e-05
-8.037511728195132399e-05
1.148706957231643271e-05
-1.397089722995947846e-04
-3.165677404803499492e-06
1.161865551760507601e-05
8.090738809589388518e-05
6.113839404690824507e-05
7.877752930088751098e-05
-1.542273185957486047e-04
-1.014126883226373291e-04
-1.056646462059487162e-05
5.202068156902312336e-05
-1.476186507342017144e-05
-3.603788537749012116e-05
-2.048714568956757232e-04
-1.102741645300247446e-04
2.222511309284147608e-05
3.026071226949886614e-06
3.099943241941541206e-04
5.525669212692212780e-05
1.280859678977714062e-05
-2.160808785395562060e-05
-6.667092524990978050e-05
-1.772287986324231080e-06
-1.588008305676840305e-04
-3.578761114504438312e-05
2.212231440107341232e-05
9.340294609454012447e-05
1.588735143060140043e-04
1.136138607336291715e-04
-4.831529047016442865e-05
-1.082064789502661258e-04
3.075401708385587670e-04
4.874211846650371215e-05
5.088455626530877474e-05
9.734833666722365767e-05
7.431285467077549311e-05
-3.885604576519844988e-05
-1.934688060335933569e-04
-1.178763075330096182e-04
-9.851919852526507123e-05
1.207222925231625266e-04
-1.204045174390475093e-04
-1.120456194995738205e-04
6.460430605459351354e-05
-5.290094463205929952e-05
1.028879624372808514e-04
1.903140036852587371e-05
-4.816452408734128233e-05
-8.137162088624184898e-04
-2.488846059908269808e-05
-8.451545280117514882e-05
-1.405503601861945377e-04
4.486838080922795339e-05
-1.754316258097280757e-04
-5.247050771080553856e-04
-9.120031957823261515e-07
-6.824827506319311671e-04
-5.279860332441630847e-06
3.737873126471641708e-05
-8.971209021183394511e-05
2.563327508857852702e-05
-7.123835971022290969e-05
3.091388605039997549e-05
-7.593445392982187256e-04
-6.771902260481724081e-04
7.264499090432700716e-05
-7.196770323019867702e-04
5.557109859123027294e-05
-7.206063655139046710e-04
2.192347186806307627e-05
-8.269766153905778973e-04
-6.531774742006912033e-04
-6.241149033917683421e-04
-3.992147170885707095e-04
-5.264161307430697276e-04
-5.757107512273876987e-04
-2.578346357322481197e-04
-4.728910738471467910e-04
-4.625917822805738046e-04
-3.180706403520493762e-04
-2.408848047369257443e-04
-2.820642577353293912e-04
-3.010669631622614343e-04
-4.224046194434992918e-04
-4.016946467555710483e-04
-3.932401212526255032e-04
-3.059335992692717248e-04
-2.286419847566428971e-04
-3.076779826897282173e-04
-3.111736107642981155e-04
-2.352596912423344003e-04
-3.230504748918004362e-04
-9.295060012075109326e-06
-2.249530598917003359e-04
-2.370762063248882910e-04
6.111840475428779139e-05
-1.588271967010305204e-04
-1.814077907365609392e-04
-1.603442889539933637e-04
-7.760624916433521664e-05
-7.962980075190210214e-05
-2.700517279502349694e-04
-1.298520534930543222e-04
-2.087059824862222629e-05
-8.195535746973086949e-05
-1.273687507691983469e-04
-2.421799711745110364e-04
-1.701845287498137988e-04
9.096008397343015834e-06
-1.585019047123487900e-06
7.366028530560362499e-06
-1.588120370006351778e-04
-4.194268213536045067e-05
5.294461785428766358e-05
1.206335166511205082e-04
-2.997708466551060613e-05
6.495817188603693565e-05
5.871219258159926579e-06
2.664230435675559488e-05
3.348116431961485400e-05
-3.030153531102569749e-04
-2.732297252301749412e-05
9.061347367750380080e-06
-3.978344365346739276e-05
-1.857744909205024726e-06
-1.274583215643489316e-04
5.236049427277548654e-05
-1.004904087349040313e-04
-3.683976570931807873e-05
7.710087070987039180e-05
1.660631122782223426e-05
-1.436723443709312829e-04
1.943461118666907551e-05
-2.651875622209997978e-04
4.964644814304487180e-06
5.793364644983503033e-05
-2.232235605423918005e-05
7.181569385630722456e-05
-8.225463101998367729e-05
-1.709890204432307388e-04
4.306432817360380399e-05
1.090134780124064396e-05
-4.607383020498566085e-05
-7.821569013194610664e-05
9.628255351783731599e-05
-1.171803839259923699e-04
-1.756571705579748502e-04
1.893586452742312769e-04
7.616490686189662340e-05
1.313995105202520020e-04
1.968452450153746443e-05
-2.914511529389388284e-04
-1.377682883625700585e-05
-7.697139722209266706e-05
1.431119477866063550e-05
-1.315106914589997237e-04
-1.483093499686023080e-04
5.118980264839956848e-05
-1.393093336574606055e-04
2.675409949413491061e-05
2.264606603670679642e-04
-3.977531368037012864e-05
-6.081313063375936269e-06
-5.332988714695271185e-05
2.476403709903368607e-05
-1.296625647090047162e-04
1.302121232328386669e-04
5.059983376991034148e-06
9.583442233676835870e-05
5.537780268623443761e-05
-3.958205540956104198e-05
-1.284203425037073554e-04
3.850591635693818355e-05
8.622140895697672208e-05
5.835704559438180313e-05
-4.337809014499662111e-05
-1.128151894119254039e-04
1.084812846673103102e-05
6.371945924448637005e-05
-9.324087412939134953e-06
3.980089894540795166e-05
-1.882140051610591521e-05
6.681691663532115936e-05
-2.494055163763679497e-04
-4.865639807670516079e-05
1.342939535012793499e-05
1.452098296710117279e-04
-4.180482687218400607e-05
-1.623019580035684590e-04
1.121847518598290431e-04
-6.792160983681613915e-05
4.706031553561436739e-05
-1.001396205000138493e-04
1.571695193778020500e-04
-2.387585436146843479e-04
7.091026732453750323e-05
-1.027509950046041854e-04
-5.345598555487015207e-05
1.435480889428146359e-04
-2.978416810254286672e-05
3.105940428223682656e-05
8.731272985761285741e-05
3.084392531798451639e-05
-9.369730167700495848e-05
-1.727305370101912059e-04
-9.278396974996083008e-05
2.579594822927770858e-07
-1.519756213405285558e-04
-1.032134180569728178e-04
1.566363004844437330e-04
5.196163099599984843e-05
1.766676963753365602e-05
-2.709111824396896664e-05
1.314594275559735116e-04
5.259621056610290358e-06
1.042182786856834786e-05
5.137117301725170284e-05
5.114854983675231253e-05
3.309195668045325294e-05
4.087615069896867763e-05
-6.542324384441621681e-05
8.065785034964574325e-05
4.591649861197322143e-05
9.388797206991451589e-05
3.311876806802319453e-05
-1.817924652324811577e-04
-1.270999517416643851e-04
2.129793340775812675e-04
1.435632477127842389e-04
-9.764757680494508393e-05
2.392218034841700589e-05
-7.590969544274486249e-05
-5.473757709805981129e-05
1.719321323175972474e-04
1.071426054480754622e-04
1.556749933817339819e-04
-1.123550618955850971e-04
-7.714663867338740673e-05
-1.345657591128890135e-04
4.766414169316024620e-05
7.594115333157414602e-05
-8.326293442656419134e-05
1.607927991629916028e-04
-1.879407843608534386e-07
-1.206851380608761680e-04
-9.367104493076286410e-05
-1.749911778179704096e-04
-1.071465276085335164e-04
-4.128598015907722194e-05
3.112243506154033966e-05
-1.038129496797492976e-04
1.144616720270885598e-04
-8.426319866441143197e-06
1.359767395616793672e-04
-4.190527867593437213e-05
7.368300279088451342e-05
2.376624841416394599e-04
-8.368197164997452349e-05
-1.227766199900992767e-04
5.875277932909866665e-05
8.535807340268290343e-05
7.530679239167819598e-06
-1.843298133330247324e-05
-1.725711861988847324e-04
5.855190775072661243e-05
-7.002030261051337247e-05
-7.766785147398558143e-06
1.565830581155176624e-05
1.637924806964777058e-05
1.374169045756745515e-04
-5.583126093310445006e-05
-8.546735779723473850e-05
-7.482961588376356909e-05
-1.462490534452772449e-04
3.431572341913102867e-05
2.654700320037172399e-04
4.211428958869967637e-05
-1.040680225996431215e-05
1.339296985441146875e-05
-1.036793609461508244e-04
-5.469178948876906649e-05
1.340615710282968209e-04
1.080843741518756505e-04
-5.166792068225550312e-05
3.034447707895699713e-06
6.551965787334929655e-05
9.299034849704148915e-05
9.354031414842313831e-05
1.490948286581877353e-05
-1.454738739827680146e-04
1.787425562045608707e-06
1.090822060612707317e-04
-1.494365245134044405e-04
1.865505582739745017e-04
-1.105043458041372759e-04
1.866688767923637251e-04
1.544426811472965756e-04
5.307107497163668071e-05
-8.031522756970990858e-05
-1.743412024525014625e-04
5.109647217230968089e-05
-1.846904841183531483e-04
-1.105459314071040240e-04
-9.368794452644474099e-05
-2.213494027229013844e-04
-6.605792995265894092e-05
7.158240316617955228e-05
-3.057112349783353743e-05
-4.215583063142244784e-05
-5.981311877969362555e-05
2.455874860350632893e-04
5.001357375988810158e-05
-8.808325451403876776e-05
6.915832741208385859e-05
1.470458945766112020e-05
5.177670679138260976e-05
1.227718894540997451e-06
2.275302143595131163e-05
6.746170524043729034e-06
3.477606979798393490e-05
4.572252379849841100e-05
5.653440692977593847e-05
-6.122885787900933031e-05
3.020472170101217662e-06
1.019496207955325565e-04
8.500900509541623449e-05
5.313594101221568496e-05
-9.969840925591136609e-05
-1.349911399020011123e-04
-2.163037446745536688e-05
-6.260925670063040727e-05
1.346433308563384115e-04
-4.289601637641977903e-07
5.465536177356233790e-05
1.431797518284676251e-04
-1.327225759030718716e-05
1.537936727242103453e-04
3.581808667522149120e-04
3.492175105917009732e-05
-1.679988831682367983e-04
-1.114479787070731404e-04
1.271271390944842836e-05
4.295179530440776849e-05
5.728328623092181779e-05
6.884433809806379421e-05
-5.000073656860262858e-05
-6.037825392216615569e-07
-3.729745280618532746e-05
1.404742960114047567e-04
-7.697527732495515593e-05
-3.952516253387290148e-05
1.763496657867431622e-04
-6.233397180571354050e-06
1.518859144841130146e-04
6.062399386106917271e-05
-4.894237585185023281e-06
1.642318451405603725e-05
4.534377270367426200e-05
-1.395685812767103481e-04
-1.954138149777409942e-04
-7.411290512093611179e-05
1.267402509626878288e-04
-1.010752380117970156e-04
1.368078699469264738e-04
-3.271155751798263898e-05
2.007003429913209458e-04
-1.564479113998271307e-05
-2.710025782293584424e-04
-9.702158688532750461e-05
-1.334378308186173572e-04
-1.535340640418328287e-04
-8.285508645427893553e-05
-3.624982797723644664e-05
1.875848656011003441e-04
-7.508387756367316374e-05
4.861936655907042680e-05
1.341666825186764119e-04
-2.071911503437374956e-05
-6.127409526367860162e-05
-2.901225298835204147e-05
-2.213880061874969957e-05
-1.939367793443406640e-05
2.931254292677175396e-05
1.411774477424888711e-04
4.965514734327179116e-05
-4.472266237878688017e-05
-1.093300753920337569e-05
-2.036784193925945702e-04
-9.907640915026992329e-05
1.037208700246191375e-04
1.602775759210952754e-04
-1.414748116559466033e-04
-1.768853272277369569e-04
-1.348930326132420469e-04
-4.246380934759541592e-05
9.986155833618912971e-05
7.973965417597985556e-05
7.101563693593098293e-05
-4.369496753599506694e-05
5.248940254593211944e-05
1.678174537251329480e-05
-7.346254565738997823e-06
-5.893777826675682119e-05
-4.254936819910769340e-05
3.860788926769079882e-06
-1.721150285029646111e-04
1.728706804644739286e-04
1.412870106603366586e-04
-3.873654173505545220e-05
9.398253383239630644e-05
-8.843780068791327702e-05
7.909545207324194681e-05
2.560537006200758742e-05
-1.962511774790193708e-04
-5.500244644320884914e-06
-4.906500728860882916e-05
-1.815633345268699735e-04
-3.964149396389337080e-05
-2.027728007866746510e-05
2.608331466269138792e-05
-1.635652183497499936e-04
-6.382613685136678166e-05
-7.448869435353034328e-05
-4.175347039693051216e-05
1.183805599439466258e-04
3.026273519774609589e-05
9.745264586914042495e-05
2.478088964895251082e-04
1.381386725211957331e-05
1.357136908249155082e-04
-1.290889794293192450e-04
1.416067360790749564e-04
-5.267489528990757593e-05
1.285991250495082068e-05
1.158194716477993177e-04
6.088704084456213628e-05
-6.541017991710330924e-05
-9.357998407986595538e-05
9.995279224614894101e-05
-7.942789815267485641e-05
-1.224658803419801550e-04
1.391231386347478900e-04
-1.482838448476094092e-04
-1.327348608147658972e-04
1.216112576196580534e-04
-9.878860906608702441e-05
1.369063428103530009e-05
1.519916032290463605e-04
-1.408380722265641755e-04
1.067763375686662798e-04
-1.667476466232376421e-04
7.646994158115205285e-05
-7.803479732625167570e-06
-6.102950049106221718e-05
1.581160721010693661e-04
-1.438777149532246798e-04
1.323918113209756936e-04
2.590204215916778248e-05
2.139401746156032282e-04
1.283827909852779190e-04
-9.935858490689638818e-05
-1.377352658127689534e-04
-3.840147916702269560e-06
-1.487287168634715681e-04
-1.321521350360829467e-04
2.457355300659766983e-04
-3.567123467543121222e-05
-1.327218596783686722e-04
4.799315118857742430e-05
-4.937439025465192302e-05
-3.060068969776849282e-05
-9.024235096840137606e-05
1.631356570353570320e-05
-2.148897621324815906e-04
1.640575240821876999e-04
7.950125031987527100e-05
9.389223454513910376e-05
3.375586429372017853e-07
-1.431864943897818540e-05
-1.204697652809518372e-04
1.044833986654783919e-04
-5.110555173079258306e-05
1.680331496619558379e-04
-1.013139837497182157e-05
1.374831161184993762e-04
2.643860197096097641e-05
-1.370334897389146787e-04
-2.365730090514781133e-05
-1.092218807169236693e-04
-2.253361186847469927e-05
1.692865764384039729e-05
-8.545762878320497917e-05
-3.288769155788101421e-05
3.203760637672990687e-05
-7.856057958164360357e-05
-6.715583888060789903e-05
4.930192974518950788e-06
2.611192461741246488e-05
-4.072410895744575242e-05
1.461875628170988220e-04
1.597456815707320186e-04
8.498210642437249577e-05
6.525661239768078368e-05
5.041688521815238080e-05
3.316555813015623278e-05
1.796758891902041776e-04
-1.611818598152308347e-05
-2.873906927726768622e-05
-2.696385142176178093e-04
-1.171944502099455667e-05
-1.627810286106614327e-05
9.385043215954204311e-06
6.179053116297223802e-05
6.790047689991541560e-05
1.894428049006972067e-04
-1.595356089443238762e-04
-9.326594847589628862e-05
-1.507204485767485479e-04
-2.044655500709262016e-04
4.718408893679864105e-05
4.152291791706000872e-05
-1.719034976062979066e-04
-4.699834076379323198e-06
8.224557350784701649e-05
1.068331090581494048e-04
-5.675002631012347661e-05
-8.049390900135452412e-05
5.520665650564141443e-05
1.027608472313592999e-04
-1.633458184518707997e-04
3.126196642769602576e-05
1.706150859171094649e-04
1.593028428580540762e-04
-4.010547789097306047e-05
2.362474634864879858e-06
4.383573223445167788e-05
-1.946077600799724406e-05
-1.734366434821835103e-05
-1.129106470149810360e-05
3.000557775225352468e-05
9.669292671585076084e-05
-3.953752476457392170e-05
8.294651724622329858e-05
-8.907604007955618216e-05
-5.571726878701143548e-05
1.287229920125976691e-04
5.878935092254848897e-05
6.723310918031059674e-05
5.482416485616068699e-05
5.734486674622227829e-05
8.170743311554263269e-06
5.883562197238458778e-05
-2.444015249994890387e-05
-1.804834694080623332e-04
3.414140763487179102e-05
-7.299243058565329579e-05
-1.338319336151447205e-04
-1.092773485883712904e-05
-1.067445431325307240e-04
1.143370392352749680e-05
1.137609202944786258e-04
1.451054525830749943e-04
7.070041840844548827e-05
3.645431965042845470e-05
-1.101132810855184619e-04
-1.153378097374956935e-04
-7.108931196652350628e-05
1.224901657949288938e-04
-1.214104847021175992e-04
-2.499296094740891157e-04
-3.937389051738878333e-05
-7.403464653085340698e-05
-3.821920330417458286e-05
1.455079365498296198e-04
2.044235434405126467e-05
2.815394950810346628e-05
-1.665832262209660869e-05
-1.355724100122937690e-05
-9.481329080510169423e-05
2.047284722560750769e-06
-1.480492980474560883e-05
-1.956436670495912734e-04
2.469632839395910913e-05
9.903821507641785314e-05
-2.021686890889355908e-04
1.187091110740105354e-04
-8.344441364607908232e-05
1.574672315314808657e-04
5.895071167003009314e-06
-2.255217480890433974e-06
-4.865313242040138897e-05
-1.245660064544773331e-04
9.728903539609483786e-05
9.491794078715713430e-05
4.459142786264076279e-06
6.645482431470543800e-07
-7.452211660304970079e-05
-4.741404924461239284e-05
-5.842489711896744651e-05
-1.236070511597602364e-04
-1.412038140950408471e-05
-4.841616944956903283e-05
5.737704637895891754e-05
-7.058799375957713082e-05
-9.691839883428579746e-05
8.940543799890326190e-05
4.242378736835508235e-05
-1.430384281457934242e-05
-1.748449815116028300e-05
6.827051815650675090e-06
-2.127519756854912521e-06
-3.306199987620631389e-05
2.669888629986114418e-04
2.343256094738950282e-05
1.897830517804545533e-04
-5.564109687528129343e-05
-1.459854307385881952e-04
7.768838552390172148e-05
-1.255042778527006150e-04
1.230234926860245101e-04
3.457682822406645288e-05
4.337413993814884586e-05
1.049085679493059721e-04
-1.457289574973402561e-04
4.472872727718415743e-05
1.252991839231511987e-04
1.046928503033513094e-04
2.601301078241323450e-04
-1.436674984665734733e-05
-5.731428679115439665e-05
6.320632705960513807e-05
1.191040695222229802e-05
5.588442590798948850e-05
-5.202707953499010696e-05
-5.763881275653218021e-05
7.625222961962137302e-05
4.621467953519829534e-05
4.049867534124824004e-05
2.174636911421084709e-05
1.009941713801535470e-04
-1.163143578620228906e-04
2.842681821166113249e-05
4.429475982083476979e-05
-2.305926957855489179e-04
-4.530520329410074506e-05
7.999116223781579276e-05
2.314944507144107159e-05
1.338341766027234624e-05
-3.363909628639295617e-05
-1.661770533588985085e-04
1.194506891167030623e-04
-1.173379528093155958e-04
4.587349977283359739e-05
2.660131477471757770e-05
1.488444855572729371e-04
-1.425214677626138800e-04
-2.396521431418097408e-04
-2.939395291854229316e-05
5.296292788197709626e-05
3.875429515057482672e-05
9.706279314397446177e-05
-1.025623968439709382e-05
-1.457152183129006924e-05
-1.018316009379436070e-04
-4.783625994508643251e-05
-1.547558870825130957e-04
-1.735146398546495087e-04
1.156099426323672468e-04
1.495830718585708591e-04
-6.500492773335646247e-05
-3.098429345422678644e-05
-5.104468715892925994e-05
-3.012616982749237644e-05
1.450911576449973137e-04
1.188232867307197581e-04
-1.475867756028168953e-04
-5.096016665901177955e-05
1.262332111076357492e-04
-5.331721060103168143e-05
5.226209766128352190e-05
-2.496253657634485505e-05
2.598485583281865503e-04
-8.964889053852602527e-05
-2.296478623817258230e-04
-9.119416829403033105e-05
-5.577244000908228462e-05
4.002942680325068608e-05
2.199717069779496919e-04
-6.159896356772009550e-05
-5.591080603935026725e-05
4.011296251037587009e-05
-2.867456969055420500e-05
-1.317245426913234130e-04
-4.893205055544969719e-05
-5.842811776996958853e-05
1.963346362291534483e-04
-1.051060699477691544e-04
4.126865796392432999e-05
5.986552780367240763e-05
9.821093271615596149e-05
-1.008002473485787907e-04
-1.916211192240140711e-04
-8.634132647704383708e-05
5.565267616821529281e-05
1.264228621642636238e-04
-1.341527680412244090e-04
4.404767765183909925e-06
1.297724826441423751e-04
-1.007958954663629793e-04
1.447620794792265524e-04
-3.326275055638820710e-05
-1.264667808226831950e-04
1.514012440907595771e-04
1.674637186661915992e-04
4.272910383411004215e-05
-1.675878980872160244e-05
8.010695181857689900e-05
-6.958139452932412400e-05
-1.601768288018499170e-05
-1.622293683615605347e-05
1.413573071814769734e-04
-3.178866344887805109e-05
-3.218863722675355244e-05
-5.672648865270897979e-05
-1.908255380483889815e-04
8.792180712743854793e-05
5.058116383337607574e-06
-1.350618189036261027e-04
6.451240959966665200e-05
-1.207040275327509154e-04
-9.694938927149211196e-05
4.723876067562690910e-05
8.813537908511094024e-05
5.045506947447703791e-05
-3.609652271216596522e-05
-8.204034811210096081e-05
2.062349309540222125e-06
-3.110961889367756800e-05
3.810919543074483320e-05
1.035291485765027356e-05
-1.832790454744210543e-04
1.923766473764658999e-04
1.874338034958730189e-05
-2.464028325613404021e-04
-4.001099766138536035e-05
2.167450113704244139e-06
2.229793951048287650e-05
-1.335005978243448434e-04
1.139124311122489031e-04
4.002671658828895048e-05
8.194867093856950905e-05
6.720423480761045069e-05
-3.546722083056684315e-05
1.159161236122981821e-05
-1.083098404447754154e-04
7.073942612202746289e-05
-1.571047227210645592e-04
-8.565170511063075528e-05
-3.143646637172060876e-05
-5.395709325443277956e-05
-1.139280368792227397e-05
1.876418981598423520e-05
6.090834707005777945e-05
1.552449500221023744e-04
2.076204561321331164e-04
-7.678062233602057386e-05
-2.896758454090547536e-05
1.988306083785214892e-04
-1.777878983618351417e-04
-1.120032899281239670e-04
9.200334418760264699e-05
1.203704959437947269e-05
2.615148020392128389e-04
1.129842711981880938e-04
5.936162390131264190e-05
1.161897640382335815e-04
-4.124082465077887494e-05
-8.752091959824641733e-05
-9.294506955971322624e-05
-4.283100993014681685e-05
-1.262464364507087959e-04
-6.833308646260900223e-05
-2.937643743525939285e-06
-1.441686516843594906e-04
8.817395089055912066e-05
1.140807821969248446e-04
-9.067188091330073284e-05
-1.470098472543149119e-04
-9.360712799608770075e-05
6.409740156468503444e-05
8.914975581933387387e-05
2.081212350760797451e-04
-3.839787231249269784e-05
-6.855854717928466010e-05
-1.095441973205441308e-05
1.532016096155850078e-04
1.148960997172377281e-04
-9.857575665733083717e-05
-1.636958945250430110e-04
-1.068794719851603103e-04
1.321934628071727254e-04
-1.175959811144075459e-04
1.545962130731713116e-04
6.032176877759059245e-05
2.073806888209615699e-04
-3.581844253524322700e-05
-2.811848727970946244e-05
1.464890339694920681e-05
-5.829395736291181202e-05
-3.131045622376848634e-06
-4.863397456283440409e-05
-1.036923830770236166e-04
1.491097477964947282e-04
2.644300949872704508e-05
1.454106544380123051e-04
-1.119637715078263462e-04
-1.519462850187419504e-04
-7.258658101207173256e-05
6.428634524672948065e-05
-4.781355678357847560e-05
-1.256870237550763883e-04
3.691880371572037493e-05
-2.150468054393101240e-04
-1.952359997546747545e-04
-8.201490425854655875e-05
1.181848800295348320e-04
-3.569110983904185460e-05
-1.998371936831913633e-05
6.320054465489424267e-05
6.319670734182962252e-05
-1.020640138406383291e-04
-1.198484966928926209e-04
6.819051949884026326e-05
1.626737150496715249e-04
-1.216043982454151717e-06
1.011970490831852433e-04
5.720717290835110071e-06
-5.890382143615615083e-05
2.043867938662451524e-04
7.931054676275762594e-05
3.690172029042457268e-05
1.431328188797328731e-04
-6.588152052873712629e-05
-8.059733005709213182e-05
1.466175230671330190e-04
9.249164489724299456e-05
-1.342410526723260592e-04
9.233946961697112228e-05
2.582058618956024320e-06
-4.110518607608434395e-05
-8.702930850087507004e-05
3.314466282998945583e-05
-1.421619071753357701e-05
-1.648183241635284784e-05
9.393726489900901071e-05
9.410809596819892403e-05
-7.148725203046603816e-05
-1.089205498658768782e-04
-1.435229799868596322e-04
1.118665829462242913e-05
2.149105108186486249e-04
-8.492514260471254467e-06
1.953839638977462976e-05
6.083915127709384824e-06
1.197443293438576708e-04
4.207546895618551335e-07
1.465463741648039063e-04
6.773938052592530068e-05
-2.631125421154861528e-04
4.030703450383921058e-05
5.563887484119301667e-05
4.030227726690764986e-05
-1.372832462457805819e-04
1.415277739505756268e-04
-1.830685700813626938e-04
-3.908434528434094840e-05
2.155447079629317631e-05
1.227299921856825685e-04
-2.205952127787807785e-05
1.010001739712239441e-04
2.314130354620007489e-05
3.202012248146721742e-05
-2.126359557233466809e-04
-1.207546205762181086e-05
-1.161935681014581154e-05
-4.595266875277060497e-05
8.775618541019451302e-05
-7.990498321547343343e-05
-7.211106861526552956e-05
4.749527299005570978e-05
3.677587829098449574e-05
-7.011666747005664685e-05
1.649155528578086962e-05
2.131731741436026280e-04
-1.243824727493713365e-04
3.740577207552032963e-05
-9.480243700277803370e-04
5.696689314448645920e-05
9.522438001715087001e-06
-7.177802424500623346e-05
2.029767416116925438e-05
-1.544849212884850964e-04
-6.833013028145153069e-04
-8.232520995785941613e-05
-6.394798670946199627e-05
7.313269509121831128e-05
-9.623161792234167947e-05
-1.491340591618086297e-04
3.131824671452175800e-05
-7.073753283618188512e-05
1.461541280777859633e-04
8.989060656102022373e-05
-1.442825546046779905e-04
2.546358137156404930e-05
-5.687549966347946266e-05
-8.594425688853724596e-05
7.076579597939317413e-05
-3.163916529644956923e-05
-6.817027075662802655e-04
-1.312002353966233541e-04
-8.981145297103390287e-05
-3.110722734632057399e-05
7.032171380761737716e-05
-1.203673549322634113e-04
9.643905702789387104e-05
2.329371678596980070e-05
4.113852649475594625e-05
2.528569467477959705e-04
5.332126705586369680e-05
1.645144180825959860e-04
2.742557666103713094e-05
-4.760853141527325886e-05
3.543286922432359049e-05
-6.974292716720735974e-05
-1.268926315126942472e-04
-4.787399616418795689e-05
1.715726803776620570e-05
-1.701381751560405198e-05
-1.272474740976956992e-05
-2.099077087984229441e-05
1.000338361906250115e-04
5.701037448828938912e-05
1.893184362099839858e-05
1.139817178725970689e-05
-7.552346554923172175e-05
8.939141597683260851e-05
-1.915276914669871613e-05
-7.219862338047780103e-05
2.399302613089383766e-05
-4.325846055694671069e-05
7.693158096700899692e-05
-1.002119845924051718e-04
-1.180365456850280946e-04
1.593873104378367160e-04
5.665935235741267770e-05
-6.276377071565982608e-04
-1.027333488236809934e-04
1.546969500919954585e-04
-5.527807679215530505e-05
5.875025370501359641e-06
8.275437698947394065e-05
-5.547772015289494573e-04
-1.021973566676964734e-04
-9.068616553712150505e-05
-1.302926500092823801e-04
6.664385742112966665e-05
8.039977555819370310e-05
-6.930702875680818179e-04
-6.330763478238438319e-04
-7.555795511781401678e-05
1.815527601363229206e-06
-6.189736890002814004e-04
-1.110056797510791129e-04
-6.481745432337427705e-04
-4.956081884977267885e-04
-5.593114785207105224e-04
-7.089605959102615812e-05
-6.262529727503611575e-04
-3.836092926786775510e-04
-5.294748292996637098e-04
3.698784010041130516e-06
-4.205252220219873730e-04
-4.639990180876400424e-04
-3.565619945757616768e-04
-2.353607422017018952e-04
-3.348778940319455610e-04
1.532470816152450510e-05
-4.087871277912383402e-04
-1.970109829111335196e-04
-2.756169507992909827e-04
-2.068813426881202988e-04
-3.218622266326013736e-04
-1.080296497665377264e-04
-2.266122826119715088e-04
-1.643126761781842267e-04
-2.320362724515305736e-04
-1.840220066645495488e-04
3.553247871656504146e-06
-1.567765895197108434e-04
-1.631834475360588704e-04
-2.364762987804018449e-04
-2.201866790457859997e-04
6.891744815350862451e-05
-7.842795596075308911e-05
-3.524800926623855362e-04
-9.798915326687492652e-05
-2.016882681336965857e-04
-2.185896226264057794e-05
-1.458194621544199794e-04
-5.954123418982717629e-05
-2.059990950023768191e-04
-2.398471707608659873e-04
-2.064213558368925929e-04
2.778909783081942179e-05
-2.502590218144661038e-04
-1.528895713679260008e-04
-1.596847654668809323e-04
-2.635898123295831027e-04
-2.211445239777415825e-05
-1.456747110593116794e-04
1.739131250241145353e-05
-9.238337913936710440e-05
1.322673186471295286e-04
-3.805051897827678599e-05
-1.122289742431602499e-04
-9.769388935349827699e-05
-1.030775969560761128e-04
-5.807727790224219477e-06
-4.272031576637159137e-05
-1.275479422620414132e-04
1.153135616233874313e-06
-8.199131893485920306e-05
-8.251998405695109938e-06
-1.149816304560358633e-05
-1.287122190015954875e-04
-7.809289145166271547e-06
6.275651537564279044e-05
-6.578364505307247010e-05
-4.651526981483227168e-05
-4.146656091081205920e-05
9.253611724482167637e-05
1.674855394821262206e-07
-2.634005536467578056e-05
1.164168442728030816e-04
-1.589044390209863621e-04
-4.835072818209397850e-05
1.600732603254961217e-05
9.997052603510254174e-05
-6.712605012324895622e-05
1.437435252401990404e-04
4.708122716960161673e-05
-4.712622155932815106e-05
-1.262610841098478499e-05
1.695314383709627397e-04
-9.090411531175656248e-07
-1.828681386145116042e-05
-1.018691164992985943e-04
-6.501577226857923155e-05
9.255846555263216131e-05
3.915763193160543714e-05
-2.470987662699439388e-04
7.283826017639084447e-05
2.625656618620021937e-05
-7.469953535309589016e-06
-1.135236230497093361e-04
2.715907672241161543e-05
1.956022619447049491e-05
-5.514363569033761941e-05
-1.260960448857462364e-04
-6.851395902714021242e-05
-5.486343477742508603e-06
-2.415883556203294945e-05
5.399633817296766570e-05
-5.593502121984640169e-05
1.113065694743309129e-04
-1.069529785229159498e-04
-1.510002610727870166e-04
3.029531835991099460e-05
-6.959225166143634158e-06
3.499237181443556319e-05
-8.644269259444788134e-05
-1.238527472718751630e-04
8.256110182535302455e-05
4.627692449875274168e-05
1.119662690972582653e-05
-7.322502632556580947e-05
-1.715718836520585360e-04
1.877678801603753619e-04
1.662753738371708172e-04
4.130810193494262881e-05
8.280693484309484167e-05
1.646818054266520402e-04
1.848122775064000057e-05
9.821609682616340268e-05
-3.543605938519441164e-05
-9.097286499939194753e-05
-3.351221887438813040e-05
-1.000599308855955615e-04
-8.893682242507184178e-05
1.059351519056734153e-05
3.720632248576629715e-05
-1.556977980865837687e-04
7.490852706823499896e-05
1.184147053793336055e-04
5.214966963170641982e-05
-1.329875159964146220e-05
1.056851975688970490e-04
-1.540557991720863378e-04
8.012971046229066066e-05
-9.306659524523086535e-05
1.299214055454994904e-04
9.630206920674793118e-05
-5.968990616246695247e-05
-6.769914290000225959e-05
1.675484588004235993e-04
-4.550101438158968633e-05
6.692759316208206539e-05
7.569227290889778451e-06
9.396275261855178268e-05
6.944831256267690225e-05
-4.538875851060432870e-05
-2.057162188167368318e-04
1.784480952393528589e-04
-1.562413630781331211e-04
-6.772156300734198436e-05
1.035062675407110697e-04
-1.566050499228419384e-04
7.492765436799415349e-05
-9.321598485174814201e-06
9.651393437446377312e-06
1.097313740487305982e-04
-3.315105069478613910e-05
6.155550070380861928e-06
3.180338216186617871e-05
-7.239776467105299060e-05
1.919793901822056771e-05
1.019937837035897194e-05
5.278388450100291633e-05
2.913843769759850018e-05
-1.856340941980566341e-05
7.386086869416131034e-05
-7.418951902306605264e-05
-5.612522975404479812e-05
1.457182673514572701e-05
5.270397487068112909e-05
8.607928171017938134e-05
-3.254146722733457280e-05
-1.032984524178814369e-05
-1.185685733382672912e-04
-1.511468996011093504e-04
-6.082136145084931892e-05
-5.804786280856262819e-05
7.522336099914058219e-05
-1.022902390934138752e-04
1.725637593610016582e-04
-1.776287926192582464e-04
9.846761404710307249e-05
-8.572751191036524039e-05
-8.326308658496133365e-05
-3.705093814250448955e-05
1.458139933537835149e-04
-7.675070300976727085e-05
1.117827509804035632e-04
-1.918350751769905640e-04
7.563627886194778055e-05
-3.229380152310421935e-05
-7.358966224672954437e-05
-1.040400573318259458e-04
2.571577384941977918e-05
1.656703148001215488e-04
7.336464823169692843e-05
-2.991625896127696863e-05
1.476019821200745823e-04
2.260315187906971028e-06
5.078814989126827716e-05
9.258711533615458062e-05
1.275197540104529177e-05
-9.244340922247007420e-05
-1.212944485135891915e-04
1.471577907755445473e-04
-1.133420219323078139e-05
-8.376013229982257058e-05
1.948170142520386651e-04
-1.186348191189518182e-05
-5.959104913816552058e-05
-1.250597819182621090e-04
-6.640614514929758425e-05
3.628621290372152625e-05
1.209023861300212427e-04
-6.029716823134914167e-05
-6.414431511573679583e-05
6.329253149190595007e-05
-6.216057878980453728e-06
-2.202968509519280960e-04
1.733976078351296888e-04
-9.581861471305607499e-05
-4.419790660911096947e-05
-5.976696911124124427e-05
-8.361400407203688635e-05
5.705504290606563792e-05
1.611429074988445951e-04
-7.017151406582273609e-05
-5.626105101263189219e-05
1.100332544541933065e-04
1.718502541185622961e-04
1.241109958478327203e-04
-1.243555152150637388e-04
-1.712859844111375368e-04
-1.006245476188411198e-04
1.043635832855516980e-04
3.176231000227330072e-05
5.582630308459055735e-05
7.615409703219041821e-05
3.094099845026332304e-05
1.058490699071790538e-04
-2.366230205394917342e-06
-3.310037919637490635e-06
9.872331835461863731e-05
9.117273955887492923e-05
-1.383891177515510424e-04
-1.142834132246088851e-04
-9.208893311105138622e-07
-1.569884516353449758e-04
8.280719096273212679e-05
-2.469257907323952728e-07
-9.445702727011750003e-05
7.968279620839265428e-06
-6.971818338948407171e-05
-1.204463475450189464e-04
1.158175731722193961e-04
-2.628373229911373194e-05
4.535758347084250261e-05
1.039589819169662167e-04
1.275355916178583997e-04
-1.759414995649523003e-04
5.418972529306159783e-05
6.459622233486402558e-07
1.035127665366240455e-04
1.393055114866926494e-04
-8.365887427474354762e-05
-2.416425370452465710e-06
-1.375443803683554071e-04
-3.027422018708889721e-05
2.016625152889800184e-04
2.584562665446060450e-06
1.253186426416940053e-04
-6.565504169229429137e-05
-5.825061911969650218e-05
-6.524851452691650322e-06
1.374596080207640398e-04
-1.961473795709361826e-05
-1.403321175434239764e-05
-4.071858331864087267e-05
3.308570399949542414e-05
-1.395821923041051685e-04
-1.409598184706815731e-04
-6.616260229601413844e-06
1.877612974801643288e-05
-4.449531260472060592e-06
-1.055167738536643465e-04
6.142528736602759600e-05
1.181151282340667333e-04
2.715348110454337269e-05
1.591775751306224453e-04
-1.228995785730997931e-04
2.748586650912588104e-05
-6.807803640178846532e-05
5.625877001194757123e-05
7.434233785314160921e-05
-4.277590095705675866e-05
-9.082964019876767670e-05
1.191073703140195136e-05
1.762053503201435785e-04
1.216275148825531948e-05
-1.455085196538119822e-04
-1.183492247619150409e-04
-5.565399723758626823e-05
4.128650682043170976e-05
-3.114544659756219561e-05
-1.807932899026385858e-05
1.741308362746015170e-05
3.769988410774081981e-05
-4.465057100821226535e-05
-4.008501260351866538e-06
2.130896296991355190e-04
-1.300412297024275540e-04
-3.262137046266445640e-05
8.460585004325619628e-05
-1.428720810540678597e-04
1.298493251694522602e-04
8.623852607602297787e-05
5.429939264652196832e-05
-3.885586509413573101e-05
2.147051478047704761e-05
-1.474943892094758033e-05
-1.616484203694286328e-04
5.636084471497337321e-05
-1.539706022393612633e-04
-9.729074860816329124e-05
1.667767717399773334e-04
4.851851205976029461e-05
-1.115090358366920725e-04
-1.053292137103336220e-06
-2.601988020950305358e-04
3.161796828896930181e-04
-1.406225461511808629e-04
-6.246333444293139894e-06
3.499111405922537995e-05
2.551155414087315196e-05
3.302241961638718721e-06
1.237083758340469610e-05
1.662150815640290092e-05
5.924324719029175628e-05
-9.156566694429758152e-05
6.420370609144987115e-05
-5.970462044023024188e-05
9.346620498972459253e-05
1.106998882422516508e-05
1.120374885514474159e-07
-4.971732560931575360e-05
1.065151853540423962e-04
-7.516531408305736242e-05
-5.942865840843533068e-05
-1.465989419710756561e-05
2.604421884900951187e-05
-1.852085188872155768e-04
-3.614550225417966639e-05
8.955091142434415375e-05
-9.803200767598812670e-05
9.429844964311956943e-05
-4.420324258050004296e-05
-3.260693221257849201e-05
7.700604874245772658e-06
-8.727122488500685513e-05
6.473715874283898319e-05
7.317251104191937723e-05
-8.245484744577768934e-05
8.319672437697632440e-06
-1.586112480745441864e-04
3.083792952644584821e-05
1.203797324618426914e-04
-2.704705655355187758e-05
-2.713096819166227586e-05
9.072107232701444150e-05
2.174897055352199322e-05
-5.945732465858760137e-05
1.142362939343478310e-04
-6.704659551695101353e-05
1.298879344896323994e-05
-3.417850516407166270e-05
-8.895784651450500333e-06
3.996040289325763237e-05
3.583527988537936357e-05
-7.593647294709165898e-05
8.098146536770806266e-05
2.565972630905866866e-05
2.377330108115193862e-04
2.060793610044810389e-05
-7.123156825249136342e-05
-1.635406945854529250e-04
1.677896542182475643e-05
-7.422448419310952423e-06
-3.262709940525605805e-05
-2.730497606583464105e-05
1.569937212154866031e-04
-2.058546360941155293e-04
-8.376824912722771928e-05
-9.030537633469097321e-05
-5.943265843634537152e-06
7.361971224959537683e-05
4.305397236477747790e-05
-2.215355095013830315e-04
6.020008127007063563e-05
-8.985005492240423237e-05
-2.507982915737198869e-05
1.146551008123445351e-04
-1.518404023904289029e-04
-1.738085816735447935e-04
-7.795787125647016703e-05
-6.392761042211118666e-05
3.474121827972178247e-06
5.207488342132438481e-05
-1.356485218645972848e-04
1.043672804529773143e-04
1.627997199700889023e-04
5.552899923330981824e-05
1.203781314001543530e-04
1.396321342334477832e-04
5.398123248696483687e-05
2.835014490921677522e-05
7.805840811159030224e-05
-2.216584680646367365e-05
1.259616944337139108e-04
-1.280113402828340333e-04
1.011538410642762660e-06
-9.690851535911440375e-06
-4.363211519888976627e-05
4.221739553756760296e-05
2.292433511298877665e-05
1.776967108018368715e-05
5.134260957190323911e-06
2.319883464268319116e-04
-9.097508605354961010e-05
-7.102646635558878369e-05
-6.377655487619491034e-06
-5.384718236260604892e-05
1.377215218908300768e-04
-1.310179620597737066e-04
-1.337657584823348728e-04
3.191107123407575330e-05
1.144133219332313790e-04
-4.117292410100249810e-05
1.318347625912321579e-04
-8.103264787671215087e-05
-8.237386777593465228e-05
2.018871500957403480e-04
-3.094665623042530407e-05
1.462252418094337945e-04
2.242992584508916611e-06
6.037797230785104183e-06
-1.777878589710854193e-04
1.258666670030834798e-05
-2.714579798018945593e-05
2.403969775099787842e-04
1.936409263903221341e-06
-8.901020434635345394e-05
6.698201029612180094e-05
2.307451936066408924e-04
1.428739110446696761e-04
-8.875635938305672077e-07
-5.180510881902362593e-06
7.083856189670126151e-05
-8.247250970722336087e-05
2.099024549755581343e-04
-1.869872980408784867e-05
-8.477733957371736241e-05
2.128190368295147965e-05
1.287144812742488213e-04
4.566348414375605709e-05
1.190565565219502478e-04
5.159933787883933968e-05
1.481985656492610661e-05
2.898438226293865151e-05
2.906838795255014084e-05
4.579691231418916004e-05
-1.511096311026388910e-04
-7.749415329557976913e-06
1.202330415028758827e-04
4.008676248514840676e-05
-7.109430413064759396e-05
8.275018879473678053e-05
-9.543595639271426146e-06
-1.105556642381838530e-04
-2.552534490116410639e-04
-1.444007401408738246e-05
-9.163456054879837490e-05
-8.893439452498344864e-06
3.953270260250718051e-05
-6.885540258612551890e-05
1.866977264062697148e-05
-7.502547224563804219e-05
1.818749078870619506e-05
-4.620959587697930771e-05
1.131417321059122565e-05
-2.407760643995087292e-04
-9.292488028355764588e-06
9.378356146932813645e-05
1.915447890836801596e-04
-1.745305589550950092e-05
1.226756195088953146e-04
-1.095373560349826968e-04
-5.683622209309221747e-05
-1.170168426491380808e-04
8.607806829206260911e-05
1.061062155217118224e-04
-1.300630227745577165e-04
1.228803420846037969e-04
9.702128287399291128e-05
8.436849836688183643e-05
7.807534268400927548e-05
-1.211503359170678474e-04
-1.506121403968527000e-04
-7.978246788491126485e-05
-1.550922428573319671e-04
9.854617821589179317e-05
2.599281738805106460e-05
7.633567941818728540e-05
-2.881865548210690400e-05
-2.716048843403850570e-05
8.351171945862306942e-05
-3.783869568831221418e-05
1.735698210821402310e-05
-1.325098196241338098e-04
-9.528562367552506304e-05
1.326973478503458111e-04
-8.828043704818471318e-05
1.321232765939068718e-04
-5.023696678787338180e-07
-2.022663892154095131e-05
-4.683754941127606227e-05
-7.845851599694852465e-05
1.820784690475404867e-04
-1.059710395572018192e-05
-1.920101892639808165e-04
-6.753016761186469410e-05
-8.791745810687606082e-05
-1.090110952241153534e-05
-7.249083697581175628e-05
8.680263387510599583e-05
-1.120512305563209983e-04
1.806839191219185260e-04
-1.262483122534933814e-04
4.153922433838336149e-06
-1.275866410729862215e-05
6.211974307566589212e-05
-6.628632292495065031e-05
-1.924398080284023043e-04
1.156612408643563491e-04
2.662412769630362263e-05
-8.536276019588866042e-05
7.317772076016913958e-05
-7.759276044860179220e-05
-1.351743076575416178e-04
3.572394473254115614e-05
-8.209141140744318475e-05
-2.916583392569082022e-05
-3.231390288123640994e-05
2.243120767244863594e-04
-8.204465115448371544e-06
-2.224834074007268870e-04
-1.002026125082464884e-04
1.704143827552634903e-04
1.322636010923968421e-05
-6.698619768790337221e-05
-1.355265321100333017e-05
-5.932922436904161645e-05
-8.126497958982882249e-05
1.467238056331335499e-05
1.798840971185036697e-04
2.726840151670686560e-06
-2.968470256007042879e-05
-1.273773561820405102e-04
7.168554263862560486e-05
4.638180591325426498e-05
3.119366901356366840e-05
9.601683363553615452e-05
2.983926353760208382e-05
1.514986421030511683e-04
-1.150817616953966617e-04
1.522923630358814112e-04
-2.778536544028830966e-05
-2.635760988700209877e-05
6.912772564215808701e-05
-1.491155357478124173e-04
-3.491685596851547773e-05
-5.085657488257793184e-05
-2.430832051839652741e-05
-3.759988360834328342e-05
1.550937412102552286e-04
8.031401546014280322e-06
-5.396730274936601447e-06
2.685141513912402264e-04
-1.562111977142671985e-04
-1.758703480718784573e-04
6.527814026051942018e-05
-8.492557679574390275e-05
-3.536067145698047103e-05
1.426829739002944623e-04
4.902188430638753990e-05
2.307260301690568411e-04
1.562644111492013886e-04
-5.770164636777722230e-05
-4.074585515135995879e-05
9.964301405777423306e-06
1.200384556149859840e-04
4.344829882524777815e-05
1.135983911465490075e-04
7.888468203087715415e-05
6.374689735778640821e-06
-5.470106159017698610e-05
1.176629950498133278e-05
4.359536741007840683e-05
-4.184058444373940396e-06
-3.514618033514725859e-05
6.480019706368786707e-05
-6.246087409571675844e-06
-1.165650612625258067e-04
-9.640980963794866239e-05
5.299032306917263673e-05
-1.591494024189823639e-04
5.370945517411430530e-05
-9.314246938140704373e-05
-9.125952902935918038e-06
2.326709193955850309e-06
-6.378227751194237441e-05
7.128709063643810329e-05
2.764629053170554834e-05
-6.816031985476829328e-05
-1.390102769983075909e-05
-8.198084276294632748e-05
-8.534147368463060421e-05
1.097389661047341885e-04
-2.118240834112510541e-05
4.994436745141420049e-05
2.140121466555944781e-06
9.521656060040404755e-05
7.602530817374980230e-05
-5.552623477873807332e-05
3.725080324084335673e-05
-1.588944934021606001e-04
-2.784055069682371982e-06
4.035858604273907872e-05
3.107466363554382425e-05
2.710326472454278815e-07
1.739489701154591514e-04
-5.402236700962634249e-05
6.743337913129684893e-05
-1.416433821234041256e-05
1.392975036486312992e-05
-1.075565154027542327e-04
7.564481467441848427e-05
-8.405519682750827901e-05
1.186216221186320190e-05
4.012666802822199499e-05
4.043004330941539796e-05
-1.652516812434115837e-04
-5.935328724683205937e-05
-4.394023658614988102e-06
-1.376157855336007348e-04
-1.921618644466632504e-04
-2.615574309549558064e-05
7.661686506322835238e-05
3.604187433547764972e-06
-1.541366899062498143e-05
-1.325799578691116845e-04
-1.311644025739090499e-05
6.727856834989922306e-05
-1.021939316908055897e-04
-2.165962814231296165e-05
-6.315331916803492047e-05
-6.445308387122759104e-05
1.309217716025351774e-05
4.027123632932193764e-05
1.440419836468877094e-04
-1.035988089441870335e-04
-3.969965999933739592e-06
-6.269674726139323675e-05
-8.801355838637656462e-05
-1.380169192006162047e-04
-4.404007371627251201e-05
1.120687534262423051e-04
3.736043734166432924e-05
-3.120858046851459407e-05
6.005218798802563883e-05
2.334633096815531375e-05
2.747098502696057492e-05
5.201698577508449741e-05
-1.348720373194668720e-04
5.469705624722951835e-05
-2.986864748488628665e-05
9.903927351937649845e-05
5.852783059637414737e-05
1.882023892517705984e-05
-5.766755998216810029e-05
4.662089763689964957e-05
4.039311643585771148e-05
1.002064455934603595e-04
2.481274006814381065e-05
-5.443150391656199612e-05
-2.452167466354538872e-05
-7.495565828156542352e-05
-1.423397894212796006e-04
-1.329014938757893251e-04
1.066390734304487943e-04
-1.356792883120253902e-04
-6.486031509821022379e-04
-7.888942586970737448e-05
-4.603915161448604237e-06
6.199915703541966183e-05
-8.424025759198641695e-05
5.840210132946809191e-05
-1.215670668693249611e-04
-2.162116736086729308e-05
2.314423017116308488e-05
8.131702084673240192e-05
1.264885179506337030e-04
1.947120754308921252e-04
-3.156345730335512542e-06
5.398151565753020887e-05
1.684505985256330013e-05
2.093130806581922291e-05
