-8.692592709809927919e-04
-8.772454182318451194e-04
-1.125375931200380117e-03
-9.635784032429414074e-04
-9.536315498263323899e-04
-7.672753364246765167e-04
-6.056309168687605072e-04
-7.405039528366252422e-04
-9.675229529872399680e-04
-5.883212651088295768e-04
-8.066467984566657494e-04
-7.102906071094483575e-04
-5.459982452067941184e-04
-9.793761861676408831e-04
-5.609377851765863596e-04
-4.795068693735850436e-04
-6.927286613778970955e-04
-7.892484866631393559e-04
-6.150997052614482277e-04
-4.071473694361902001e-04
-4.575954404939895767e-04
-1.056517398431952234e-03
-3.392598225475565552e-04
-5.882967113386429166e-04
-2.754344666270869789e-04
-3.644965542938647827e-04
-2.295145742932508111e-04
-2.395871533734120424e-04
-3.779954583462854611e-04
-3.911184028214051704e-04
-7.991559702085536485e-04
-6.205866874585295664e-04
-3.629720305479211605e-04
-2.622062392744581739e-04
-4.927540413774489717e-04
-5.928399161412533074e-04
-1.769691602398183955e-04
-6.648532955553099070e-04
-3.333983485203773751e-04
-6.005532261421538121e-04
-6.366811838766316383e-04
-7.822791796335670095e-04
-2.710002029757185090e-04
-2.165947910662177872e-04
-2.337882515592037166e-04
-2.679428589511669381e-04
-2.989086420217559816e-04
-2.532083664270863652e-04
-7.339806490496479739e-04
-1.599645050776133206e-05
-6.035045271853713535e-04
-6.954433243333642180e-04
-8.300621771486771383e-04
-2.862921681381986791e-04
-7.634241834584082559e-04
-6.418795910291524159e-04
-1.153345687181654201e-04
4.932946129080743338e-05
-1.866001940124338131e-04
-1.621063985425165303e-04
-3.177996974265476769e-04
-8.097981294420245914e-05
-6.643821488886264808e-05
-1.836829710725144808e-04
-1.529295090254933587e-04
-6.132960955549062636e-04
-7.151249841026518323e-05
-4.806519258446819700e-05
-2.378201240365782495e-06
-3.109364663793682903e-05
-7.274787139904446108e-04
-5.750353181207327720e-04
-9.482617139193400338e-04
1.277509854065539234e-04
7.834624537117360022e-05
-1.451147718832388378e-04
-4.609473731057997449e-04
-2.816742875950331701e-04
-8.888947270482260845e-04
-1.357284420942772552e-04
2.091872540017432509e-04
-1.586856922694574866e-05
-7.539555879408054708e-04
7.481396430671094070e-06
-2.324110106654969090e-04
5.872718400327456702e-05
-1.461524038371519408e-07
2.528418265138008820e-05
-6.678504303005019062e-05
-1.893466807698334221e-04
-1.940768291504181954e-04
-1.258772291819635421e-04
-1.591163355786957985e-04
-2.341221663536604939e-04
3.346044956791460815e-05
4.245443028649374949e-05
3.419818546182942006e-05
8.753305920941000233e-05
1.087825139079472332e-04
-3.804710186422199394e-04
7.842209382943631554e-05
1.226171227944248513e-04
-6.227782849701498464e-04
-4.045549681310012458e-05
-8.584355938617810973e-06
-2.299075797526604361e-05
-9.277324041961995010e-05
-7.920918833491583902e-05
-4.675091178417062408e-04
-4.867926684987304901e-04
-8.550240283510039630e-05
-8.530348998340880656e-05
-6.942841336797727183e-05
5.987559001995437416e-05
3.695431791208257655e-05
-6.073781132290206669e-04
1.009766128694796703e-04
3.783937518934425481e-05
-1.267557873243071176e-05
4.643291275760238882e-05
-5.496887159185688933e-04
6.271785987099041276e-05
-4.517135145337736234e-04
-1.437312077303948667e-04
1.483892040411518910e-06
-4.448252569393800751e-04
-6.705281028639560560e-04
4.362676627627568010e-05
5.763805611247091779e-05
-5.485714719968258230e-04
7.455570661081038449e-05
-1.186977999119000020e-04
-9.811690777676387344e-04
-4.140112508602914604e-05
-1.453313742539470587e-05
-1.274636303635562404e-05
-6.162676719567656072e-04
7.349094712721629841e-05
-3.710800705784985691e-06
-2.363496872969602671e-04
1.147639880812976343e-04
-6.045974814236723151e-04
-8.039258686072512142e-05
7.238372367920046938e-05
-1.784658807573997314e-04
-1.364319749989825194e-04
-1.311644944136819446e-04
-8.430143136322521436e-05
-5.690725952762331039e-07
-1.668993521620948438e-04
-5.058120731671836984e-04
-6.782286826321195713e-04
-3.689923957631950093e-04
-9.789532584465979073e-05
1.005912267855431846e-04
-6.504555106123728917e-05
-5.715726202470064335e-04
-5.635974401173261469e-04
-3.433895941639171110e-04
-9.143620166951528538e-05
6.879721990734983939e-06
5.231152820213388298e-06
1.769254933891398782e-04
1.031759559247012942e-04
-5.207545287991201689e-04
-1.372176733652774074e-04
-2.036608687196131298e-04
-3.942307861201360805e-04
-4.894134900997370100e-04
-3.334497375344908082e-05
-6.114856783302544249e-04
-6.155084632637576668e-05
-1.345912701353788412e-04
-8.901510006844090680e-05
-1.227645708983759695e-04
-6.493196618198850091e-04
-1.290115454764341788e-04
2.523566512563858635e-04
-1.542050128124464485e-04
-3.270120386668073920e-04
-7.559615224129494150e-05
-4.614477365235125639e-04
-5.207947206198877514e-04
-4.349566682240311359e-04
-9.207876388265695295e-05
-3.733731985740589747e-04
-2.832543216458276300e-04
-3.908199936572897366e-04
-4.764697426184796576e-04
-3.832513702512657704e-04
-4.170395826517824694e-04
5.355643891603930354e-05
-4.463471123027251035e-04
-2.665009094846085822e-04
-1.129587032575976217e-04
5.822286570852731110e-05
-2.129514216969235433e-04
-2.143010936489460539e-05
-8.282295942887857591e-05
7.599484826645998118e-05
-7.015756453185776991e-05
-2.155127018430588010e-04
-3.162626948926515469e-04
-1.224330788689370955e-04
-1.965389998270105796e-04
-7.355805336049007180e-04
1.324915606024099958e-04
-4.922286584023820842e-05
-3.880945648425925269e-04
-2.970511892358688360e-04
-4.595667137353814089e-04
-7.354205985241408455e-06
-8.017362037797162960e-05
-3.130485083579997540e-04
-3.942858471789284871e-04
-2.940053625608235010e-04
-3.675660765069090953e-04
-6.250913670593280915e-05
-4.613964621908820687e-04
-2.755244859656791291e-04
-3.042563806894493469e-04
-2.999102890169117147e-04
-4.747059811939294532e-04
1.110071572018517315e-04
-4.276555532787727700e-04
-6.046621508427931771e-04
1.176561114462085168e-04
-2.857722364062080869e-04
-3.220428311220554325e-04
-2.260033839605407819e-04
-6.329588317877799094e-04
-2.874677136426741068e-04
2.056845170501772548e-04
-4.142177622063592619e-04
-6.408576871280560533e-04
-1.898194114135473879e-04
-2.130498997125444697e-04
-1.016921850293644613e-05
-1.115334823805546536e-04
1.879918042634152076e-04
-3.490937319560599716e-05
-3.011768325314110022e-04
-2.780294678434843346e-04
1.063971782737098859e-04
-2.299469790558918570e-04
-1.913694096109544115e-04
-2.729445287073915686e-04
-2.694227604982826307e-04
1.200873737493239878e-04
-1.117932757759738802e-04
-2.786182950783089632e-04
-1.610492016027077495e-04
-1.648863653418862669e-04
3.007593881736541678e-06
7.363471078804602235e-05
-2.614832771430762462e-04
5.065383165316387441e-05
-5.148726885453116408e-06
-7.807524412688845051e-05
-1.140885913989919621e-04
-1.801597798094679425e-04
-1.903933514461953470e-06
-1.871250534441515920e-04
-7.532834906637173565e-05
-1.629967120292064790e-04
8.212071899077732226e-05
3.505311489890267318e-05
-3.210630270436549256e-04
-9.807390281002035365e-05
-9.836916750288423640e-05
-8.146288277490868780e-05
-7.203856464095332088e-06
-3.143540732789838798e-04
-9.659254493013328389e-05
-1.587300579019040490e-04
1.077682865963344760e-04
-6.118174346105271328e-05
-4.374995198031915721e-05
-1.356014324642696410e-04
-1.058256233602015586e-05
-9.220019240231415144e-05
-2.003759687736915895e-04
-1.764404423150589399e-04
1.678573578322194716e-05
-2.562573322877120229e-06
-3.437721647189495816e-04
-1.027983238564304162e-04
-7.279163560804756536e-04
-3.431531311827151754e-05
-3.530532126409408620e-04
-1.675772577639887814e-04
-2.932165372580122276e-04
-9.772116110024873668e-05
-1.579361203707330889e-04
-2.150659745912532556e-04
-2.749204230486481998e-04
-8.198196938291896099e-05
-2.129206682499171406e-04
-3.666605106100445514e-05
4.521997157161349430e-05
-3.040421585329966536e-04
1.298235022087796558e-04
-1.626817374032526325e-04
-1.122231570053733963e-04
-7.660756942727550765e-05
7.405197615415137985e-05
-1.530242221698311473e-04
-1.190576553058133382e-04
-2.373320031253091313e-04
-1.351185481631821529e-04
-7.783731242187972861e-05
-2.060729751657855934e-04
-1.092912077644839154e-04
-1.341104319748107141e-04
6.470030763381733302e-05
1.380074494471757336e-04
-4.564529546253439838e-04
-1.533407919583617293e-04
-5.492610885197374911e-05
-6.321100718407779732e-05
-3.564492803864054678e-06
2.308146215194567123e-05
-8.229349996140161738e-05
-9.543939676453370893e-05
-2.285726302805808120e-04
-7.686966304812732013e-05
-6.916356009579418174e-05
7.750558016740246615e-05
-1.077524273233575745e-04
-1.656997869126671625e-04
-9.275350242174125286e-05
-1.580411280109831750e-04
4.842525041523945256e-05
-3.969141939161405794e-05
1.638774536476806352e-04
-1.700971872472919664e-04
-4.753016994174495973e-04
-3.054773007984560245e-05
-3.138322795310625492e-05
-1.539143861961640551e-04
-1.037791699899347502e-04
-8.949505404192875148e-05
-5.341305781526845377e-05
5.779164456839211932e-05
1.326831051092106453e-04
-2.040045334733714963e-04
1.655332097161285121e-04
-1.632818937845926805e-04
5.237716228853206982e-05
2.736593800700962264e-06
-1.101289566775038583e-04
-3.518068928294158809e-05
-1.687264934300785994e-04
-1.135154767395337957e-04
-1.078835095753592007e-04
-2.464479485752218502e-05
-9.460207497143572990e-05
-5.241506438158331527e-05
-2.049244603896359926e-04
1.828706057564509024e-04
1.009017194482978542e-04
-1.324913949711187071e-04
-8.895458858203681698e-05
1.931938638828902498e-04
4.396432410993403539e-05
-1.585174744852320839e-04
-1.877940563116474275e-04
-1.526401000059348777e-04
-8.216077233408669903e-05
-1.086293034640960486e-04
-5.002983489511238013e-05
-4.466393989818696550e-06
1.107619327498831285e-04
-1.779050315300078104e-04
-5.980674403553237300e-05
-6.532358143008280230e-05
-8.409200386094827092e-05
-1.188745577381118533e-04
-2.623220391269200132e-05
7.877767416444655274e-05
-5.636356819159991927e-04
-1.956133290952295143e-05
-6.181750588041182821e-05
-2.811355104987170813e-06
-8.608017336397867929e-05
3.960131078407299894e-05
-2.268055384161850709e-04
-3.819073734707833124e-05
-8.142658357016868589e-05
-1.292013137991071807e-04
-2.071642422723805806e-05
-2.394917973974079381e-04
1.237631340404185358e-04
-1.312071956926701773e-04
-6.559465002261183645e-05
-2.440828332235452141e-06
-1.231095925087281466e-05
-2.652473007642117977e-04
-8.975985652332814656e-06
-9.234792310567455672e-05
1.531618170940680582e-05
-1.447041965634076530e-05
1.405455440844735439e-05
2.829274461342732317e-05
6.173171865014982849e-05
1.598926929986461658e-05
1.899047985622494516e-05
-2.081227793276299468e-04
-4.146370126032553343e-04
-1.934325122065151312e-04
2.907075443762201748e-04
7.271542915091967296e-05
3.745479565695333008e-06
-1.452338886801564648e-04
-1.059509784115319559e-04
-1.068954474975846683e-04
-5.193711288856037971e-06
-8.510159700100991770e-05
1.213559369580499132e-05
-9.841902214156770064e-06
-1.802951723947426540e-04
-2.882906679184116656e-05
4.946679328279481041e-06
-9.553819394386950143e-05
-4.372051549312649195e-05
-5.331850820513408992e-05
-6.581795044298344959e-06
1.330630276314049476e-06
-4.696118432733690210e-05
5.484907535395416525e-05
-1.114390035120523990e-04
7.172756333751518183e-06
-5.062680961440585740e-05
-5.126695111003317284e-05
-9.787039708566385289e-05
-3.030773130185495894e-05
-8.742710474005200108e-05
-5.940174680832424289e-05
-8.369337326136650369e-05
-9.973704668060721229e-05
-4.254098730396196345e-05
-4.442290016365542328e-05
-5.644096073818758970e-04
-1.183177722295434257e-04
-2.364065040685778727e-05
4.972945698746210433e-05
1.760197478118514540e-05
-1.869020137619643469e-05
-2.115634800314790918e-04
4.726727891206782564e-05
-1.854872768366763868e-05
4.944731412431779409e-05
4.112433813358704255e-05
-3.257843174858616209e-06
1.422948432749217100e-04
-5.230101267278153840e-05
1.012823557520699166e-04
8.299006148386697834e-05
7.065149952529542064e-05
-8.970487484044175480e-05
-8.951564281038196800e-04
1.532114808005637308e-05
-1.272416972072049437e-04
3.989765834589239666e-05
3.534213706021916654e-05
4.277759559476700113e-05
-5.647723283355954939e-05
-2.852596160362560655e-05
8.138877655672987729e-05
-2.159234207700654501e-05
-1.315757448664053853e-04
-6.254480149076182367e-05
-5.477412593675467806e-05
2.988245732641232481e-05
4.125259865967696724e-06
1.198455871319649017e-04
-5.181693985171982640e-05
-8.591682981567236191e-05
-1.749844356521196211e-04
1.295438416875028197e-04
-1.343899693481899634e-04
-1.249250773307428164e-04
1.265668736192103873e-04
9.785997906785423808e-06
-8.856743760266917628e-06
3.681751096915421902e-05
-9.954251837925117590e-05
-7.895380140363723268e-05
1.497059537820765156e-04
-2.559040531962883657e-05
-6.507019503863887037e-05
-3.839332085036198177e-05
8.543039141535030000e-05
1.692895420499673621e-05
-2.186716988284365186e-05
7.056063882716697593e-06
-5.197321239976323290e-04
-1.504942247197350749e-04
7.456032671888072763e-05
4.941475958506057913e-05
-7.633577595448867194e-05
-3.837633697293270477e-05
-1.074600776591954580e-04
-2.343313532804399869e-05
-1.020427004219612717e-04
-6.524730811017732859e-04
3.288170807413939288e-06
4.158622656563293834e-05
1.937657379726950369e-05
-3.094515433064185353e-06
-3.607831193517951890e-05
1.176754610851312718e-04
7.585171651773013363e-05
-4.778934605998492091e-05
-8.927166275204599544e-06
2.132360196128918561e-06
-1.309941822754332721e-04
1.378668870565100851e-04
2.210876587693280345e-04
5.651936886436073290e-05
8.541788812703415390e-05
3.119286172130752581e-05
-5.254915173567529520e-05
5.449158436996501926e-06
-1.567396093843592694e-05
-1.262631648849257750e-04
-1.237321452226583214e-04
-2.004466234034499471e-05
-5.330492776794230870e-05
-7.353292025106161929e-05
-5.048596436720455673e-05
-1.080512511527245256e-04
-4.967764148526348719e-05
6.188503612775524154e-05
5.500931470447458016e-06
-3.533502720325289458e-05
-6.322952284971039994e-05
-5.923016227047221433e-04
7.483694111430828260e-05
-4.557951965681038037e-04
1.545219825783341263e-05
-1.379659150512519859e-04
3.728240933609196559e-05
1.763097246946212430e-04
3.226091885704893971e-05
-1.283894098007042530e-06
2.058345491618497578e-05
1.312639337432936837e-04
4.749736691005025099e-05
3.173443303581606570e-05
-4.424960890091669497e-06
5.165253149843465944e-05
1.195563389653340645e-04
-3.687721251542177040e-05
-1.023342495672849013e-04
-6.885016224950756415e-05
1.298793668195748045e-04
-8.482747543878902535e-05
-3.663632501492497323e-05
-4.579888378407781404e-04
-7.135510842629334491e-05
1.435919527766030645e-05
2.502078755863034178e-05
-1.109357784799226362e-04
-1.427144061885926378e-04
-1.425251420854172352e-05
-1.727499379921667222e-04
-5.655710241661623808e-05
2.733876239479716690e-05
-5.359026472995600827e-04
1.847871724683447641e-06
-6.681626814807758671e-05
6.029469649108296500e-06
-3.577283231952047037e-05
-7.598331679779175602e-05
-1.108322123889227590e-04
1.393737442487354573e-04
-3.091688217046797542e-05
8.179398755080959560e-05
-1.059931427691251114e-05
-1.119145224009270679e-04
3.706758369474364426e-05
-3.968595470874224696e-06
-4.807301141177434262e-05
-2.642434835775020951e-04
1.785609010578774659e-05
3.913183049918989979e-06
1.154387899219167651e-04
-4.847141214424636373e-04
-3.765047313452683070e-05
1.697586669341246158e-05
3.394159947142273709e-06
1.091246109550896817e-04
1.028058353177583521e-04
-8.237536708572960778e-05
-5.669251388849477156e-05
1.083967882569253328e-04
1.563938906733400793e-05
-7.332661334987164718e-05
-5.289410829675484976e-05
-1.062875752214511840e-05
3.361657112363975266e-05
-6.141725406220099014e-05
-9.183604795543203088e-05
8.405890500774860607e-05
5.178109215993416181e-05
-1.927721373750371358e-06
3.604456555440625374e-05
-1.798923862001520634e-04
1.347453383909047594e-04
1.648493454548338537e-04
4.196085013162016838e-05
-1.910692170762806481e-06
1.080444762375609268e-04
1.052671083416655207e-04
1.365934195513017929e-05
-5.870460437250428498e-05
7.156007761211416311e-05
-8.078639176683736361e-05
4.333814406543908687e-05
-6.266861274006097794e-05
7.059229909298959677e-05
4.026603263224381437e-05
1.788685221358628620e-04
-6.897330305619833449e-06
9.964551150258368233e-06
-8.584717333355839633e-05
8.421717917736461971e-06
-9.789636485211943592e-05
2.644103269640077936e-05
-7.757935777442964047e-05
-5.137290352902616259e-05
-3.400972892675598091e-04
-2.241110363673853769e-04
1.864030348016615905e-05
3.277429641156422683e-05
1.215019999395395639e-04
-7.879737166115719752e-05
6.719872381828429712e-05
-4.892187983554963944e-05
4.406021622307536187e-05
-9.057211198927194069e-05
-5.994372106557828433e-05
1.157825238312583149e-04
-3.106166904579303004e-05
-8.344015023947937311e-05
-7.467785089735804295e-05
-9.147984889374632218e-05
-5.820310839652481367e-05
1.685120709399847371e-04
9.128965188356923908e-07
9.895885153328429803e-05
-2.068620541154656206e-05
6.933567201895652721e-05
-5.700450586143866678e-05
-1.400142156767743100e-04
1.127099275302748159e-04
1.181669911332316630e-05
2.705532386696269184e-05
1.633783501941827817e-04
-1.191351018007768438e-05
-3.758892688728309876e-05
-1.964592479650903120e-04
1.249312335105502790e-04
-1.093767982453135900e-04
-1.309632462471741810e-04
-1.461023803625783799e-04
-6.473636757758310207e-05
4.575983104839038919e-05
-5.234876303821540397e-05
-8.209481550338715381e-05
9.083827222302232225e-05
-2.792926527498494475e-05
-4.141632901127503973e-06
4.152123469636149111e-05
9.637836491972728013e-05
1.850852846107006559e-04
1.595466119937655471e-05
-4.780218318982034910e-05
5.154083219711957670e-05
-3.634877641031192898e-05
-1.285371142407831265e-05
-9.014623205871828411e-05
2.823998393876084629e-05
-1.991943658187345751e-04
-2.024496904303086818e-04
-8.484764533421031412e-05
-3.578332086984328309e-04
3.802159665605920935e-05
1.543567200343384923e-04
-6.806016549339312773e-05
-1.442002311126730886e-04
2.346980429869822141e-05
-8.380412143098093819e-05
8.551270685812329374e-05
-1.018527666709419146e-04
-7.118317481853056840e-05
-2.281304442106849112e-05
5.589319033710845539e-05
-1.646182480307646840e-05
-2.198903167182931142e-06
-1.926110079258336306e-04
1.420198434978164176e-04
-3.036273601646281801e-06
-7.895110523777819182e-04
-1.636283681525152543e-04
9.150307971819955177e-05
-1.863874330038858558e-05
-3.071875602497515915e-04
-7.548494346987721319e-05
-8.775105062337492485e-05
1.512045490639244241e-04
1.097356442317507560e-04
1.125436608913819273e-04
1.759023772829305617e-04
9.138953234313783498e-05
-4.333468090109568971e-06
2.493170128763083350e-05
-1.090984761017121094e-04
-6.740239714578537700e-05
6.034283781854994877e-05
1.010996874405008749e-04
-7.466950796917570105e-06
5.223288682333304770e-05
4.418896684091049173e-05
-1.844973869714241485e-05
5.027538884047104770e-05
1.328211293855331384e-04
-1.070294764402762505e-04
-7.766104728172316423e-06
1.476728322399919974e-05
2.086597881730111598e-04
-1.289000636575969778e-04
-8.096190324386562007e-05
8.379799778653092691e-05
1.553771150193018085e-04
-6.073432603636419848e-05
-1.300548584618787574e-04
1.532965572134426950e-05
1.451235961571679983e-06
2.443337928454414874e-05
-1.897565540115680503e-05
-1.103988800668357815e-04
-6.560560131285022678e-05
1.002040747609582254e-04
-1.845151453635150392e-04
-3.791506091945991852e-05
6.188841490528325417e-05
9.237876835522992056e-05
8.820824568789210234e-05
-3.817822027152904070e-04
-6.276719450818382836e-05
1.935129705085832369e-06
8.074236135483034286e-05
-5.415185019739709364e-05
4.701651974907105243e-06
2.714868395138280861e-05
-2.404480571575463410e-04
-1.369094542423119605e-05
1.048971456189449168e-05
7.942078143406367874e-05
-2.437109457585334146e-05
3.853647082412319701e-05
-5.432392284653179878e-05
-7.240749758347152319e-05
-1.673131522028715513e-04
-1.548654790836232725e-05
-8.103374947453009379e-06
2.574197956049591551e-05
9.505498610119428641e-05
-6.252281151884822314e-05
-5.515986428750022287e-05
-3.793517952922680021e-05
-6.727611172501008181e-06
-1.440585842963020382e-05
1.830415285915721496e-04
-7.631590562128811542e-05
-1.778326793523873274e-05
1.637090432721834989e-04
1.940917179767709139e-04
1.256752074878784466e-05
-5.130680194211132919e-06
8.591199742417206210e-05
-1.804309400207844980e-04
1.382085393846310239e-04
1.634667146885259944e-04
-3.963139272273861379e-05
2.798249121255351322e-05
-8.006963989550049091e-06
-1.117257269839190868e-04
-3.574872305310526768e-05
-7.475381807962798680e-05
-5.209151754849761554e-05
1.542513679390132932e-04
6.536930250054996281e-05
-6.707276782100508406e-05
-3.933384026668727937e-04
-5.687458919282249931e-06
-8.824507949249359444e-05
-1.771467871330504383e-05
7.918724252002910975e-05
-2.273531823899930724e-04
-1.246466198597767465e-04
-1.858349192904790365e-04
-1.166573806682610914e-04
-9.473618915150192499e-05
5.034477572103376511e-05
-1.905977542539113133e-04
-1.928367610630716080e-04
9.779703002987660137e-06
1.673784102344187371e-05
3.073777607062027766e-05
-1.546104326232774785e-05
2.125102219879945655e-04
-7.216538942130052889e-05
1.248259090893819642e-04
-7.772432943345890894e-05
-7.136846717498801062e-05
-1.178884972552643424e-04
-8.843321353194216728e-05
-1.341120622647028670e-04
-6.778720030628362708e-04
2.351606518268896151e-05
-5.963896896000461323e-04
1.048645699674475346e-05
6.465920793829930231e-05
-1.316476247982123623e-04
8.690425576216137516e-05
1.013075660748639288e-04
-1.569117177372156106e-04
8.143152558179268721e-05
-1.623256659196823474e-05
-6.164266035065782585e-05
-4.544194586075534095e-05
-6.123406119755276083e-04
-4.503310658241572502e-05
-5.464946650186845728e-05
-1.192390476413114701e-04
-1.484083432999150722e-04
-1.153200880623436047e-04
-4.987350959408750545e-06
1.055045631613544486e-04
-1.051012235281811354e-04
4.167535911669011025e-05
2.511407842513882681e-06
-4.444336876809595589e-05
2.626077478751342596e-05
1.770319033645007843e-05
-8.280373169510776886e-05
-1.078319436601630636e-04
-1.475461757098030984e-04
8.159942177431983167e-05
-9.325658525711164341e-05
-1.988360660269989708e-05
-9.758490398105086231e-06
-2.583623106058836823e-05
3.784797844099304081e-05
-1.967931702325048345e-04
-9.775767142601194943e-05
1.099238144480592442e-04
2.082756553666585323e-06
2.353504833421712946e-05
4.347766524677523927e-05
-7.609424066257761479e-05
-5.620424299488553101e-05
-9.436421339997167748e-05
2.086614827139526314e-05
-1.515316718796699250e-04
-7.117421805545276990e-05
-4.649616359059596804e-05
-2.432485620110886202e-05
-6.410466910312206501e-05
7.787173651122945969e-05
-4.881397783867653451e-05
1.061663888146982380e-05
-1.969399020112352553e-05
-1.109857567066099314e-05
3.136466525223665370e-06
-4.527577648167143028e-05
1.152233433269217607e-04
4.373778078000856357e-05
-2.452325858742948920e-04
-2.807384753137802998e-04
-9.776899249919539464e-05
-1.335358296816234952e-05
2.369300468415162309e-04
-7.519774105039189977e-05
-8.000334148842159197e-05
-4.395720655837235093e-04
-4.522710778209692667e-05
-2.296556318555929897e-04
3.157986686612489300e-05
-4.047275018244449468e-06
1.091206280130657306e-04
-9.173186229796868548e-05
9.067967820296006664e-06
-6.843009402638233621e-05
1.215752350714414796e-04
-5.086887204055832296e-06
-1.738293494367271384e-05
3.121387089688469176e-06
-3.351149095116089474e-05
-1.125834162816895825e-04
-1.101479791627235324e-04
-4.576260554033876465e-05
-1.356996882248119411e-04
8.802586611556101055e-05
1.601554099817146615e-04
3.314821552220938812e-05
4.012772289191949882e-05
-6.365464438760959408e-05
8.433932480908349922e-05
-6.311937585255348356e-05
1.799854402802462470e-05
1.326424838471394730e-04
-5.526892024716103938e-05
2.421001904552980537e-05
-7.740790038821784055e-05
2.686991311266419849e-05
3.945380336809609025e-05
5.380431025387552357e-05
-7.574038922254376551e-05
-8.651476476071583317e-05
-3.946979439597978119e-05
-2.763089112470088716e-05
-1.773754763639551874e-04
-1.273944506735062384e-04
-9.101238752315573817e-05
-7.050326199142879476e-05
-3.463543605921384625e-05
6.753560195269046190e-05
5.188619775702994676e-05
1.699844393607099547e-04
-3.441266833790456174e-04
-2.650394687002043614e-04
1.163780399802048050e-04
6.601521003121457200e-05
-3.810637332570426025e-04
2.325746934578820795e-05
4.601035917142717331e-05
-3.500196389223479281e-05
-1.051855238642901228e-05
-9.391167749740113270e-05
6.767604324333722241e-05
5.519208736492619579e-05
-9.949137765906864990e-05
-3.531622034343369397e-04
-1.566917723196146551e-04
-1.489396491385957730e-04
-1.362645767366863305e-04
2.076487348733401737e-05
-1.331655433386805829e-04
-2.917091017853574067e-05
-2.465222049037958982e-05
3.385367569740402392e-05
-5.392603123141084505e-04
-8.608556069755649942e-05
-1.150828654763871249e-04
5.488810244002361366e-05
-9.199416768169137458e-06
-5.457254654026170900e-05
7.531313746151471403e-06
-7.458967875907730511e-05
-6.649726915041289169e-05
1.577905934832426311e-04
1.706096055651530141e-04
-3.856489605900298331e-05
6.460573172301671411e-05
-1.036987815105516012e-05
6.315022414585727399e-05
-1.235179607303301194e-05
1.119699544867224697e-05
3.584691015681570691e-05
5.648969500467104305e-05
-1.031166706330908557e-04
-2.863003315726950069e-05
6.533901704776866586e-05
6.022381467925809825e-05
-6.639898676025424639e-05
-9.377792566627875617e-05
3.396825500286419270e-05
-4.728715807019668520e-05
2.596701956406028924e-05
6.850529665247794139e-05
5.720586341616660549e-06
-5.204674941240957281e-05
-6.217603983962717118e-05
1.189577880538665404e-04
-2.103884493278639978e-05
-1.216276954103181628e-04
2.325080811269319991e-06
-7.193383461143258153e-05
7.716641908828324455e-06
-4.832692169990096331e-05
1.037760116321248123e-05
-7.186843886749010263e-05
1.067181189650832310e-04
-1.453058537600340836e-04
-1.344724319926901644e-04
-8.475266771493243547e-05
1.512909601953502288e-04
-1.420085374961408027e-04
-4.096774229394376914e-05
-2.192601652056255990e-05
1.074674843908901470e-06
3.335396181890802408e-05
-1.436356372407747992e-04
2.515753525815798340e-05
-3.082612435726820926e-05
-1.520072491473795158e-05
7.333275045375576011e-05
1.188425878029861606e-04
1.008981771959268720e-04
9.221004726550266874e-05
-3.837700924036350163e-05
-8.575261292248174537e-05
-1.626952412130806713e-05
-7.055012491395188366e-05
1.793703745064770846e-04
-1.671786083823284606e-04
3.224915016837481461e-05
-5.055977422855039956e-05
4.618302699902459955e-05
-1.218855246596488046e-04
9.471698133126804251e-05
-7.330693686114984865e-05
-1.104655376526352564e-04
-3.066151188690010589e-05
-6.846408421866272446e-05
-1.478957455072242004e-05
-6.163548656062638599e-05
5.060431405758851405e-05
-5.054244559967158688e-05
-1.261814453629645828e-04
-3.485050226118018333e-05
-4.273772376043439127e-05
-8.243005135022862979e-05
-1.853015636917283249e-04
9.369097111370294014e-06
-8.285612602687415199e-05
-3.909205716541921271e-05
1.395651647203462051e-05
5.072050875861178627e-05
-3.722092298017618076e-05
1.326873535352209672e-04
-1.316834277001192237e-04
1.709575047848981087e-04
6.193350889135638678e-05
-6.921749069037732606e-05
-2.057828956908268370e-06
-5.669520188160360932e-05
-1.392406513781292322e-05
1.273104137444119400e-04
9.703414735319546133e-05
1.991228898825252444e-06
-1.016611183750557441e-04
-1.075564050146155258e-04
-6.186223778370076128e-06
-1.197802316532372709e-05
7.360993037819545755e-05
1.320770203078015010e-05
-7.806918558345336367e-05
9.631192390675614751e-05
7.998572775531315291e-05
-1.030880327335040580e-04
-3.095384513238752755e-05
1.713809759619149106e-04
3.271444426041704743e-05
1.290128843868770629e-04
4.460882474313000875e-05
-4.557164215607741888e-05
2.006842953884288439e-05
4.265862141324848537e-05
7.841834826385360804e-05
-3.274191106006129953e-05
1.686660108396861713e-05
-2.991503816325437705e-05
1.125161516313086019e-04
3.226870008602141849e-05
-6.432416785002941602e-04
1.134754710255412506e-04
-6.432825199247781285e-05
9.141746169311475178e-05
-7.643672891133422977e-05
-1.260482008155364477e-05
-5.160318852140715116e-05
-1.155560639573562394e-05
-1.288585872854930284e-04
-2.798670772282961617e-05
1.691722195246684213e-04
-1.792579934789457520e-04
1.840371085057437915e-04
-1.491596378793583253e-05
-6.859426098126973138e-05
5.816113653911038199e-05
3.420133533802825099e-06
6.218905791518421662e-06
7.901829972909257360e-05
-7.952131762434479407e-05
-9.207936680486250905e-05
-8.285344131287879265e-05
-8.146672898773779181e-05
-6.560720349342611345e-05
-9.443388972556574651e-05
-2.531220175158885199e-05
-5.211772692872041358e-05
-9.276268800528333675e-05
1.718205438917347013e-04
3.656932215302849171e-05
-6.334657964280283281e-06
4.176494601143120738e-05
-8.904572551881092125e-05
6.613591806017667212e-06
-1.174622044003780739e-04
6.820948192203602010e-05
9.604611156941199863e-06
4.943499341567882799e-05
1.133207632395893879e-04
-1.480162892350652879e-04
-2.056560079585795936e-05
6.377650673481485594e-05
-1.211468414128932396e-04
-8.855033797094055150e-05
5.890437458885433716e-05
1.579443964208245834e-04
1.348019658130868200e-05
1.281050021331173530e-04
1.239333443614486251e-04
-8.252590333358439400e-05
5.920227525129765748e-06
8.412316408939694422e-05
2.538399672954303523e-05
4.137543043083797471e-05
-2.446034501345063588e-05
7.189813442661004291e-05
-8.884891469702041786e-06
-6.949394507627027395e-05
-6.302026588099185467e-05
-1.371108786807490314e-04
-2.296018416517641922e-05
-3.122336112470037675e-05
-1.190694529684614300e-05
1.818650745681062142e-04
-9.271024897950266277e-05
-7.846340729781196033e-06
1.007264977886675258e-05
7.847133340417358749e-05
2.001716892399685740e-06
-7.738705439466284238e-05
-5.425842147144513454e-05
-6.675729236340353142e-05
-1.212267453021493636e-04
2.299952384809576542e-05
-8.147460777236658299e-06
-1.287345176435710783e-05
4.950863688201449396e-05
-6.175260518239603719e-06
-2.324260670517382398e-05
1.704109067631393227e-05
6.350357181396750535e-05
3.286868882114565502e-05
8.881252444276491737e-06
-6.507682738424942271e-05
-3.339894589937294887e-05
-1.074437719446220561e-04
-5.554626000579291695e-05
3.660955097577799029e-05
7.227277184340689844e-05
3.401358049638720024e-05
7.896579955891171141e-06
-6.211043800319748646e-05
9.021616502286759537e-05
-1.396572592326516019e-04
1.352550804012452100e-04
-7.613082652960776776e-05
-1.080596317782496328e-04
3.556784468952402879e-05
1.020658248614840003e-04
4.749666056421997544e-05
4.226402374800772483e-05
9.377471466529626199e-05
-1.087677697119334970e-04
-4.548461571835439489e-08
3.831323759369119212e-05
-1.683029370398199257e-04
-2.470179295215916451e-05
-1.576121932085543069e-04
-1.065869775174178397e-04
2.133089110600400976e-05
2.196215214473318793e-06
-1.112287630715594171e-04
-6.729458032636027301e-05
1.466905772182752930e-06
1.069224229788754533e-04
-7.542648624470680403e-05
-3.800195160720335315e-05
-7.508268744280642559e-05
-8.321830237411531790e-05
1.913249306747924266e-04
1.324476448872394219e-04
8.875853656745048435e-05
-4.302109444586119336e-05
-5.751572161639639894e-05
-5.923953057122291547e-05
-7.536157397541407162e-05
1.988659690083728580e-05
-2.208105969202447683e-05
-7.251634418549094817e-05
7.647701775143453840e-05
-4.334535218753514987e-05
2.512285014316203543e-05
-5.055821376051810190e-05
-6.682777059914799835e-05
6.973205079070766109e-05
-2.170672513616323147e-05
2.883914584308647116e-05
1.720089725575624353e-05
-5.717521887227149021e-05
-9.838296365051882192e-06
-1.187304664755013840e-04
2.569925949832477783e-05
-5.998792922616532676e-05
-1.510796387670991256e-05
-4.868770312239485610e-06
-9.276355240946233631e-05
3.877061996520494275e-05
-2.831688292665873752e-05
-1.217810296612107756e-04
5.052123361397279098e-05
7.584161249585388885e-05
2.330072705869808142e-05
7.665608083680515124e-05
-3.168122489746646444e-05
9.584298326212523892e-05
1.418362478845303413e-04
-1.110650155171542472e-04
2.610793410998373931e-04
5.349856597465811934e-05
-9.977651174695937843e-06
1.094894706736458727e-04
2.703691233996601931e-05
9.005275789533627689e-05
-2.197802229885913842e-05
1.034624938799709432e-04
3.498793077831228971e-05
-2.106270271849599999e-04
8.193467123639232058e-05
-4.428405114827047912e-05
-1.504364079835598532e-04
2.168595601121784181e-05
-9.959465303291116208e-05
1.114415404875234496e-04
1.012049418556008984e-05
-1.403611750034375295e-04
1.911269988527172661e-04
9.063994076795790398e-05
5.533233636668852219e-05
-3.487150042503497986e-05
4.042020429384569116e-05
-5.398995667487187044e-05
-5.404857751082127752e-05
-2.300726572873959541e-05
-3.659131165737844167e-05
4.065114900292252981e-05
-2.115580010864299534e-05
-1.422665015781954506e-05
2.613715526169582584e-04
3.613054294023548981e-05
-1.255650036366818113e-04
-8.608844614114511133e-05
1.160977863317159644e-04
1.801017581421690279e-05
-3.594299057713868940e-05
-2.120385159467188255e-05
-1.623243638316441333e-04
-6.047287839245345947e-05
1.315098974892153419e-05
-5.483363306216735964e-05
-1.041896316656560348e-04
-9.549438606621522862e-05
-3.874464610475828461e-05
-4.193393042756271158e-06
-1.171156222237296863e-04
-1.013627459966084363e-04
1.159192374428057187e-04
-4.267403178191339630e-05
-7.589960256000362869e-05
4.605681757931125284e-05
5.596377439331590349e-05
7.431033866512949421e-05
1.270980549603440508e-04
-1.173242570157555005e-05
-4.952199913864140595e-05
6.833323809411482913e-05
-5.535242014652396407e-05
-9.049334621842845415e-05
7.219912052138562769e-05
4.620445274959890646e-05
-3.688912853017874057e-05
-3.421205365199296773e-05
-2.708628123668905567e-05
-4.407989181784839313e-05
1.583257925559796255e-04
-1.684565856031666948e-04
-6.374390612610965443e-05
8.409276073370329269e-05
6.645113332594733294e-05
-4.668047960418565760e-05
4.350217305514913390e-05
-1.282536651658327466e-05
-4.532199880845518263e-04
-9.768897980955641009e-05
6.551611392314599634e-05
2.658612619695788841e-05
-1.160954711756767278e-04
-1.678797460312723316e-04
-1.249089251245593673e-05
1.044184740879802471e-04
-3.919529633747220852e-06
-1.417677204488392581e-04
-9.119109801719607286e-05
6.536957889209725307e-05
9.276514290396322305e-05
1.081524562221742463e-04
-2.088251111648820147e-05
-6.994982748288587301e-05
-1.778150907168005309e-04
9.715603533786222373e-05
-4.150085269646027402e-05
1.481222490298349909e-04
1.351832905198340569e-04
2.853269604449530257e-05
-2.176163268667991624e-05
-5.854974267891672210e-05
4.090149663975146629e-05
9.992574635301246341e-05
4.101114955250044697e-06
6.436913417629859134e-05
-4.163157707406837330e-04
-7.378163731791121760e-05
5.636251021074624440e-05
-2.152398983271641586e-05
-2.693045118476914305e-05
2.752611164233990444e-05
-4.110723489267623722e-05
-6.323796395180851602e-05
-4.418622637478824536e-05
7.732440331516046424e-05
8.975618572878287058e-05
-3.306565424089380364e-05
-7.700273532671580989e-06
-1.588065076924035767e-04
-1.054555977354455304e-04
-4.138778938335467100e-05
1.942593214040303818e-04
4.057702976864501561e-05
1.030668127835468250e-04
-6.146905845927863070e-06
2.048563296979619705e-05
7.204409049763375004e-05
-1.183226027018629959e-04
-1.129089163563199095e-04
2.947109260547123741e-05
8.447595325244082985e-05
7.176623866213016926e-05
-7.793619114052753951e-05
2.204795388119996029e-05
3.231255197415205266e-06
-2.289624729638589759e-04
-1.131027344243618635e-05
1.888121443245434805e-05
5.596597417445067205e-05
1.695504492461296644e-04
1.775758197749186630e-05
-3.235148941676386608e-05
6.238036489996562665e-05
7.451380964325703981e-06
-4.729393552222169091e-05
5.178516297280421043e-05
2.717784252968898472e-05
1.883688123994636560e-04
-2.735000186623247039e-05
3.326088921133544732e-05
9.762966895077205100e-05
5.748737145998247718e-05
-4.733169866354764772e-05
-4.703023477765677684e-05
3.686722479095136742e-05
-3.379358394432126233e-05
4.281710529777294936e-05
-6.317490525739109081e-05
-4.954210365074677969e-05
-8.140417243819483535e-05
5.558186499042888835e-05
-1.056422131576344089e-04
1.465154526775843302e-04
4.603836791679775811e-05
2.483120145727028403e-06
1.535383649503914668e-05
2.597576774267386601e-05
-3.338563486712234005e-06
-9.803116734163056694e-05
-4.613818579794348870e-05
-1.237315172929438843e-04
4.048881219192272809e-05
2.095672792253075835e-04
1.631094802004582586e-06
6.994690526687400637e-05
-7.470848821009571294e-05
-5.632207303090352969e-06
3.164112585428870540e-05
1.778235101060232867e-05
-6.423955786930961365e-06
-4.153204513634417409e-05
1.231147375609558466e-04
8.198643351527604259e-05
-5.530217806468209757e-06
2.715119013310663453e-05
2.615011026716891935e-05
-1.642881302349471584e-04
-7.725072123895998803e-05
-1.305723094548996894e-04
-2.898457336292028860e-05
-1.943305842282690794e-04
-5.869784345651675862e-05
-5.386287863792679303e-05
-3.481440451127506452e-05
1.505693508951687441e-04
-5.680909902923955891e-05
-2.379385171082318696e-05
1.682390884850447441e-04
-6.372081498443394937e-05
1.527410263511858073e-05
3.532624023933692156e-05
-1.028440121916119845e-04
-7.425974180925708234e-05
3.992450390972786137e-05
-2.744401983451654685e-05
6.149597712831266318e-05
-3.690099543470658954e-04
-6.254405602748393830e-05
-2.737475299419683393e-05
6.969056765198252637e-05
8.307244807277000217e-05
-6.879783336763906955e-05
7.615246022213240193e-05
6.342706523398847305e-05
-5.491534738658312097e-05
-1.088511257884045052e-04
1.385009056577122958e-04
-2.046948532030543115e-05
-4.508640616145634389e-05
-7.918863966854420905e-05
-9.618693831808013613e-06
2.591060307557883943e-05
-7.757410884778527689e-05
-9.448712450354386765e-04
-2.511996465728861722e-05
7.619499358050643993e-05
3.181528797253915184e-05
-9.592033440635748022e-05
1.032940277692098144e-04
-3.201806823583868225e-05
1.094314864717784314e-04
-8.487647119005648725e-05
-1.853399491242535040e-05
-8.048844606473721963e-06
1.053794645604272449e-04
9.495472618398771128e-05
-1.118780543460253353e-04
-1.818943203359844809e-04
-1.469936036789297820e-04
9.373860717535888968e-05
-7.564747837325827193e-05
9.445041176304018742e-05
-9.105989261654999359e-05
6.821214228114853644e-05
-1.713830584685995795e-05
-3.157830687435666340e-05
-1.083210882145367311e-05
-9.673365926665057255e-05
-2.340055668289988043e-05
-6.033143620977594412e-05
-8.654446218979334766e-04
-3.782051008050563206e-05
1.826397317791181882e-04
1.530853141399140545e-06
-7.117913424719828227e-05
-1.145311724574021915e-04
-5.111259547745817665e-05
-6.615426770813605858e-05
1.393233681874477822e-05
-8.639339807125667357e-05
4.656268466361275689e-05
1.489042089133858306e-05
-2.368870390469748723e-05
3.725803156510452193e-05
-1.825044512557143543e-04
6.916966189460112778e-05
7.180058719205079836e-05
2.844992749519126388e-05
3.847414204822023691e-05
8.130956937616324589e-06
-1.149851696362984413e-04
2.001320065784222628e-05
-4.859163534985165789e-05
-1.168903802522328186e-04
6.942545317934682540e-05
1.038844875543000673e-05
-5.210385734918014053e-05
2.298686979754629241e-04
3.287177338767509311e-05
-3.587787227631951588e-05
-4.419131228132975589e-04
-5.231198466953673862e-05
-6.677692124630886495e-05
-2.574882135009726269e-06
1.016941695636710663e-04
6.680189446700310800e-06
5.375240760190775469e-05
-1.149431432948174321e-04
-8.725349955084738375e-05
-1.718839191185096346e-04
5.478834134065312155e-05
-1.007094578814886527e-04
1.543849733468592798e-04
-1.374310996710425301e-04
-5.769389989919570670e-05
6.294212759702088873e-05
1.109948184632729196e-04
-6.747663920731845032e-04
-1.321147781386519725e-04
-1.457725765185931659e-05
5.092586578979070870e-05
5.677291787039611461e-05
-2.404440769064347766e-05
-1.512630024751397543e-04
-5.660721075701428268e-04
9.342935475916082424e-07
-3.051448905805772586e-05
-5.199744006294073538e-05
8.608772533643761825e-06
5.660828366508980085e-05
-3.587021555828396029e-04
-1.338862163293705668e-04
-2.359511065159239815e-05
1.159266647181464937e-04
1.348342956379281908e-04
-1.432822319731672932e-04
6.772844987242911694e-05
1.457767680142672357e-05
1.480322051884589887e-05
-2.835379270771492399e-05
3.430006571140575193e-05
4.010115223835380782e-05
-1.475291293036743519e-04
9.925109660264327255e-05
8.305825854678084406e-05
-6.471895358595532903e-05
-5.796831518725735445e-05
-4.920695062153236817e-05
-7.329218889747916323e-05
-4.664404380848308896e-05
5.070855500165312495e-05
-5.105096287276100281e-05
2.933299728984732602e-05
4.592871124283009175e-05
-2.636340531609354218e-05
-6.141024085999931379e-05
-3.421112188385987905e-05
-9.065417262210379899e-06
-1.602480685010027297e-05
3.183785712567348345e-05
6.409504723977201923e-05
-1.708490375932694908e-05
4.594229660180151805e-05
-1.099963692406370574e-04
-5.799991771919980546e-05
7.114048411962878456e-05
2.513120808833959303e-05
-2.298647178276397161e-05
1.390608006084164902e-04
-5.659209853689324072e-05
7.611906986556416085e-05
5.969980961941569750e-05
-7.231444618589571126e-05
-6.755114796162312832e-05
1.021039809174634206e-04
-7.004323347227005777e-06
-8.285997708106659595e-05
1.190470356003314940e-04
-1.814996167419321877e-04
1.127199153509136399e-04
4.812335627421300538e-05
4.212289628997675426e-05
1.992834327203225556e-05
-5.043467148698831743e-06
-4.014486410509292004e-06
1.286515576377190669e-04
5.115345057339190697e-05
2.383422631122258909e-05
1.110369607236000382e-04
-1.990111428756438883e-05
1.224017798052640181e-04
7.599264052716319696e-05
-3.321156078891841269e-05
-4.425008675523917372e-05
-6.646849094273656904e-06
-2.861937489805877324e-06
-7.752121582019495913e-05
7.325747730185801058e-05
2.762513166662571286e-05
-5.309423766851675413e-05
7.192472869508557975e-05
1.539727452187195469e-04
-8.977769312222400847e-05
5.894541591726545064e-05
7.370915520179479750e-05
-1.093244732166051350e-05
-8.730554843180324514e-05
1.313293762767561886e-04
1.367741657684337175e-04
1.829027419270108198e-05
-8.519169287854859462e-05
-3.031523981365883005e-05
-9.597441548872503558e-05
-5.307452640037347278e-05
3.004565077378696836e-05
-5.970507300225427126e-05
2.812541505839786100e-05
4.001648882543872926e-05
-8.402136767710870343e-05
-6.633455913523765438e-05
2.561484073929588939e-05
-1.440841792772258210e-04
-3.829162756545946816e-05
-1.777535820516068130e-05
4.060658692288680276e-06
2.308430169088685301e-05
-3.175006287775998444e-05
-1.123310204403613471e-05
7.025313146527167234e-05
-2.910170822901456946e-05
1.534514400177437838e-05
-2.431690015407338311e-05
8.195838363045952941e-05
1.965444752299525994e-05
2.273942262996888388e-05
8.741798327375337348e-05
-5.962491999108930862e-05
-2.030361595974349573e-05
-4.434588679305859850e-05
2.945101161923712737e-05
4.887308645655523062e-05
-9.777835894214773104e-05
-1.188348695999496433e-05
-6.503615287565582483e-05
-1.287613703206888234e-05
1.240216076846463748e-04
-2.267460071560295604e-05
-6.681590614397703728e-06
-7.170217296358297600e-05
-2.466010970985913702e-06
-8.309969217766803183e-05
-1.513117948571048065e-04
1.919691974262697611e-05
-1.240672795619422568e-04
4.513840009916508941e-05
-1.802714619569581694e-05
-1.494082179825960103e-05
-6.343345194321812022e-05
-1.386624096158832942e-04
1.586671919057946448e-04
-3.475792003150786390e-04
1.477222935736250515e-04
2.571159892321474915e-05
3.257638548131596329e-05
7.665442258992973944e-05
-3.266687009199393872e-06
1.140809752149480130e-04
9.433814379638032438e-05
3.221188850959436344e-05
1.731477022313104418e-04
8.040144577171812721e-06
-4.403512893651791697e-05
-1.315750427659927292e-05
1.258540750258779103e-05
-1.681704754207596831e-09
-8.920445971459854364e-06
-7.038219869361770254e-05
6.548709354645293761e-05
-7.799547090324788004e-04
-7.544197069266510758e-05
1.796569966863327116e-04
5.258256075964004941e-05
1.446532593949089666e-05
-7.664126908563331938e-05
-2.391712291958626106e-05
-2.820961637005757025e-05
3.274582048265424266e-05
-1.286786063058724958e-04
5.057986415837051743e-05
-3.307162685185800071e-05
4.300607854670591100e-05
9.091711076632476610e-05
-2.948632075456496989e-05
-5.514529781279414809e-05
-6.122945283736273923e-04
2.411726768524422997e-05
-3.511881581354226161e-05
6.047215369649734884e-05
-5.499130449447532464e-05
-5.531240843307045409e-05
-4.006239366381776786e-05
4.972691839711910767e-05
-3.149722154503603984e-05
5.329224770061274458e-05
3.587374382502476740e-05
7.358017184475145183e-05
-5.142569505401040292e-05
-1.864837640967896754e-05
2.160494830919050389e-05
-1.118235560625925677e-04
-5.871627803364401184e-05
-3.716495127577233173e-05
-2.764953029604605734e-05
-3.989516459445568991e-05
7.716218222943254355e-05
5.793789876067811538e-05
-1.104262666668438694e-04
2.248331180806512753e-05
-3.928675518485823248e-04
1.614094191416419661e-05
6.718758993049606225e-06
5.467729021903430244e-05
-1.135589407816331919e-04
-3.914615620028781253e-05
1.336465156910950791e-05
-1.068914241799485482e-04
-7.664664609274789544e-04
4.887140764489875317e-05
-1.064512656650089815e-04
-5.981375221932039299e-05
1.338242298154688789e-05
7.122873338660153249e-05
1.121207431268024175e-05
-1.787490833094076774e-04
-8.627924599482928879e-05
6.829644652616951260e-05
8.166814561704923944e-05
-5.647367379782157277e-07
8.843611797736048417e-05
-9.369109919222481556e-06
-2.354677763677070278e-05
-5.434018553983543155e-06
8.678421426072646630e-07
1.658778479329406428e-04
8.319425893014977208e-05
7.903935652259562559e-05
2.060793480811496072e-05
6.102318475071773717e-05
-4.293293988023134845e-06
-1.079160067093552273e-04
-3.552351759581666939e-05
1.276377848587066427e-04
1.012376339419079809e-04
-4.750892604398117568e-05
-2.456316333756344380e-05
4.776180279854577216e-05
8.329478393154109335e-05
-6.992819490414509511e-05
2.883552664700120711e-05
-7.886113845122264028e-07
9.584090460920397834e-06
-2.070188147521279732e-06
9.227393497613693382e-05
-1.190253986262495016e-04
-3.405249627714231807e-05
-1.020864805321030933e-04
7.683033168936120655e-05
2.851340726381261907e-05
-7.539378653100462066e-05
1.425496617690016378e-04
-4.084755723525352206e-05
-3.235987514070758845e-05
3.420580613196272564e-06
9.544313061820760278e-05
-1.087595702144562020e-05
-9.294184780601555331e-06
6.455286623529363362e-05
5.316965206787051615e-05
-9.589591980751866016e-05
-3.283119849401293827e-05
-1.617188797130925050e-04
-1.415829793422312029e-05
-2.095049030402030860e-04
4.513113580613317672e-06
9.291363965890456233e-06
3.721328955898137701e-05
-3.901248829259103154e-05
8.223658962060920020e-06
-1.056709441976744695e-04
7.937881525670010489e-05
1.422152537332761768e-04
-1.387322927615120265e-04
2.902703922751474210e-05
-6.205286937807656309e-05
-5.527903416203564451e-05
6.711001603030533787e-05
6.084507572402149942e-05
-4.438108500561087157e-06
4.040981454763485300e-05
2.570402961965830200e-06
-6.909093167294433672e-05
1.516058469960584946e-05
-6.369843188878935203e-05
-3.467692793598504107e-05
-4.500185810871690781e-05
-4.715440051659264536e-05
-3.918175231615476315e-05
-4.750633613596415793e-05
8.818854378534692789e-05
4.842771110585980667e-05
-1.114259379159111401e-04
1.484163533415934347e-04
1.109021857214640050e-05
1.023287937907414307e-04
5.824839189383026219e-05
-7.189198457922756189e-05
7.183382743575183452e-05
-1.169144118888560969e-04
-1.728829463884034516e-04
-4.678209728951413920e-05
3.259135980394062943e-05
-2.337706888402341746e-05
1.057402232613712679e-05
1.516413655608246400e-05
-2.164344216971276244e-04
-6.559770181647650289e-06
-1.294356753241186681e-05
1.416331833274759255e-04
-1.418857369112104256e-04
1.164105624491785455e-04
-6.647206685497871641e-06
4.081673789043345138e-06
9.258110143825379291e-05
1.413651996118567061e-04
-2.376093265222451226e-04
6.656730187090022306e-06
-8.026770249603307402e-08
-9.038502428785334078e-05
9.558134784589822233e-05
-4.946705440130906573e-05
-1.204574544050346051e-05
3.696594279616379354e-05
-1.426565026004871731e-04
-1.904880730968870194e-04
9.075484926546468100e-07
1.150262166226636201e-04
-1.714152191302688733e-04
1.282250893255913773e-05
1.544260047660636170e-04
-1.853064079101309082e-06
-5.959949677183043476e-05
-1.459658939634160318e-04
9.733128987012065397e-06
6.464607908026004466e-05
-5.952725090426536937e-05
8.058135675196419217e-06
-1.861606924825050130e-05
-3.078594423810441719e-05
-6.713236575899495710e-05
-1.161643194095040114e-05
3.856833741385632975e-05
9.861135436810084399e-05
9.182947085516708955e-05
6.576420605363659554e-06
1.277648105657819939e-04
5.696347535679701919e-05
-5.896194194500722136e-06
-6.327101233109736335e-05
1.329499318884749598e-04
-1.179886330485059457e-04
9.684063717461153609e-05
8.779070189779078232e-05
-1.990472127764695803e-05
-1.406740894006583269e-06
-1.067174041020367602e-04
-1.044635825296882974e-05
8.724522159709348086e-05
-5.247104885628539736e-05
5.584013129495429980e-05
-8.230422574283150861e-05
-3.332537818865202939e-05
-6.168624097272325333e-05
6.633078641573943754e-05
-7.027907486286816715e-06
5.815904763222582406e-05
-7.166462141323656570e-05
3.448883439095652768e-05
-7.387905290945459731e-05
-3.889846889141071045e-05
1.465413006768866871e-04
-1.752211887281695415e-05
-8.918568045345151335e-05
-1.934168044544422348e-04
-1.295217231002753957e-05
1.280291247373664729e-05
9.388603746149977881e-05
1.992230102754360060e-05
-1.163466264933003972e-05
-6.962204912379040857e-05
9.669429129783933114e-05
3.247100282218112944e-05
2.181397303698919866e-04
-8.792166100460999933e-06
-5.492203973111129816e-05
9.588122283552432377e-05
-3.401027945623727965e-05
1.983026820924899453e-05
-8.549532282102122410e-05
1.576281791243475594e-04
-1.151544245564212307e-04
1.117663544301250334e-04
7.226367685106855612e-05
-1.258837600520266844e-05
-5.497162729809709238e-05
-1.732758513771412553e-04
1.005212774088762746e-04
-2.801915608635864509e-05
5.589783660416940126e-05
6.797794614828044015e-05
1.396161257542076982e-06
-1.126156599552262827e-04
-8.859222095485533202e-05
5.516682904785080320e-05
1.532540738568287408e-04
-2.610155371095028637e-05
1.794550873810815596e-04
-7.042273847027296653e-05
-9.449495738237221221e-05
3.083989425639393854e-05
-8.525436327383705817e-05
-1.952460368412242637e-06
1.503161180331059421e-04
-2.270898363916441186e-06
4.033055051156571583e-06
2.242707423578248628e-04
-5.887462948785471755e-05
5.236573942126798649e-05
-4.052094648428419149e-04
8.153441116682100438e-05
-1.128266152529468089e-04
-6.158367334329341812e-05
-1.203306456151120255e-04
-2.734402509051363529e-05
-1.861550003134546615e-04
7.385376876913567071e-05
-1.613400579132170519e-04
-2.947211402727334983e-05
-6.726875911620087719e-06
8.250934046462095209e-05
3.506139472522990051e-05
-6.614686006634949798e-04
6.519391571630651753e-05
-1.343527633673294080e-04
8.383095749376252858e-05
1.062801462911032061e-04
-7.422112182410821131e-06
2.675890286926787826e-05
6.065618480732300590e-05
-8.711124872560563619e-05
-6.253580409464932783e-05
5.101665593942467791e-05
5.145323776546723721e-06
4.779371420353634663e-05
-1.261306264548123007e-04
-1.506431963962841648e-04
3.542078436732375664e-06
1.635859480198589177e-05
7.900030012204044250e-05
-3.882223396431944395e-05
-1.015791408543927901e-04
-1.838391274948873006e-04
2.715415253845129701e-06
-1.277924726269827967e-04
1.606793359794460307e-04
-4.712715626437590112e-05
-3.963023291188933812e-05
3.637503947745909252e-05
1.497927590956067581e-04
-4.729534452262522517e-05
-1.679568990294355352e-04
8.262846099335706626e-06
-2.533327352840362328e-04
1.479357256137523814e-05
2.931505513929480889e-05
-6.191740289338960011e-05
-7.284148063140849538e-05
-2.727805389081635105e-04
-1.331513043164931234e-05
-1.766965980753991861e-04
7.739513439159526497e-07
-1.338634574711920744e-04
-1.575745428221057658e-04
-9.713448644526956872e-06
-1.142818987020244596e-04
1.677663497367869682e-04
-2.450849677710632859e-05
-7.045952632583640004e-05
1.124603028566787722e-04
-4.125769121143994057e-05
-6.109289038507567746e-04
7.451309219171295948e-05
-2.258120934006723271e-05
-2.052299938147232746e-04
2.698760578277091155e-05
8.492697320506565467e-05
1.454777662404684747e-05
9.001215743883919217e-05
6.172410893975187335e-06
-1.912729839969906607e-05
3.479178183775053938e-05
4.645898665142934847e-05
5.986257939376849455e-05
-9.364135311804146027e-05
-5.059488523849565647e-05
1.990723398658979243e-05
-1.148345022970894966e-05
5.381251112180225729e-05
3.072391010474286748e-05
9.198486907962584317e-05
-1.248918799828448330e-04
-1.292109289998009871e-04
5.740173430984346896e-05
2.738941944340586281e-06
4.847836013097273761e-05
-8.532227052382376786e-05
1.665904986092400395e-04
7.841802689519632294e-05
-2.911507270097330705e-04
-7.544324053249309569e-05
-1.519833121665914162e-04
5.614294918013975879e-05
-1.514008204009483416e-04
1.604810591081690942e-04
-9.879654668880443575e-05
-9.662625735530406591e-05
-4.766360750872230417e-05
9.405628269025935288e-05
-1.360412992056130249e-04
-6.055051457118528117e-06
4.230681693589958848e-05
1.437302301158543310e-04
-4.689298913378533345e-05
8.157009853613527198e-05
-4.893319086976334099e-05
-9.855536367651389232e-05
1.000194298781066822e-04
-1.433846194835797608e-05
1.440950901912581707e-04
1.713244826778860649e-04
5.721410758554457002e-05
1.316591552577393712e-04
-4.062344312953496376e-06
-1.205078284999813243e-04
-4.331435188286871353e-04
4.975773267954056471e-05
1.192157084791876053e-04
-8.951711077523114121e-05
-2.058035276841020699e-04
7.348855147369739462e-05
5.385665406045256836e-05
-2.534320138924977704e-04
-1.689707050392243732e-05
-2.265293018392529995e-05
4.742077210752104955e-05
-1.153337772742689979e-04
-1.171127406077286243e-06
-1.401967519841541018e-04
1.469998815775212222e-04
1.421628355585478464e-04
-2.414563057537125301e-05
3.107590301400511374e-05
-5.922905381234452545e-05
-8.884455858008357321e-05
-3.188568455173276047e-05
2.505260660592787101e-06
-2.921087284471105228e-05
-4.845797129795764911e-06
-3.296060679090072223e-04
-6.953638643006896693e-05
-8.109392256371329428e-05
-1.563789599056070807e-04
9.634668554136087697e-05
1.083239266872331743e-04
9.435875944958933674e-05
-1.523694765888676994e-04
-4.314141079185213279e-05
1.827399853897319286e-04
-1.489027487473522512e-05
-3.950179216718718010e-05
-1.174644562637098638e-04
2.934571011764962710e-05
-1.569659555332737202e-04
-4.705086036932953745e-05
-4.604590717687741822e-05
-6.265045106377714916e-04
-1.037756215328159657e-04
-4.303215535040223760e-05
1.001927157597334167e-04
-8.403671853157585196e-05
2.223223632967897092e-04
3.597016046856050723e-05
-3.477354693056258469e-06
1.849323856779680819e-05
3.762134987813174749e-05
1.115792058760988804e-04
-6.007972984700558412e-05
-9.986281823734837742e-06
2.228134580211102520e-05
3.910561218265590585e-05
5.909999533861101548e-05
-7.648987159710504003e-07
-4.594920013190158714e-05
2.208399548949359543e-04
-2.804623108139799671e-05
1.159841815383196885e-04
9.970397008395355954e-05
-1.607373422189955082e-04
1.848705925127107604e-05
-1.531234716435128437e-05
-3.586004390081502286e-05
-1.919551233745727661e-04
-5.132966278829390955e-05
-8.246812671693280164e-05
-2.692791746425640700e-05
-5.327830013223284209e-05
1.035365333716442750e-04
-8.379483685642408750e-05
1.783559964651598392e-04
8.170751860910753083e-05
2.091369845741194566e-04
-7.822387284514224607e-05
-3.070855884676547913e-05
1.567201305897212847e-05
-2.302797697960798893e-04
-1.201740858258584966e-04
-8.559955344350459881e-05
-7.331906291178230243e-06
-7.775032389797756382e-05
5.282679015658478045e-05
1.053998026168700861e-04
1.277409790231796036e-04
-6.125039554149921029e-05
-1.383406927882026803e-04
7.413403385055903933e-05
4.128398554287439218e-05
1.379634660057571288e-04
-5.812239833012768162e-05
3.583264191555725396e-05
-6.461450484004601131e-08
-1.022061978618126854e-04
1.623240530979805341e-04
-6.544931561594283481e-05
-2.148225280058649325e-05
-1.280223603804615719e-04
-1.481551716273527041e-04
1.152989943654056685e-04
1.206517888256630544e-04
-5.120676299397440871e-05
-2.114254602841316331e-05
-3.623157095713949033e-06
2.735849215197088430e-05
8.412626704745230519e-08
-1.650879629453112240e-05
2.168007835853536782e-04
-4.784674288549621199e-04
-1.413080319686990736e-04
-1.574854738778666758e-04
-1.270244498431456661e-04
6.203100118689687005e-05
-8.209715390896770367e-06
-7.324504088227318753e-05
6.590862632767149616e-05
1.023644114821085501e-05
-2.388871169467221816e-04
6.387350466990974725e-05
3.182667120453632419e-05
-1.683088344362567064e-04
-9.754451245644420903e-05
3.819764322972492299e-07
-9.032168802608664295e-05
-1.754114556395290007e-05
5.654746399965442593e-05
-7.882488569821714981e-05
-3.051105979654222247e-05
-1.786600369761985249e-04
1.600597447667260944e-04
2.962077102944950604e-05
1.127770057239026289e-04
1.069249368066690679e-05
-8.927795385703483712e-06
6.887214863442250596e-05
-1.263788067789755644e-04
-1.525163175614451319e-04
5.266412894298912829e-05
3.443701757038639859e-05
5.285318628753969873e-05
1.098803580339974539e-04
-2.104184537096313650e-04
2.235392218296771542e-05
1.221038674218522281e-05
5.969286643416957922e-05
-3.442668337381493205e-05
-2.247150291297471162e-05
1.561045778221912530e-04
3.548799368530103593e-05
-6.151861286207189897e-05
6.921484338224127111e-07
-9.042060204072074545e-04
6.867778797393247515e-05
-1.213770852053160559e-04
-6.663125454106268858e-04
-2.177071965472202457e-05
1.187569976127432275e-04
3.640544692090580219e-05
-1.081368375843481206e-04
9.317366202702960206e-05
-1.604407155931781873e-05
-1.616477649248191566e-04
1.369646312505243171e-04
7.088971109027439985e-06
1.874039671499249467e-04
-1.005828621188781789e-04
-6.383777535369003244e-06
2.845762673156333679e-05
2.217097855669496398e-05
-1.961054892013396143e-04
1.673749772569120586e-04
1.912503948995556693e-04
7.277683754321050841e-06
2.762073264246724214e-05
-1.391389506730347282e-04
1.247061121644435131e-04
-4.017182832603680202e-05
-9.038542907098751685e-05
-3.769861769243714058e-05
-9.920322890025856210e-05
-2.801512814797753215e-05
6.204363093091895559e-06
-9.711325636694150020e-05
1.619743827665908614e-05
-1.745083298904595711e-04
1.859645319869527777e-04
-6.057451354426892449e-05
7.672239429493716642e-06
7.071950671689862284e-05
1.564203879851043272e-04
1.071698929556105670e-04
1.040754302111425032e-05
7.689173171460061908e-05
9.438778027841451519e-05
2.844960992857009798e-05
1.120263356587790518e-07
7.144597299483120792e-05
-3.046945665782062673e-05
7.587278731899266976e-05
-6.241383894659767147e-05
2.524892560524622204e-04
9.241198716335811687e-05
-6.363607162156715538e-05
-1.661663865577338826e-04
3.191620514030509692e-05
-3.535875827779188466e-05
-3.685300368405041414e-05
-1.416937176726219057e-05
-6.766255733374839688e-05
-2.774597398104335913e-05
9.336937848075062144e-07
2.256863126159882859e-05
-2.361394441061171039e-06
-1.156055225295482780e-04
-1.239905870551171381e-05
-1.626752053491704853e-04
-1.017982453653929240e-04
-7.358106969429319588e-05
7.608581303246501589e-05
1.410982288441452767e-04
-1.758983430331491430e-05
2.423351731957343959e-05
2.431823108128978769e-05
-9.906312786493047640e-06
7.687182690113204299e-05
6.487802433594055495e-05
1.389647604865397825e-04
8.984199715466668120e-05
-7.504763570573619509e-05
1.059141457402224646e-04
-1.369646987327360302e-05
6.981440430392091485e-05
9.413397872570993484e-05
-6.657173007506366033e-05
6.703848685316591335e-05
-1.768622255406482660e-04
-1.500542526855908726e-04
-1.886169196695061158e-05
-7.760455018537920039e-05
-1.672681203591119508e-05
6.654731051480261670e-05
7.431002853609155177e-05
4.238147076510818349e-05
-1.248436932939254670e-04
1.100187410922310693e-04
2.384534917569273613e-07
-2.162598902073292967e-04
-5.565680642970238426e-05
-1.957711098641634886e-05
1.281623732235720535e-04
-3.718264928497521261e-04
-3.057731643275228361e-05
3.794205003060483898e-05
4.801288415337793961e-05
3.516968979738378543e-05
1.349416973989068743e-04
4.666233173715055488e-05
9.987963581512016855e-05
1.098524372174949335e-04
-2.112058319216099034e-05
-8.595892571245727042e-05
-1.133835663789617784e-04
8.427870158588924665e-05
-9.905401111607980817e-05
-8.653736150540253258e-05
1.997351240196051708e-04
-1.195882208797700212e-04
4.413965268050083757e-05
-1.458536024557948302e-05
-2.610252121203443087e-04
1.146813906505977758e-04
-8.820373820020542684e-05
-1.159215267737768919e-04
7.468631498868266862e-06
-1.003411189619474777e-04
-1.268847648042759947e-04
-1.047589544857852387e-04
-1.308178755580474283e-04
-9.251192525334207871e-05
6.958795704105963842e-05
3.886671022192058483e-07
2.630521140242643430e-05
1.200966043035058461e-05
-7.924455614886027031e-05
-9.077631158963306887e-05
-9.590917501482447313e-07
1.437921464550214043e-04
6.182843457677680463e-05
-2.310017447391067753e-04
-3.913309730067538990e-05
-7.224547974524366369e-05
5.330269977042502867e-05
-4.952397109101352367e-05
-1.910184678396900293e-05
-1.293865387877424190e-04
-4.383804452588764550e-05
-2.564140401393756033e-05
-7.618329947369117852e-05
1.059269472844673137e-04
2.256857558095302995e-06
-1.431899541828978155e-05
-9.014224288314956533e-06
-5.231015344860099941e-05
-9.568281499292171071e-05
-8.713499330375562286e-05
-1.291955974148725620e-04
-5.220404502953688593e-05
-2.977857090681284950e-04
-5.049446987197700129e-05
9.061744678748941432e-05
-3.944202493967358965e-05
-3.761722024918174245e-05
-1.577884885458614951e-04
-1.353293230061735708e-04
3.406587243508617658e-05
-7.323283247681410630e-05
8.544851840437822779e-06
-7.837323052890385461e-06
1.424549816642077960e-04
1.389377196817741375e-04
1.010103548173378274e-05
-4.233370058023726501e-05
2.122161585446069904e-05
1.230500635294850674e-04
1.202209815547316971e-04
-1.022767304800660244e-04
-7.611973858906483439e-05
8.922709506771375645e-06
4.460237578193005932e-05
4.795170117907993583e-05
-6.932052698309693777e-05
-4.349056092484742184e-05
8.668242655246375490e-05
-5.136934878394050310e-07
-2.721206741729669676e-05
-8.120240451355932641e-06
-2.244634171890109870e-05
-2.559595962513570717e-05
-6.827107196795275345e-05
-1.051842338119885839e-04
-4.053595267148578385e-06
-1.348189237746735490e-05
-5.365320998793178008e-06
-4.954510547682009745e-06
8.196166940066446679e-05
3.796578777594773941e-05
3.068963597718958250e-05
1.295368701429648714e-04
5.629015601532414554e-05
1.114663092556523159e-04
-1.161694359981816553e-04
4.296113094617586990e-05
-1.051294298195466022e-04
2.205399796793531143e-04
1.234902744553828438e-04
5.434118311271745347e-05
-2.219515296726602411e-05
-1.711496936224933150e-04
1.486754194941888657e-04
-3.585359044808596807e-06
1.343262615099125891e-04
-7.395505975530143454e-05
2.696881831434263857e-05
1.311659215528697597e-05
-7.072011011022927101e-05
-8.059410678014536204e-05
-9.624670370656148723e-05
3.289614807764403031e-05
-6.426946868433402289e-05
5.865181382332050586e-05
-1.801471221579512569e-04
-2.334276961247664051e-05
-2.701860947559712829e-05
-1.516354548078574526e-04
-1.183122908042732213e-05
-1.903828436098817744e-04
-4.418020803271646750e-05
-7.511330293299904961e-05
-3.188291625781719465e-05
2.283422266996665024e-04
-7.588118593842804804e-06
-2.757680519469564949e-05
-4.494035946298474839e-05
-1.920914276353112167e-05
-9.406631975384065062e-05
7.342580183476280799e-05
-5.903683298945192640e-05
-2.208786969575012959e-05
7.044167244138355307e-05
4.008613720207190363e-05
-2.990100913533133334e-05
1.165499822013676714e-06
-1.395307774645978150e-04
-2.803989548824973875e-05
4.519357600654440841e-05
-9.425278560231003014e-05
1.259887560841330741e-04
7.599955259506676654e-05
1.961416324275694722e-05
1.219743316264531403e-04
-1.398841589604952331e-05
1.949147295275970956e-05
7.816789118064161027e-06
1.087970537534545907e-04
7.295724699715226366e-05
4.348076251728597691e-05
2.490391024455254162e-05
-3.787799924922430941e-05
7.729295573990749475e-05
-2.761451105052229799e-05
3.875956687921751012e-05
7.831277516672208964e-05
3.070228956848661218e-05
3.922852785020697564e-05
-1.690623750385968733e-04
-1.109472194658734327e-04
2.942328917744915703e-05
-5.409836874750610102e-06
7.010874540607678850e-05
-6.073044857135285590e-05
9.676512142527265450e-05
-1.739023076605478385e-04
1.498387914935793202e-04
6.258993984643273995e-06
1.672578791210007970e-04
1.503646588023293661e-04
-1.609244442722579715e-06
-8.357470960201492083e-05
-1.165413113226365557e-04
4.109925032919082828e-05
5.563580495275257049e-05
-5.910041150212894172e-05
-1.831839302028222578e-05
1.617618289404563751e-05
3.147000542248086632e-05
1.716310998381980629e-05
-9.585105307461331216e-06
-6.114134508279711144e-05
-1.809975516515930890e-06
-5.354719276591199812e-05
8.726249848845252452e-06
1.032412776048470109e-04
-1.867284029871121235e-04
-1.926727220876671811e-04
5.004296611290916621e-07
1.262641284534205173e-04
-1.125694834576567299e-05
-6.659142460739748710e-05
-3.323431598336060530e-05
9.232591423311497462e-05
5.651535024472237480e-05
6.103480982192580490e-05
6.300161792001646697e-05
-4.346138620156030438e-05
-1.301835753499678335e-04
-1.276278100430937486e-04
3.414344272414671235e-05
-9.748396435590567894e-06
5.613123427252192257e-05
5.240176159937504546e-05
-3.519591927893294861e-05
-6.627747626236333049e-05
-4.909221684915503697e-05
2.166197371724624235e-05
-1.336053961175759342e-04
3.632817963396521593e-05
-5.098403602624828750e-05
-3.079320344224339978e-05
-6.766906999336881308e-05
2.119102389893262153e-05
-2.132981197916129524e-05
1.535465110359635836e-04
4.586032962884999738e-05
-6.176931143889642531e-05
1.612421746763948751e-05
-1.295135008675067222e-04
-3.920338384796571171e-05
6.354159863178831212e-05
1.615479748355837193e-05
9.606404770772376507e-05
-6.525422806228206769e-05
-1.922974384021577284e-05
-9.546265850629288537e-05
-8.373684302071035394e-05
1.293124714077070032e-04
1.464109342879624817e-04
-1.120471949268478764e-04
-2.507285142153122600e-05
8.701222742424820236e-05
9.164418446757293616e-05
-7.262015976785396844e-05
-3.326377932258805354e-05
-1.053840624715601339e-05
9.714334763951651321e-05
1.716398791864084979e-05
-7.549345935955559207e-05
-1.452963480180238223e-04
-6.067705110351145952e-05
2.930605073651962051e-05
-1.526562708458314500e-04
1.469651915768739324e-05
-1.058591975287926837e-04
-7.665362812989460380e-06
-1.725053400063733463e-05
5.156913931822708054e-05
-1.105618058698696021e-04
1.976186842552303210e-04
-2.904995458485514425e-05
-8.540373275830021288e-05
8.894320182677418433e-05
4.595838357365943707e-05
1.490212075017617026e-05
-6.264829374836702121e-05
3.110937718040212853e-05
-3.791390262558576665e-05
-9.606969059974089097e-05
2.666474221515840044e-05
7.679477890220180757e-05
-4.146880664563776031e-05
2.646459167381570504e-05
9.175910941816837368e-06
8.887650981256658696e-05
-7.392098935299790683e-05
-3.262180201641238017e-05
-8.525350120267729376e-06
6.433853059187521161e-05
4.550046996988669844e-05
9.891141978366266687e-05
3.721304923217170205e-05
1.712854673033083994e-06
8.895358626147756981e-05
5.578424816467483465e-06
1.469579131968195098e-04
7.941338750029112536e-05
5.743891212866428713e-05
9.988855825589028933e-05
-2.874865229482167245e-05
-1.796550748842424433e-05
1.285081640123463714e-04
-3.134672413459922219e-05
1.861535167196982975e-04
3.582796349868171858e-05
3.680199781459726673e-05
-3.800795217221576542e-05
-5.705414876861227523e-04
-8.276122993006573955e-05
-1.489614937913496867e-04
-6.813535269437284996e-05
-4.860803387306965898e-05
3.353000988784364902e-05
-1.004040139193544077e-04
9.669640778351613918e-05
-6.925267589318124037e-06
-1.094128469678261166e-04
4.160720081628767942e-06
-1.556249764023014180e-04
-1.356904425733746736e-04
-2.326802808324770935e-04
-1.080721058851230789e-05
-6.760262888058690938e-05
5.700987587716690776e-06
8.242798183445138982e-05
-6.432363998892669558e-05
2.028906063124990381e-05
7.532787407610925417e-05
1.444603163605725544e-05
3.548528486263389836e-05
-4.325582205705365952e-05
1.495500133052677013e-05
4.676327752243673229e-05
1.506852034264096537e-04
-1.063136266945436818e-04
-9.631767655355126620e-05
1.283905833946895813e-04
5.689972025831461139e-05
2.474096412600123375e-05
5.573552868443946241e-05
1.136742323068683723e-04
1.442251813832558668e-05
-4.087819497157946019e-04
-1.483466307390042310e-04
1.087847317144761063e-05
3.002111478269573090e-05
4.319614016721133831e-05
1.819227612143322132e-05
4.760300206778029158e-05
8.758965677501401727e-05
7.682271095928751281e-05
-1.207561717083468757e-04
-6.492586815670634720e-05
1.110764358719692499e-05
-1.703567082503637048e-05
-3.000035376205325183e-05
-4.267115871676458148e-06
1.162243814816094620e-05
1.422208011950759719e-04
4.770671479549058933e-06
1.960162045885473244e-05
-2.903203614295662128e-06
-5.228581101948537985e-05
2.725167278774873051e-05
1.332639538829443946e-05
-1.694772705586331863e-04
-3.513955066805135645e-05
8.611440084821224417e-05
-2.635757127270734857e-06
4.225125551997547103e-05
-7.067725064814529303e-05
4.195205597951646721e-05
8.235413459744193420e-05
-1.806176859898766607e-04
-5.348953769101618479e-05
-5.696839636871935488e-05
-1.010141060639977594e-04
5.634765793804303750e-05
7.806850822826653111e-05
-2.375329795321892134e-06
-3.444503113023718847e-05
8.012469050173118572e-05
-2.904257906200066836e-05
-3.304925840163572943e-05
-1.076216065683587784e-04
-4.753933165265490375e-05
1.679661136493895251e-05
-1.393989343380816449e-04
-9.837773880688207000e-05
1.228198496704891363e-04
-1.043112627657239317e-04
8.006476722565979164e-05
-9.900153994435948325e-05
3.543487060847567196e-05
6.875533121286385907e-05
-1.445732613585600922e-04
-1.237245994659997280e-05
-5.969167271936972691e-05
-1.017728671561789628e-04
-1.006631835818452229e-04
1.485649300971203708e-04
-6.934293728397740192e-05
8.311540327076277757e-05
-1.239695134896960269e-04
-9.881759934199714653e-05
1.866137085793921797e-04
4.635299882109483608e-05
-1.118486158888152795e-04
-1.079597742271580055e-05
1.575321718685409941e-05
2.324750495252683665e-05
1.752854131571628793e-06
6.520345634007124614e-05
2.291658895695989511e-04
4.448115518830187570e-05
5.556010377115940695e-06
6.755830729447399830e-05
-7.950402667582953079e-05
5.767601179686617223e-05
3.883461508431632623e-05
2.673036441757612207e-05
-1.106368213062502390e-04
-9.178422113768952746e-05
1.239711693872667280e-04
1.593549922546953800e-04
1.437324776047231945e-05
1.313854608895932035e-04
-1.113339675604137299e-05
3.370888963425756110e-05
-6.934267307002517139e-05
4.752612772836303442e-05
-1.534573890050797400e-04
2.075582316463144559e-04
-6.701852168260531868e-05
-9.802127360641438259e-05
-4.258571083928411560e-05
1.446476506144314157e-04
2.699328530629458814e-05
5.224805749117486449e-05
-3.848976011154544620e-05
-2.094431950687136712e-05
-8.143728048262718184e-05
-1.514142075157697562e-04
2.031879809778010162e-04
-1.051804650226967472e-04
3.944997315227573726e-05
-9.953896781089692925e-05
-9.557452236962836424e-05
-8.048076154366466531e-05
1.346515405248401465e-04
-1.165832020405339935e-05
-1.571715096085417296e-04
2.242032977137957154e-05
2.565214286521732447e-05
8.447237584490353975e-05
6.953367351499893981e-05
2.220795144393240451e-05
1.780161359530893061e-04
1.027814843526942545e-05
-4.078881281600849296e-05
-6.494483844863089812e-05
2.056210907392104319e-04
1.122584252195005050e-05
-1.758705335429571381e-04
-2.019708777698814848e-05
1.272596629344229458e-05
-2.783745267494387330e-05
1.610739912176873304e-05
-4.033477033318941891e-05
6.160404917299595840e-05
1.701803191981184039e-04
-6.206280812487389325e-05
-7.739061590436255796e-06
-1.152384884807245487e-04
-7.025181716288300291e-05
5.012621317683663727e-05
5.907304090626095815e-05
-1.448241250440725843e-04
-3.998087746015673277e-05
5.396470471728288809e-05
2.139526720405840715e-04
1.546748704606344907e-05
-2.386709808111043856e-06
8.880736977211584570e-05
9.911266224012301883e-05
2.454726736484191962e-05
1.913194358989819986e-05
-1.549632095496788109e-04
2.112026794481901290e-05
6.940693339805941655e-06
-1.378041144844859077e-04
2.888690343697145415e-05
1.159925208745606160e-05
1.718340811266795947e-05
-5.456431643066153445e-05
-1.157152823873413742e-04
-3.128789344340405024e-04
1.011253884278976800e-04
6.169404273750283641e-05
-5.227438295019697903e-05
1.972623493547866593e-04
-7.856934813182066594e-05
1.709355499381458673e-06
-1.009073588100148908e-04
2.782853173344779525e-05
1.172953504908029872e-04
-7.743907160164952442e-05
6.956465372158683212e-05
-6.900530453528461140e-05
-9.499759877471725307e-05
-1.033772943727497646e-04
3.129842544870204297e-05
-1.855317966848713291e-05
-2.219713381935969975e-06
-1.138505600188909772e-04
-1.352674501479069098e-04
1.623052878430130818e-04
-9.887785730656353084e-05
-5.164952505286841229e-04
-1.455672223494265945e-05
-9.027501465197838696e-05
-5.932965334739566935e-05
-8.027612755966651254e-05
1.124823764148751248e-04
2.624957073963038399e-05
4.595635010447541121e-06
1.582156583773855843e-05
2.071480951965042061e-04
7.525267528626782065e-06
4.099925441228277688e-05
7.667878573646558357e-05
9.307379705202680495e-05
1.808221302797329697e-05
-1.900870472019263729e-05
-1.002448033827786080e-04
2.245577635716209015e-04
-4.943674986096033855e-05
-2.903253989343439158e-05
6.111527253281165309e-05
-6.306289584937002830e-05
-5.401794679023512160e-05
3.875533623216978935e-05
-3.296032536320866145e-05
-6.733267017471049754e-05
8.500415203661634367e-05
3.869424155599872014e-05
-1.848152149114190763e-04
2.771008171024145857e-05
-9.080127817552075854e-05
-1.193933389999240661e-04
7.085717748285842309e-05
-1.087846825593444066e-04
1.182094142733005118e-04
-1.416667877657071673e-05
-8.109918950935565403e-05
1.556000612611168265e-05
-3.262063700593170252e-05
-1.616130511786573331e-05
-3.118531321404519524e-05
2.566131149374990234e-05
9.871594581351457047e-06
-5.300952026748223316e-05
3.586052950292596079e-05
1.550530661211555082e-05
-3.257834180831564546e-05
2.267078661492082201e-04
-7.476482758704375319e-05
-1.428955959711576034e-04
6.721099795550854270e-05
-8.817561298307830659e-05
1.900009834350728551e-05
-8.531394801463775370e-06
2.590082314559577232e-04
1.213094537308573431e-04
4.113102603941614374e-05
-5.050953338118520765e-05
4.533788889668688486e-05
1.691638287211111097e-04
-6.434653819426166871e-05
-9.487364119608969731e-05
-2.729126252544360325e-06
-8.508361738303825937e-05
5.185828659216286748e-05
-1.033743329308200689e-04
6.185956494247651265e-05
-1.350310820554768900e-04
7.095794511683915231e-05
1.224293136989562051e-04
-1.025927717647549369e-04
-1.477014724511034680e-05
-1.325248602514014179e-05
-1.148787065090589728e-05
6.281779645885798576e-06
-5.971296356562566570e-05
-1.971944553419068761e-04
1.211492657575670979e-05
1.440288130732575228e-04
-6.005143616704549953e-05
-9.320962477658315210e-05
8.804968355141949742e-05
-7.444724984770165102e-05
-1.392899403096914430e-05
-8.119835746313499713e-05
-3.504062082157777686e-05
-2.194993857944295247e-05
-9.577538158564860105e-05
3.479761078945246171e-05
-9.577370870094369364e-05
2.422129768866562618e-04
-1.121025121580893405e-04
-1.007209210437957816e-05
-5.691847479964636273e-05
-5.781587842521570609e-05
-1.644444644985617655e-05
-3.712024800365691440e-05
-8.702868231145869694e-05
-1.023834294261474043e-04
8.331972168047507051e-05
7.544991120306310565e-05
-4.269625845878624614e-05
-1.583266665268817847e-04
-2.884673527171960957e-04
1.194197218234464630e-04
-4.921730106704228842e-05
-1.350854542431047852e-04
-4.422707511159989802e-05
-3.715794542618781416e-05
-5.739696836244920501e-05
1.141061098827532276e-04
5.554701216725337895e-05
6.746657142742827452e-06
8.372350721402433262e-05
1.171323225368700718e-04
-2.826391865738095386e-05
-4.014786146105940882e-05
1.721487698942646659e-04
-3.030369779264744965e-05
9.390320315859333359e-06
-7.946429425322241156e-06
-4.731490385051630568e-06
1.775668934001975243e-05
4.803419672530862477e-05
-1.116382229137677709e-04
-3.527924245474456077e-06
-1.431079751047463348e-04
-7.972276381844097123e-05
-6.824730507628949790e-06
-4.766432775067206296e-04
-2.230106342595496063e-04
2.113030370448676341e-05
2.538872841417165070e-04
2.513508090011162103e-05
3.689629825285428553e-05
-2.046840437922138676e-04
6.980192075020370639e-05
-4.387379049524122387e-05
-1.706553582801534547e-04
-3.530739400217512339e-05
-1.811537573194257358e-05
2.580719697611640609e-05
-9.268645226599009357e-05
2.429254409683130757e-05
2.678847909874626443e-07
3.053907990824089271e-05
-5.363248195540920002e-05
-6.583082125120326292e-04
-4.664362934025259393e-05
-1.318026268322694224e-04
-1.509458141267142983e-04
2.051892778623266975e-04
-2.997608620825342545e-05
1.122855828333038495e-04
7.672899062109063829e-05
-7.844444115038448878e-05
8.644660937763350996e-05
-3.160807869456433975e-05
-6.407136684689867373e-05
-3.012663599326036450e-05
9.493458700056791374e-05
-1.024099365307939573e-04
1.381117223630852210e-05
-1.536952110640292350e-04
1.117490074479580390e-04
1.241150933402276641e-04
-5.762968304914832783e-06
6.841392755535965185e-05
-6.331634842734101733e-05
7.603871727370289544e-05
-8.727313896265264328e-06
6.142956448926549561e-05
-2.331020631884742338e-04
8.978468498932900448e-05
-1.492365097928995913e-04
3.566028618874356198e-06
1.363276699542388930e-04
-2.381596195403075053e-04
-5.751251307703937203e-05
1.863453294938951322e-05
2.744818378331531668e-05
1.003119153984715917e-04
-2.241765455307453904e-04
5.095723713850333283e-05
7.047480496044374965e-05
1.036940580353683543e-04
7.963175258545852171e-05
-9.017265876055575199e-05
6.617575054499791939e-05
-1.183533274401585750e-04
7.459627347271367403e-05
9.424862152962180570e-05
-6.008241133343465793e-05
3.185896595738387649e-05
-3.367110316118925289e-04
6.224154811393134727e-05
-2.093194283970288355e-05
3.160036937116532287e-05
9.480737749267195691e-05
1.021404244686389430e-04
-3.821284864274494380e-05
3.233870931936739005e-05
-2.710119640176764203e-05
1.518135024981337791e-04
8.133384896401275269e-05
-1.115518603585710379e-04
-2.185510058699192851e-05
-4.074674087797231994e-05
-9.643477356570540743e-05
-1.138026988133743059e-04
-4.493665701934567206e-05
2.287282409943965336e-05
1.317111208958984760e-04
-1.024252325917874467e-04
-3.388127509987951826e-05
-9.232673932736831183e-05
-3.810057597673594204e-05
1.094178819932430070e-04
8.664574179657317696e-05
-2.518139947976574607e-05
1.403142494183336753e-05
-4.180598756596332267e-05
-5.191587536674897301e-07
-8.541015032014562388e-05
1.593245773861168854e-04
-1.136544652832126133e-04
5.594650642131324624e-05
-1.215670992261415416e-05
2.767388895929931067e-05
-2.078985986096315298e-05
1.033812803309858196e-04
9.931840371402145522e-05
5.927105264942629092e-05
-5.228331274755281801e-05
6.708987490774838923e-05
4.674772252194794289e-05
-7.838454888828341727e-05
-5.968500708190473965e-05
-1.863769522072747592e-04
7.892844039909639939e-06
5.761185376084061049e-05
1.752672966417338286e-05
2.679480051837751926e-05
-5.593291172237236183e-05
1.537310213397166106e-04
-1.608100277893208266e-06
2.151518125965133123e-05
3.026273473964083196e-05
-7.971075108328761318e-05
4.982112721217300203e-05
9.040737014191507369e-05
4.481255232521512259e-05
-3.074177044535279557e-05
-1.813255603829633158e-04
5.151070650428390209e-05
2.379601224449677175e-05
7.794962523891709968e-05
-1.110462756931765877e-04
-1.371437273930601437e-04
-5.682426403464942659e-05
5.420699464475575501e-05
-9.829122650120918449e-05
1.842708496292287841e-04
1.747702681696561950e-04
-1.049770284793876389e-04
-3.674284607357663856e-05
3.756059453265596864e-05
6.356993641519648349e-05
3.986909925422039633e-05
6.984806839268715647e-06
1.678752133344830284e-04
-8.576863778978324933e-05
9.250445677772878067e-05
8.291602143773809015e-05
2.079085472627510418e-05
-1.773073518917458533e-05
-8.434475512072550480e-06
-1.964645833730840197e-05
7.165457219502501971e-05
-5.431993652757807203e-04
-4.439009990791353285e-05
-6.432443596259220149e-05
-4.863296493362989756e-05
8.007184533646101356e-05
-1.086157330804989496e-04
-6.579187991004765194e-06
2.481837219786552038e-05
-3.621016682107454653e-05
-1.025465707700540404e-04
4.698290145934679379e-06
3.106683487464680251e-05
-2.179466733141287933e-04
1.409665331118101141e-04
-8.130495937864970371e-05
-2.681945956464736261e-05
-7.436490469254040004e-05
-2.029257958834545940e-06
1.097868934263812797e-04
2.974813287593999796e-05
-2.119167055360545419e-05
9.098907501887844426e-05
8.052793196063091094e-05
-8.197676482269117097e-05
1.983942229972334565e-05
1.608303498723307769e-04
-1.596959546808067272e-05
1.391129538862538313e-04
3.429915636591671346e-05
-6.796814647872096826e-05
-3.992502641774890352e-06
5.027774486529838787e-05
-7.874808924634983827e-05
-7.367184924979409781e-05
-1.530748526731178004e-04
-2.124403341486620606e-05
-1.706292852051817597e-04
-3.730965776249183083e-05
1.600648992582639135e-05
3.274334518334812003e-05
-4.526642325044799174e-05
-3.110246437173908154e-05
-3.415163360982251256e-05
-1.248457815814571216e-05
-4.337067883533392721e-04
6.938958215183149735e-05
-9.521138515430842384e-05
-1.333455924446588065e-04
-6.066870688980583473e-05
-1.008586182265844300e-04
1.184336000366710181e-05
-1.156772729800850126e-04
6.910055449140470871e-05
-1.074143374433808671e-04
2.555864369438208965e-05
-1.195202452757782789e-04
2.260014066128347043e-05
5.581304066891858655e-05
-3.526536053668519156e-05
-7.596812445969899296e-06
-3.825302013805704208e-05
4.450028937223018862e-05
-2.007467550187735610e-05
-1.425267037699640691e-04
-2.370290091385761908e-05
5.218557269596296158e-05
1.529868555248827368e-04
-1.207240610712975195e-04
-3.060705506361356752e-05
-1.546398469318158381e-04
1.694438626219689427e-04
-1.155322319155017947e-04
2.662969470612554069e-05
-3.126453266048414512e-05
-6.700340032168419020e-05
-8.951150665183415188e-05
-7.886571830451751151e-06
4.003890113169628610e-05
-1.394060530572965254e-04
6.141943849091788452e-06
-1.006939510745353362e-04
3.102722306271681605e-05
1.271576371823382532e-04
-2.251967483905323902e-05
4.230180429848726814e-05
-4.627796537647629122e-06
-7.729402357125757152e-05
1.426429011618312777e-05
3.483421609156738181e-05
6.017510615422660603e-06
-4.970145536347624602e-05
1.325294975533513108e-05
2.174090180948124238e-05
-4.547875828619722097e-05
7.101637073114723693e-05
-5.986967946045824654e-05
-2.509051899404504096e-04
8.260938225092795374e-05
3.253030099528504731e-05
-8.721593594382020577e-05
-3.073412385363644047e-05
4.309455124397688154e-05
-1.563027752782108196e-05
4.310200408100150251e-05
-9.709702604966499761e-05
-3.271216475151415631e-05
7.837894718962421344e-06
-6.664511907843578820e-05
1.193538866001874252e-04
-8.424352505671778941e-05
-8.444172434189401453e-05
-3.282160806381352375e-05
-5.744744281320574779e-05
-5.811531773171593252e-05
-7.076042449207515096e-05
3.917301131509056569e-07
-7.168724401245704322e-06
1.945325864596535791e-05
7.198388502199502587e-05
-5.820148695236789448e-05
1.281531108780603590e-04
-7.078859417147735843e-06
9.961913201064966788e-06
-7.890029992551722245e-05
1.944148979509682058e-05
-8.112797112668068277e-05
-7.979582574761869701e-05
-1.178203516243965716e-04
9.386190156945681425e-05
-1.189007352804693875e-05
3.032768846214908208e-05
-3.772609489174989154e-05
-6.917227946345267200e-05
4.734373993877164385e-06
-4.291836986169670791e-05
2.287089373950511144e-04
-2.455920187121119746e-05
3.318746990890026304e-05
-1.159026744079821397e-04
-1.569993215379600815e-04
-8.189528405537393660e-05
1.627388538946127592e-04
-1.140493845877440349e-04
-3.184142810591957239e-05
2.657637997021760040e-05
4.452260300117323664e-05
4.002422085514753997e-05
1.054779175165560449e-07
8.225130930399547049e-05
-6.077038243462151690e-06
-4.004483512377996266e-05
-9.834755826954286702e-06
2.372094348540642955e-05
-4.090916002293966663e-05
-2.872205204717921952e-05
-2.549875481567541626e-05
-6.346415850632761168e-06
-1.847391377930015244e-05
1.453671404527639035e-06
9.914068269339837734e-06
6.121105528258086149e-05
1.029073251179881641e-04
-3.707311692825459058e-05
1.985741170450440398e-04
4.284216102864142422e-05
8.683727262610735375e-05
1.244616485729192203e-04
-3.805630542757318532e-04
1.162882088707475837e-04
-1.292067963082457521e-04
-8.307207999494885015e-05
-1.150986270275746121e-04
4.674706112060922976e-05
-1.712743502079406232e-04
4.130437291933784858e-05
9.528566863759104462e-06
-7.989686325499585639e-05
-9.338180679112941381e-06
-7.427745263347454549e-05
-7.303146648189427640e-05
-5.479975595873352011e-05
-6.577739223294535608e-06
8.770053149360944929e-05
2.844068775232406031e-05
-1.038759646450833530e-04
-9.942327282844234677e-05
3.811742527450783045e-05
-1.070748796680078273e-04
-5.977561334473570066e-05
-1.121954084536407753e-04
-9.990612123932028871e-05
2.306566697343973168e-05
3.699536323526635590e-05
2.240734253590577171e-04
-3.332180435535111193e-05
-3.022372692717695614e-05
1.526487107459761450e-04
9.815159171274202561e-05
-5.707466792060341077e-05
8.802609919573810073e-06
1.165801268210731728e-04
-7.620256969275847575e-05
4.351825287029808452e-05
-1.463439048328229845e-04
5.137941890009927067e-05
-5.593945836173730613e-05
-1.309775048702191478e-04
-8.502184927737554184e-05
2.207150065461496258e-04
-1.138991997767287444e-04
1.391174477854283554e-04
-3.462427991473653711e-05
-1.674773387908684496e-05
-1.043057523176032456e-04
-3.160720316954190406e-05
1.325570570444177445e-04
4.602119197794704038e-05
-8.621974965607815937e-06
-9.922120113699740539e-06
9.554894853992645508e-05
1.443166824679657854e-04
4.013062913721734281e-05
1.784382293841622536e-05
-2.513431789503749674e-05
-1.232369515534960565e-04
1.009752846096116636e-04
1.740423863544563333e-04
9.379192823375579315e-06
2.340497896588822097e-05
1.634798317055110055e-05
-7.356783013596911233e-07
4.659333793510938584e-05
-3.097732878481507956e-05
2.341217200473474068e-04
5.517513197226664429e-05
8.486337580238488814e-06
2.110295449026924815e-05
1.961142863828422856e-05
-2.472525780576571988e-05
-6.722300809536894235e-05
-1.099710270953271158e-04
1.608795322763252318e-04
-1.567592358662975164e-04
1.592010381059234553e-04
-2.893646935002615876e-05
8.898945931675452347e-05
-3.389555489054260997e-04
-3.137501567722856961e-06
-4.649911179514044967e-05
-1.614421425304617206e-04
-1.684782455579808387e-05
-6.391848204635517782e-05
-1.536823184774430227e-04
4.570513216751846295e-05
3.883377184547954450e-05
-3.915671341002500695e-05
1.938285652517673506e-04
-1.218523200391210368e-05
-2.276560312975486899e-05
6.600494075517336081e-05
3.815839576385404426e-05
1.469217190443353020e-04
3.333622141233241173e-05
-5.902736931539285197e-05
1.189895858911390800e-04
-7.443858921331532633e-05
-9.080475274049777177e-06
4.662611904597884844e-05
1.417915520987670383e-04
7.566739437135614767e-05
-1.568103619511565039e-04
1.933825246286745547e-05
-2.864371682641680700e-04
6.342235664631812688e-05
1.512932222932998560e-05
7.235166981048283424e-05
8.917502207126107772e-05
5.174176187362743704e-05
-2.666763813678174047e-04
1.305155776872736072e-04
1.354658870127343454e-04
5.051984288578654630e-05
1.232527508977438238e-04
-7.843668891353532797e-06
5.058746753057536609e-05
1.159685606525508658e-05
-4.182767085865004203e-05
-1.237436723279655422e-05
-5.426466401173739202e-06
-5.082103062736005036e-05
8.386868984962603571e-05
-6.522441498446734480e-06
4.274621267408523012e-06
2.368427105244176833e-05
1.191166372481628914e-04
-8.994755003526398306e-05
-1.131017372464344472e-04
-6.646919432107255569e-05
-5.395803620731805543e-05
7.360752316474110401e-05
-4.376746031438798223e-05
-3.365513267863276498e-05
1.385154561994706942e-04
7.848463700190549063e-05
-9.222406083699145375e-05
6.351274880394050916e-05
2.012492557728326795e-04
-3.188073371737579864e-06
-5.238293449360661622e-05
-5.804930345487011126e-05
-1.138227068802388954e-04
-1.225407721016102968e-04
-6.786248513956711812e-05
2.290679500263287854e-05
6.564013221133408620e-05
-1.415228328877146256e-04
-6.535843799478618001e-06
-8.733123802861897215e-05
-2.043710868005000342e-05
6.946390480469249605e-05
7.293859798719437408e-05
-3.528839400104274776e-04
2.098633261830503164e-04
-2.666350578943609608e-05
-2.476150427461753806e-04
9.408596349848666069e-05
-1.846652986754102586e-04
-1.039305458888977406e-04
-1.019332044871874043e-05
7.854490593728102920e-05
-5.096175225568665216e-05
4.170811751305024938e-06
-6.711851336607877654e-05
-1.572992312167795190e-06
1.365356096123214176e-04
-1.975862313275163212e-05
-7.177301881506347218e-05
7.813356436522322405e-06
-1.417293155098609111e-04
-9.435023005343478762e-05
3.186249106269953767e-05
-1.428239204121023670e-04
7.298304314409902375e-06
6.118344924348736774e-05
-8.785801019117154024e-05
3.100435229514783038e-05
-1.901494662184208826e-04
1.262985829625269413e-04
5.365061809822219146e-05
7.550414234328735861e-05
-8.670134295275821502e-05
4.539938397405555087e-05
1.764744125554450587e-05
-4.363239926699611299e-06
-1.686642872033879792e-06
-4.709873649330466539e-05
-6.899723004544780968e-05
-1.293006916369020189e-04
9.251185596874264517e-05
-1.107835516166874536e-04
4.158554651845519526e-05
-3.489558670418298214e-05
8.852044622534043677e-05
-1.888016244390438588e-05
7.005086285698567230e-05
-1.845963204951947881e-04
-2.871817712690317344e-05
1.475884897419596975e-04
-1.927031202755716082e-04
1.576334399613200188e-06
-2.285628639285538363e-05
1.494616479067081675e-04
5.114977993534338293e-06
2.611225010623427313e-05
-7.561234073559480676e-07
-6.748734699284022229e-05
7.723090599996754429e-05
1.277709019493861143e-05
-2.268126782904894250e-05
1.554309282992694249e-04
-4.485875957511344255e-05
-5.595461748243778737e-05
9.081718246808195263e-05
-6.852363649793256082e-05
-1.143497279806791282e-04
-4.577948804955082250e-05
-4.138581048479032890e-05
-4.694958045519542506e-05
-9.283797850319530545e-05
-3.252745472852314868e-05
-1.017720829720398704e-04
-7.339991086073933870e-05
8.024977127651588531e-07
6.807374282958092437e-06
-7.412781924106946361e-05
-2.759990989147315536e-05
8.668466353003730668e-06
2.035459276310288114e-04
1.010044604989939555e-04
-1.295927745466130606e-04
-4.126621543025475871e-05
-8.507500879248783678e-05
1.163767194134768008e-04
6.430503583232061941e-05
1.205970196073393770e-04
-1.281926045301398772e-04
6.115690067872216488e-05
-4.186510285339282181e-05
3.180614518818715647e-05
-8.216850427383707352e-05
-5.819225301049591045e-05
-6.131472563169239060e-05
6.553367851942543034e-05
6.278225029440715832e-05
-2.711332839906480425e-05
1.560247679415548519e-04
6.420904302422011326e-05
1.286387887502697528e-04
-7.614660513968794049e-04
-1.216558610687948853e-06
-4.766284218950371532e-05
-1.943764746734636317e-05
1.861349631922790181e-04
-1.165383534861718127e-04
8.338813627029327590e-05
2.704484508366823613e-05
-8.211059561329976794e-05
2.523081742801893713e-05
-7.981764353978131770e-06
3.509125858064811136e-05
1.154606752740075374e-04
8.805398583418713005e-06
1.047450294860633585e-04
-4.221627557832104442e-05
2.097300631532091834e-04
-4.656916263370283819e-05
-5.700422585650119728e-05
1.323994861557764742e-04
-8.717057646216709815e-05
7.355876512585168988e-05
-7.680246067153673900e-05
-1.252904149290347225e-04
-1.192061530036001292e-04
-2.442636408458147171e-04
-4.832013660945799176e-06
3.337432923533170171e-05
-3.240097665616395711e-05
2.224083189112941036e-04
-3.672316998075143948e-05
5.394495243539460102e-05
-5.190928840961897539e-05
-8.318344249735122641e-05
-3.665811529028749647e-05
-1.255889786835929829e-05
-1.348704794641560420e-05
7.510297252108803431e-05
3.169664111445571364e-06
-4.395891460829168665e-06
-1.164270355989206502e-04
9.250731270012725333e-05
-1.388475157149812386e-04
-7.954406458023037378e-05
-2.523843644127455387e-05
-2.442415945735101519e-05
-2.615282103475305387e-04
-1.038077588640799368e-04
-2.346657696672028591e-05
-6.533441784915932245e-06
1.538192772468638121e-04
-5.718444574824593134e-05
-7.246381370044940092e-05
-6.114709268701637619e-05
-1.879906235144342645e-05
-6.001971650050098183e-05
2.315817184892332011e-05
-2.222878516603543422e-05
5.199538040843931314e-05
-1.217502440266598460e-04
3.310901547811681913e-05
-2.080520124910434436e-05
5.582082412413704055e-05
-3.623961149888655069e-05
-5.292565878171758508e-05
1.276594765189269297e-04
-8.732166151122999924e-06
-1.162608047631453258e-04
-5.798523577042073230e-05
6.596372631976436113e-05
-7.738256377769680769e-05
6.950583781166956132e-05
-6.655254616172330540e-05
-6.090152001771541047e-05
-1.869997337586603209e-05
-3.427702671163552930e-04
-7.656522228853660005e-05
-1.018910274225571762e-04
5.423320733325709701e-05
9.803272025598685715e-06
-8.787037136780820649e-05
5.198587527619803490e-06
-1.510944675239256070e-05
-2.498946466853793150e-05
-9.764310718424514923e-05
-7.499008717718941611e-05
1.867810022526820220e-04
1.332259014938632280e-04
9.650004132149051471e-05
2.057096029442636613e-05
-8.808042962526855830e-05
1.299395637226677250e-04
8.138969495132167113e-05
-9.626134407513548138e-05
4.335066459613316856e-05
-7.833523621259005725e-05
1.475955369167793597e-04
7.588825929720790749e-05
3.580348804904167283e-06
-1.313052740338283887e-05
-1.258580190325797921e-06
-1.178149659744163487e-04
1.057821849380825597e-04
6.438144372686604750e-05
-7.698125170728779853e-05
4.066828343931594718e-05
3.734965231136732044e-05
5.622990975133487493e-06
-1.034229630249749099e-04
4.569241854891400843e-05
4.999408162547699664e-05
2.083452881203782755e-04
-1.161702027369487642e-04
-7.060241759010896213e-05
-7.153903520947217252e-05
-8.722191132011316065e-05
1.132348782991872383e-04
-2.359056883983281472e-05
-1.009312411800266605e-04
3.841334139754136717e-05
7.230889668921108230e-05
3.945374747732478873e-06
-1.004711847876021383e-04
-6.203592990214450164e-05
-1.164331381680868771e-04
-3.994233713772534134e-05
-1.585951673596303676e-04
3.725518744507933015e-05
-1.287537174182056855e-04
-5.144983001440969604e-05
-7.871351603550275739e-05
1.026982707737872980e-06
3.619837077016096696e-05
-1.281334607475168483e-05
6.592042134063533384e-05
2.807469605055441450e-04
8.905672085776964418e-05
1.298001561027383041e-04
3.052651548057060132e-05
1.701796393363894647e-05
1.986460081640888391e-04
-1.985419405576598550e-04
-1.103800262069416836e-04
-1.995283206703052554e-04
-3.301900823539662111e-05
1.653940227172709040e-06
1.111436398993678410e-05
-1.475757230141103815e-06
6.525149145972266554e-05
-6.903877789411351604e-05
-1.102889887667235253e-04
7.713527901272366387e-05
7.070065356618574675e-05
1.894058858939046412e-04
-1.571752344744517416e-05
2.145295181747099804e-05
5.507489316394035823e-05
-6.399402262676459521e-05
1.208905115862269567e-04
-6.881001607667232864e-05
3.392119766301055514e-05
-1.081842148301756415e-04
-2.913141028683642272e-06
4.404269296930182363e-05
-1.764228161658522339e-05
-2.661644460350973674e-05
-1.284389653818295495e-04
-1.187954050598320812e-05
1.412786821764412291e-04
-5.641370211701652129e-05
-6.844901268543269568e-05
-1.032071210375127792e-04
5.620482563181277433e-05
-7.941244005750255441e-05
-4.184526955257962159e-06
-1.150521376300598644e-05
-4.079516856682113070e-05
-1.497452059107919271e-04
2.669566868330278470e-05
6.879696118430444086e-05
-7.638258355260219446e-04
1.182523715942220054e-04
-3.440163856610776522e-05
-9.805817832173898243e-05
2.777567254607732906e-05
1.084035633671896352e-04
1.182012117231947916e-04
-2.249594307733213637e-05
2.711294541814375956e-05
-2.353891460210876695e-05
-8.036174001747242569e-06
-1.219430926648306609e-05
7.159493568307169237e-05
1.929864412643852729e-04
-9.794035149951698350e-06
-2.897336229868404317e-05
-4.906797008043700973e-05
1.948694619282621075e-05
-2.302763723807457752e-04
1.174173001674033750e-04
4.843479894695684673e-07
1.513322657362224221e-04
-1.370600983392380849e-04
-8.204207736633881099e-05
1.227336371250905113e-04
5.273438817687120788e-05
-9.072908636598003287e-05
7.604262181178436924e-05
9.757097677947262947e-05
-5.967725404713434048e-05
4.386704369255768138e-05
-3.003483144796928884e-05
9.181818652477227911e-05
-3.307749186427004577e-05
-1.028271809994060927e-04
-8.672470589569595937e-05
-4.201038701615619929e-06
1.388726585311475894e-04
-5.389818302499540549e-05
-7.905365214900163392e-05
-2.664828430872371906e-04
-9.736755923455719974e-05
1.266541415590417754e-04
-6.626663372543945376e-05
-1.652752885896655033e-04
-1.541042935993107302e-04
3.363193288626106222e-05
-8.052192715325042481e-05
9.253397731785486223e-05
-6.794699221520156458e-05
2.096376887447081765e-05
-4.993246870473111654e-05
7.298887284882486087e-05
2.388657986194883003e-05
-4.400120406203982275e-05
-8.039641580850013999e-07
3.517497917800638153e-06
6.925022854452213652e-05
5.851473276706697723e-05
1.278478802061636230e-04
-1.045105129737829552e-05
-1.737446460146001672e-04
-2.493153383282177102e-05
5.460130612534299185e-05
2.204253551833534433e-05
1.798012616764511529e-05
4.351866071661427251e-05
-9.600746699215865175e-05
-7.338301261227535841e-05
3.369492768386049531e-05
3.375841046946426974e-05
1.874190347356466532e-04
-5.048144485981712190e-05
4.510430666355479346e-05
1.388688845739616316e-04
-1.595135578871353216e-04
-3.101147757021872767e-05
-1.060286909242904322e-04
-1.321732339635916423e-06
7.372437394833793991e-05
-2.850444659027421982e-04
-1.084825403833926784e-04
-7.779304693095106740e-06
-1.382308826538346277e-05
3.655046166675521350e-05
-1.607472850466152561e-04
-1.851302687244830118e-05
1.301810680970790749e-04
6.750393494691853060e-05
-6.498130420595532759e-05
3.795561884544884201e-05
7.224276581588038310e-06
-2.002067966195507817e-05
-8.296311373288920723e-05
-1.883061339774578266e-04
1.199770462072650854e-04
-1.097208783355312734e-04
-4.322977109475740949e-07
-7.028606527370467893e-05
-1.553913507405803613e-05
-7.243267236291272854e-05
7.088596163726932084e-06
-5.639963518284267697e-05
2.312272157001184388e-05
-3.073530041699798281e-05
-2.760163924794129575e-05
-7.575237508387396469e-06
1.965425880517826594e-04
1.452218265256736450e-05
8.948960617390035090e-05
1.036198059165074778e-04
-1.346172894916924066e-04
-1.774536210262817268e-05
-6.934328096337943380e-06
9.131356156749599728e-06
-2.907747563903336388e-05
-1.080193299387111690e-04
-7.360121040201443045e-05
-6.794643952694637648e-06
-8.839911914665682000e-05
8.793455091377921115e-05
-9.659868382658000937e-05
-1.557687012460856981e-04
1.527301780293574199e-05
4.181179356119972009e-05
-1.254288408554343997e-04
1.239090747345521876e-04
5.929336017878052124e-05
1.484346801610473795e-04
-4.782803252666077779e-05
7.343015416164599355e-05
9.463108727084701172e-05
-1.934677956928814390e-04
-3.719262715496307256e-05
-1.680042187879177343e-05
-5.680568541669166615e-06
-1.008943161713776260e-04
1.389781594712445828e-04
1.215674091406365552e-04
-2.730083156616651136e-05
5.606711492074223092e-05
-8.300012662069301405e-05
-1.118376315705404609e-04
9.067517425020471436e-05
1.107660182566662420e-04
1.237375961531944754e-04
-4.449696415350706873e-05
-3.943178646675139256e-05
-8.118436577539602926e-05
-3.855002861294855483e-04
-9.393115887990689014e-05
5.948211360083807757e-05
5.148103426817557464e-05
6.786272734163448011e-05
-1.369927232911537012e-04
-9.676401057289364552e-05
8.124287138451119765e-05
-6.338217010350716765e-06
2.483378056654180106e-04
-1.232010056196404189e-05
-7.291488853011508483e-05
1.687763395336081907e-04
-8.179003946588928454e-05
3.518139338553713156e-05
-2.919339420350696460e-05
-1.185597849550257304e-04
3.403379083943712708e-05
1.252407304664479495e-04
-1.259672343676236921e-04
2.490759184373414074e-05
-1.465552632898304848e-04
-1.426078456208211097e-05
1.009651525127039969e-04
-3.006145264275959038e-05
1.142062266444064189e-04
5.445487606754574828e-05
-5.457859502571247711e-05
-1.599150551473956048e-04
3.423700434519701748e-05
-7.604210282880370089e-05
1.107154050084834288e-04
1.315539396498208895e-05
-4.748855005490361299e-05
1.626605589357148888e-05
7.107416801668168074e-05
5.968020295048885728e-05
-3.108326897329108493e-04
-1.177740948432544296e-05
-3.770372452695010138e-05
1.746204443661623817e-05
-6.961651046811471056e-05
9.677749637226891564e-05
1.167519893679944663e-04
-7.521061706041466666e-05
1.270213214448357851e-04
6.245311919740936019e-06
-1.612583593049946723e-04
3.356413121735838501e-06
1.455501674856895297e-04
1.910290740509670761e-05
-7.485495589503670755e-05
6.526575217784327798e-05
8.121788719385408621e-05
-1.132090375173200406e-04
-1.159299693303878860e-05
-8.832566522945425395e-06
1.330559125304243040e-04
-3.280280816400111551e-05
-7.223549902058824075e-05
