-7.133921820062400247e-04
-7.043030458016524917e-04
-1.006121249745880021e-03
-9.910750005637670307e-04
-9.049503958074498183e-04
-6.229249795382285930e-04
-7.885512302177837126e-04
-5.092909548212134390e-04
-5.898854450882471366e-04
-5.418375202417912524e-04
-5.416293783221141564e-04
-5.479097603528081291e-04
-5.711125346929194196e-04
-4.059677172053211989e-04
-3.664872024750668537e-04
-4.402083274011536979e-04
-3.137891401980822835e-04
-3.552536155499295858e-04
-1.603358382342094223e-04
-4.281146657387691805e-04
-2.299392843706675525e-04
-3.795946554136054121e-04
-2.872771817817055813e-04
-2.607980290662450357e-04
-2.918741193333022638e-04
-4.449586386093754139e-04
-2.016888524004380461e-04
-1.414412810648519648e-04
-1.957083088511832390e-04
-2.657971158476295746e-04
-1.350815524294108401e-04
-1.667398642115457813e-05
-8.953874425988808922e-07
-1.567612419120953079e-04
-1.214696186544919051e-04
-2.229625554442781073e-04
-1.495187168602519459e-04
-1.299110516714812723e-05
-2.570631478887253833e-04
8.704715353623943572e-05
-1.384767027544290380e-04
-8.484459429699466189e-05
-3.059238417869378354e-04
-4.941669065039143980e-05
-1.757230700740024525e-04
-5.695020966656452792e-05
-1.723016230786636991e-04
-1.479009136173901461e-05
-6.736510938625130769e-05
2.310558207496364767e-06
-8.046057074165872622e-06
1.213029849424226774e-04
-2.590787770341269718e-04
6.266543509680702335e-05
3.285010879657332536e-05
-2.569265405843028054e-05
-1.073073363551542810e-04
-9.810858589001739951e-05
-3.988632881243971294e-06
-5.078645731348661060e-05
-1.343929833131651558e-04
3.191460221652400991e-05
-2.022566951174688981e-04
-1.037908258942157563e-05
-5.454591640561745391e-05
-5.643470313658055786e-05
2.965375071418539939e-04
7.941871520980041854e-05
-1.067327012559006455e-04
1.498798158658768440e-04
-2.777321465916783474e-05
1.554744651063538308e-04
8.231573844637101421e-05
-1.895289056850891867e-04
-9.071940414463378457e-05
-1.667114372471819260e-04
-2.603040853462017788e-04
-6.956535204786224564e-05
-8.562802144957571825e-05
2.391399486498032721e-05
-1.224066771446284077e-04
4.484971954898935861e-05
1.366495478980988242e-04
3.559637563330248080e-05
-2.013891487122988289e-04
-1.544979926567118151e-04
-7.174526425764322099e-04
-2.322092954571503215e-04
4.491071446400924462e-05
-8.260215906066858699e-04
-6.887025606789235572e-04
-7.249531099037093661e-04
-7.718343742524461960e-04
-6.293680630714356024e-04
-5.923383755557743921e-04
-5.838890117689435463e-04
-5.439981032001643072e-04
-6.656095106613666573e-04
-4.115608229864032522e-04
-4.522981812292768233e-04
-5.004916619130605386e-04
-3.232189421690492208e-04
-3.500249674570031218e-04
-3.799457409889700206e-04
-3.358219533805853431e-04
-3.479911539677360988e-04
-3.999500281255235481e-04
-3.549748708362454337e-04
-2.558243021838100748e-04
-3.543208331732093891e-04
-1.367422219701345198e-04
-2.874610306164544445e-04
-2.815142541700423420e-04
-3.046769533497818033e-04
-2.985181161169603433e-04
-1.586157371483412810e-04
-3.849843101707441090e-05
-9.192779533880696911e-05
-3.447578770941775125e-04
-1.921363342698229808e-04
-3.434402783101056251e-04
-2.406749574617267850e-04
-1.960363620075467874e-04
-2.557420892618120179e-04
-1.384417411015421387e-04
-1.999240250772386853e-04
-1.748594926967827871e-04
-2.062799370576123533e-04
-2.398350891089346510e-04
-1.314028786333095551e-04
-1.218069378957696531e-04
-6.004992689053210091e-05
-9.098986291641229492e-05
-1.419938498263039061e-05
-1.227145579755014736e-04
-1.973650605811747255e-04
7.156760380315701044e-05
-8.537957198789426099e-05
4.724283236188341745e-05
-3.610847675219894465e-05
1.112500081214045435e-04
-1.004969311511222125e-04
-1.633353199852070534e-04
5.338360066080261816e-05
-2.043989157945689530e-05
-6.647933651709141264e-05
1.674757577113416732e-05
-8.443177355092021006e-05
-2.121025075136473640e-06
-6.300627083439627762e-05
-1.633699736863988838e-04
-2.268246162156150290e-04
2.466972280324315194e-04
-5.215025015827542894e-05
-9.098121170090368956e-05
-2.273215310432212251e-04
9.177814180922664830e-05
-1.123955747436548467e-04
-1.481706607473937695e-04
1.151275100101271047e-04
-5.647430618727344718e-05
-2.078806255019177669e-05
2.672541594946760041e-05
8.564377476043722208e-05
-1.163500573067879321e-04
-1.981537821291201346e-04
-2.895337019352477612e-05
-3.917943535551081602e-05
1.173850437335649890e-04
1.236501407689669281e-04
7.640328613283685929e-05
1.267021909917036477e-04
-9.220140527453663415e-05
3.837836773178786851e-06
1.414779403182103820e-04
5.046285957626987572e-05
-1.127711131587983529e-04
-2.387674550244305147e-04
-2.163329219142192154e-04
4.947816517630334953e-05
-9.693830249051956345e-06
6.404445361927869270e-06
2.548139877881368232e-04
-5.291917732032153169e-05
4.495085529247916254e-05
-7.550564614530432461e-05
4.552814972679163584e-05
-7.388337539629377291e-05
-5.613571249077070175e-07
-1.527216974402793135e-05
-9.224910100709883423e-05
-8.770052281319955635e-05
-9.083167889573587762e-05
2.529177361265805336e-05
-7.991811733697797319e-05
5.610109336356694747e-06
1.807722548738292052e-04
-6.309885099929034822e-05
-7.481498341593215377e-06
1.534127249071667789e-05
2.219256840105172403e-04
-2.043374971615062911e-04
4.383301912488047697e-05
-1.007561629377138945e-04
-7.717043102529479287e-06
-5.923370422381365628e-05
-1.086067096761292468e-04
1.111356562571202055e-04
-2.030429118065502515e-04
-5.692886515802582153e-05
-1.514502982902739324e-04
-7.283347967466536482e-04
-7.029598602856185362e-06
9.308787100839026210e-05
-1.551441753906833854e-04
1.599962848365189046e-04
4.586713630278635212e-05
-2.355395898428974753e-04
2.078328810710972431e-07
-5.937339321643826727e-05
-1.238013076158978687e-05
1.322460017934020500e-04
-7.157026360939006148e-05
-1.838362759640835005e-04
-5.759907619924538010e-04
6.541431458154883338e-05
-7.186703474800442250e-04
-1.205622139865234084e-04
-6.216051468330795584e-04
-8.383536929920359492e-04
-6.206183617215015741e-04
-7.705892591284225135e-04
-2.404388402890101644e-05
-2.215169105741560866e-04
-5.809260764970660068e-04
6.533938357810112837e-06
-4.011589699955852477e-04
-4.315164147872419410e-04
-6.303558593366707019e-04
-3.916114529108381077e-04
-4.046959452476316869e-04
-3.355391237070986968e-04
-3.748414336340839879e-04
-2.049917392532515123e-04
-3.389088560825686733e-04
-4.494181514956369842e-04
-2.871200838655038178e-04
-3.337263354792614593e-04
-3.820362720738841329e-04
-2.500239882972644890e-04
-1.270806866802849633e-04
-4.305464478475307826e-04
-2.874055111982293806e-04
-1.506579128585252116e-04
-3.608347369113760312e-04
-2.213411499571855652e-04
-1.642049297230662906e-04
-2.045644323127403632e-04
-1.386095124940465095e-04
-1.268143561626592568e-04
-7.439901566652106272e-05
-2.241285449590045239e-04
-2.060954488896245252e-04
-1.486296598924147488e-04
-1.744157428464140772e-04
-1.496012047570034731e-04
-1.136880775194891322e-04
-1.489952214665615803e-04
-3.781710706700311961e-04
-6.080974665162923179e-06
-4.655539417997841623e-05
-9.610312431364832178e-05
-1.448930229103373676e-05
1.151915039491824048e-05
-1.272642942117953140e-04
2.906074671501790587e-05
-2.344881548572256571e-05
-6.862450333264066165e-05
-7.020492009327555685e-05
-4.635184782652655152e-05
-1.206987058049709485e-04
-9.238112118504844159e-05
-4.316041917044673875e-05
1.424289505158897545e-05
-8.429135185802505306e-05
2.420367595562618112e-05
-7.586196729945891295e-05
-1.224669782391449378e-04
-6.308104590694037337e-05
2.822841922819639612e-05
9.742913104249894651e-05
-5.297258914183453359e-05
-9.055157301351906765e-06
-4.302800283004881943e-05
-4.543054918778708805e-05
-1.269173876418230103e-04
-6.915537983176011771e-05
-7.250993555785937954e-05
1.050768346043828865e-04
6.833007431567431617e-06
-5.970018352658311900e-05
-1.278507825787733403e-04
3.776215252237078638e-05
-1.948369389958451252e-04
5.295660765755896783e-05
-1.876608862638379010e-04
3.323740422505278372e-05
-6.616399633381736620e-05
-1.074524921241426630e-05
-1.557609109222618147e-04
-1.177940014667244986e-05
2.987335979736475684e-05
3.799758484478739492e-05
2.041594253400378029e-05
-1.614318648356425192e-04
-2.969354026743439579e-05
1.626040539755767441e-06
1.890095311533128398e-04
-4.113218291960068210e-05
-2.172645448780134215e-04
-3.647688910430113628e-05
2.230723242442863631e-04
-3.656337870590328163e-05
1.624831470825335942e-04
-2.595827430937104347e-04
-4.906855772443985842e-05
2.737750356462420552e-05
1.751628936218348697e-04
-1.630332497733344844e-04
-6.085937197669781751e-05
-4.593839136587429172e-05
-1.673132368843827238e-05
7.794145981166677409e-05
1.112856834555805104e-05
6.097402542721671779e-05
4.403824538094788228e-07
5.073869405174116971e-05
-8.467265584473562129e-05
1.082469036650254114e-05
1.261981622370281740e-04
-1.132320369414777659e-04
-2.899958508657338586e-05
1.062606329737705412e-04
-1.040986047010392606e-04
3.041784957986554952e-04
-3.439356124143409929e-05
5.677296237887897854e-05
1.397306859266614195e-05
7.703451551901318748e-05
6.685278167211293162e-05
-2.547604318896736896e-04
-1.203895764137931498e-04
4.462564350263588939e-05
1.019712824632253390e-04
4.530140607088397529e-05
2.117399021884227509e-04
4.888619425923032357e-05
-4.899275801262462766e-05
-5.880564772128497712e-05
-2.128264449713079538e-04
-3.527138222848805898e-05
-7.353009890643527006e-05
5.066671869788707741e-05
-5.450221008360500003e-05
-1.478898665829639770e-04
8.324304575032369792e-05
-1.363007789492454169e-04
1.673351890113511088e-05
1.182789437730167090e-04
-7.248618267243808592e-05
-1.824684964644032948e-05
4.992840873367331136e-05
1.169886410732481419e-04
-1.689898055358468522e-04
-1.851486936340767406e-04
1.885641896623958206e-04
-9.883171905192260776e-05
4.691361804283593351e-05
1.358247644115912552e-04
-1.159350046690759241e-04
-9.521532611976198915e-05
1.215378497584972361e-04
-2.789773832236964310e-05
9.021075615783473022e-05
3.612455470174914855e-05
-5.970513176703601674e-06
1.151920696719874220e-04
3.833200755185922334e-06
-1.608347007942473924e-04
-5.322263930070529636e-05
1.496019036216441917e-04
-2.153575685639375265e-04
-7.170793410160656699e-05
1.382473540150330879e-04
-5.309541882962809644e-05
-4.632001097956454455e-05
-8.497577964347113964e-05
1.032991861654629432e-04
-7.551452527351149079e-05
-1.014240798989592715e-04
8.414291967119569282e-05
1.657545272920745859e-05
8.994898965890565790e-06
-1.186339002071744021e-04
1.983228463360478438e-05
-7.654403780793850635e-05
-1.429429885258861521e-05
7.363301482618763198e-05
2.914180672715235777e-04
-9.243552523266222181e-06
1.889285979906675267e-04
1.710109068283333219e-04
-8.755154542331006185e-05
-2.079331887703024658e-04
-7.275917613342541921e-04
5.811486488984873112e-05
-1.720997110521388200e-04
1.096318570022718225e-04
-2.021237885347388231e-04
1.750274998527372888e-04
-5.345505910844342294e-05
-9.458870526980274658e-05
1.738726040568340579e-04
6.714240947339024184e-05
-5.975683058887884557e-05
-1.268533030364591937e-04
-1.096601893962887358e-04
-4.024099284189232588e-05
1.253721269988565512e-06
1.101554732188947253e-04
2.223632008079335734e-05
-1.226070876914406435e-04
6.999955897529133839e-05
-1.512990350369605724e-05
-6.168397877915627453e-05
-9.880718255304772905e-05
2.172895691175649349e-06
3.078863504951180765e-05
1.106809726521102184e-05
6.390606161370855490e-05
-1.284167827342312294e-04
-7.818706404043648936e-04
2.168975999287936078e-05
-7.033153795561713616e-04
-3.569385261950581918e-05
-2.075267969599355771e-04
-3.761772656042173309e-05
-1.133128435158607726e-04
2.247900987131243251e-05
-1.823052360392586583e-05
1.309496434180072103e-04
-1.632021082187281821e-04
2.780765375425073310e-06
-1.536529949930715624e-05
-2.428592993366672156e-05
-6.457994230841443938e-04
-1.617617018113505284e-04
-7.761736495734179600e-04
-5.439700098786824238e-05
-8.143236946340931819e-05
-6.719490132519513213e-04
-5.980136071267554403e-04
-7.782072123134266576e-04
-4.996962595905309230e-04
-7.842442778309135706e-04
-4.150912431205776255e-04
-8.249154165149478156e-04
-3.461879681634495547e-04
-4.843447311263536286e-04
-2.540827005889146110e-04
-6.551240297479077887e-04
-3.611735234167577505e-04
-2.510348862686221532e-04
-3.623331062095367185e-04
-3.677922403916578380e-04
-2.259631502548421018e-04
-3.706172912796349122e-04
-4.198007074063439103e-04
-4.745754430946178839e-04
-2.755185644101213285e-04
-4.799069933684665815e-04
-2.543316964768677709e-04
-1.721886351289139922e-04
-2.457883442908607259e-04
-1.634668174111792945e-04
-2.264577341567035600e-04
2.631433243077551277e-05
-1.989833665638761654e-04
-1.231014859553733801e-04
-1.674048983244486402e-04
-2.465735964463464536e-04
-1.770342535101258278e-04
-1.345241600041307824e-05
-2.182091220075787878e-04
-1.144407779394822372e-04
7.387269490344710702e-06
-3.136894263410869711e-05
-2.025105317616737407e-04
-1.404688263461359519e-04
9.444807000543975993e-05
-3.129160746629222178e-04
3.826997824824028907e-06
-8.339293043248883054e-05
-4.768240346385643901e-06
6.444915478751486976e-05
1.349911463730508656e-05
-8.819860402439617226e-05
-8.959281725445313613e-05
-9.107519678394816352e-05
-8.844590560024728244e-05
-1.463063499564355935e-04
9.511215949638177991e-05
9.035655152156268617e-05
-8.235073777476304454e-05
6.535923355882350839e-05
3.066597965099317880e-05
7.075613350984366807e-05
-3.104457387739126641e-04
-2.409145862288103457e-04
-2.180855043769137393e-04
-1.597574132599752401e-04
1.020089728539609944e-04
-2.825555421545393421e-04
-5.078813135968433393e-06
4.206464473512356152e-05
-6.559199019876154365e-05
-1.004783180406529998e-04
-2.792032606504562457e-04
-6.040615271554636924e-05
1.744318361841658109e-04
-5.201149624428018106e-06
8.307562295156160524e-05
-5.937678025689291839e-05
3.205176701585603669e-05
1.356344091373477086e-04
7.445325805506283290e-05
6.378709910200515746e-05
5.638486120481265082e-05
3.916888310208673218e-05
-2.254408935543008129e-05
-3.800135105905529060e-05
1.210432697980970982e-04
-1.554169411989068071e-04
-1.461433779016495075e-04
-5.988767988227677028e-05
-2.067744329913959482e-04
1.534338650150582459e-04
1.618413067905052970e-04
-1.887744178768742224e-04
2.030183690598406172e-04
-2.152598462976731150e-04
1.815281929362218432e-05
1.162248132462392485e-04
-2.906401685923873133e-05
8.811965908701281525e-06
-6.004049063825187015e-05
-2.433544980533866608e-04
-3.844316700806130866e-05
6.310150278809012437e-05
-1.920478951110716212e-04
-8.642152024334221220e-05
3.404838357134642779e-05
-7.910733684675600049e-05
8.777420911342402230e-05
2.331790211077210378e-04
-5.152733203911766675e-05
1.479635509461614475e-04
1.092127551457255295e-04
-2.797567770716615030e-04
1.154333900258333573e-04
-8.650347848776942085e-05
-8.181775012057495482e-05
-5.958274736578847777e-05
1.754342291376077064e-04
7.622369744445931428e-05
-1.703079124470071866e-04
-7.993720048722915787e-05
-1.015642998760706494e-04
7.504090618510339560e-05
-6.305625586999030307e-05
-4.290055236836462282e-05
5.905417735515467885e-05
-8.700020115647683853e-05
-6.757593161070810821e-05
1.118565835768982526e-04
-1.347021678380876109e-04
7.894822191890026562e-05
-6.909800685508215689e-05
-1.361719364391584023e-04
-6.233933593022981457e-05
2.650468661556366648e-05
3.970833348757668525e-05
7.782801099349359196e-05
-2.111969007745232243e-04
-1.321414569276228855e-05
3.417065872137138767e-05
4.741070052503365011e-06
1.367341037581784363e-04
-1.851107677422338156e-05
-1.542847980264368723e-04
7.386657215135899253e-05
-4.267966007133946744e-05
5.706051020557993203e-05
1.359180423011755920e-04
-1.453760457244470815e-04
2.151824313968284032e-04
1.269404771033099311e-04
1.740103180173888672e-04
3.953184086059206360e-05
-1.509610604469432884e-04
-8.134340845361729682e-06
-3.936838834262736949e-05
7.011714127123396174e-05
6.099079130300243611e-05
4.318275887689361091e-05
6.952344300669126055e-06
1.628801878844471623e-04
1.164168574378341315e-04
2.213380144997668936e-05
-9.230542376689039824e-05
-2.475848680486469802e-04
-3.721609335453598591e-06
-4.123420940556110002e-05
-1.298023436451866323e-05
4.111432944268450366e-05
-1.365892053121827310e-04
-4.644502470668990035e-05
1.035582264109488951e-04
3.011975709550753698e-05
1.884033791042403962e-04
1.111791054235317756e-04
-2.464016779641113250e-04
-6.139777698795400630e-05
-3.354151444080006125e-06
-9.126271514907081635e-05
-1.664495561069153642e-04
-9.090532220199800699e-06
1.748254930850544028e-04
-1.291776806493055403e-04
-2.012950551315714439e-04
1.465979060667443846e-04
3.899997488573696058e-05
1.556698312034562328e-05
1.086077190618303141e-04
1.417831334806416951e-05
7.645511322645453774e-05
-1.551356424040382335e-04
-1.246012925046010070e-04
8.016417428475176475e-05
-9.545529326769445783e-05
5.450199213772623490e-05
1.196888856516155727e-04
1.703111613594517635e-04
1.696798150536072946e-05
-7.119020143929981207e-05
1.740866962969831696e-06
-1.662007194074263726e-04
-6.644958429009071394e-04
-1.134418313279604576e-05
-1.765722611729731166e-04
-4.957559523654512439e-05
-7.283891705782452900e-04
7.331080185884942169e-05
-5.906417037886755976e-04
-1.391629399260120700e-04
1.712450568973841476e-04
-1.070454723688342089e-04
1.169709991461547008e-04
-6.181337986372978201e-06
1.793261500899665821e-06
-3.079934300193490717e-05
-5.761392376870820060e-05
-8.867753383767384599e-05
-1.483574240695819974e-04
1.754261867521449548e-05
1.471222338043002122e-04
9.867141051686536516e-05
7.904152598437068681e-05
1.796930235095876708e-04
-5.729210549810421788e-04
-9.019799267787974686e-05
-1.827247365631477281e-05
1.289464519242005715e-04
1.886952498054241778e-05
-5.122914521698434566e-04
-6.562596298209478563e-04
-3.862454350812264439e-05
-2.634518382778368436e-04
4.781719157025493902e-05
1.654536941222085751e-06
8.668172130746764519e-05
-8.483436123972542371e-05
-4.029069245620782215e-06
5.833835192307082013e-05
-7.917645224891812648e-05
-4.075597298711519255e-05
-1.676649670876304758e-04
5.148029711848237322e-05
-2.222765639143397956e-05
5.668658591635391458e-06
1.628586925592056194e-06
7.282323901125744496e-05
3.372564010479929764e-05
-6.185691509755224411e-05
7.168316999856498692e-05
9.712408031602234729e-05
-7.501953564168269833e-04
-1.767213648630809012e-04
2.335344566352184857e-05
-5.653014126278509827e-04
-1.052085186094834144e-04
-3.837992295824939012e-04
-6.961207892251981572e-05
-1.808351269273536228e-04
-1.059259644671349673e-04
-3.314296364355320975e-04
-4.858640278877025863e-04
-4.151983007409649324e-04
-4.160001143470215177e-04
-4.584836212056953172e-04
-3.538713931311730830e-04
-1.459679082747388065e-04
-4.523820332871769222e-04
-3.573937932304122479e-04
-4.964430191042226020e-04
-2.270080984674297724e-04
-1.328109515181981337e-04
-3.466213367722848371e-04
-1.971483816266678926e-04
-3.833949461668158579e-04
-3.850347932494358914e-04
-4.457650282388004974e-04
-1.490194798760754720e-04
-2.302160397639148098e-04
-1.192186602773934390e-04
-1.647542431270933023e-04
-1.080419760173969261e-04
-1.028569809917195306e-04
-3.747727651971526530e-04
-3.524445461913013771e-04
-1.753979510339557038e-04
-2.460227123868464366e-04
-2.712684948316056686e-04
-1.255121111915358917e-04
-1.518204301381093687e-04
-6.649512440404197866e-05
-1.141204021365723310e-04
-1.744425296402685405e-04
-2.344565286258122993e-05
3.246500533848222149e-05
-1.419326406871652903e-04
-2.305159955753283249e-04
1.137651673234543466e-04
-5.411290146523021468e-05
2.223340168790310939e-05
-1.178451513275116728e-04
-1.347597734169200280e-04
-6.257550292916405665e-05
2.600729844640803238e-05
-6.675370796451961209e-05
-8.596709868108240145e-05
1.014388876380857721e-05
-1.433969742304651532e-07
-1.399682389696387810e-04
-1.974706971096205086e-04
-1.369199836156647157e-04
-4.564530257424529575e-06
-5.957408168425408645e-06
-8.428913398070246045e-05
-2.149029237308544994e-04
-1.636157997770613752e-04
1.351934773622950595e-05
1.125343854898493857e-05
-2.515312505662802500e-05
-1.310906021757488167e-05
-5.687586863595308338e-05
-1.391153767183259833e-05
-7.171879685501761944e-05
4.806770579096607558e-05
2.433989620074177127e-04
3.202075311662016860e-05
4.250440143472537097e-05
-8.457682143625880073e-05
1.189705640148279594e-04
-2.362095162367894828e-04
1.369329295532207560e-05
4.212489039351729727e-05
2.681178691559275086e-05
-6.512715395080712804e-05
-9.420972599626851974e-05
3.731055514429343654e-05
9.232614646643249841e-05
1.804529551401834364e-05
-4.896456474839982668e-05
1.519945584032916189e-05
-9.527826003822934410e-05
-7.965396976244190326e-05
9.429497192377001057e-05
1.311348953933029948e-04
1.525906007533366451e-04
-1.743132854886548751e-04
7.884350448780555183e-05
3.742087698214389144e-05
-1.048053502666818667e-04
1.866078262461589861e-05
2.371361918723749161e-05
-1.216723644542251777e-04
1.040217642255206475e-04
-1.223054499845730293e-04
1.746970205187388056e-04
2.128581429819219640e-05
-8.090523072583963706e-05
1.678580160805844598e-04
1.560746301431736676e-04
1.321243141495481287e-04
2.784058699357272026e-04
1.857228574346044187e-04
-8.374724508843198103e-05
1.571775660819860177e-04
2.146748017505917166e-05
-5.925233678989631981e-05
7.189143011602727403e-05
1.212733091819316464e-05
9.151191701112792825e-07
-6.117227303977528137e-05
-9.263866525504553930e-05
-2.597684589740354512e-05
4.564651478507293007e-05
8.104771202177750108e-05
-1.477218112091217816e-05
-1.637928326822987702e-04
-1.135877965984393746e-04
-4.489086944406222606e-06
-2.632492973265261856e-05
-1.698811578135132427e-04
2.372322288135796166e-05
-3.400444490441250706e-05
-2.172585480838778560e-04
1.456753973279557781e-05
1.397920077730094116e-05
1.805358645243741186e-05
-4.378800996427235584e-05
-7.963699093725025977e-05
-1.310292215755785048e-04
3.433697143580640066e-05
4.571164130647526689e-05
9.170725455454284436e-05
-2.479532095028364548e-05
-1.710227091045018999e-04
2.080660525733567904e-05
-1.566636555997863873e-05
2.065571567551123910e-05
8.627809819850205367e-05
1.982222389107905791e-04
7.079889627137270680e-05
-1.232703363997646936e-05
3.191604496564031225e-05
1.459383065008000051e-06
-1.675715568789066883e-04
-5.984492206757476430e-05
-3.539349530653256915e-05
8.480743147936986885e-05
1.097535175670692715e-04
-8.821867988560896771e-05
3.491474236657709731e-06
3.348262406539702444e-05
1.182356216281738037e-05
-2.573684264250827917e-05
4.570798077868388218e-05
8.407014235673503221e-06
-1.325150934581536383e-04
-1.913865344044701731e-05
7.160367650850465050e-05
3.703994175438893180e-05
-7.343213649900723100e-05
1.084117408236127169e-04
-6.558215378522664897e-06
-3.826072595838645943e-05
4.164729679586359805e-05
-6.807829435841720621e-05
2.296510589999194255e-05
1.272058460205681624e-04
-1.021472388682033439e-04
2.095577936688111594e-05
-1.154677791941127670e-04
-1.100229662327676359e-04
4.371965999421543390e-05
-3.422437129029083332e-05
-1.852058325187178631e-04
-2.755666884365659845e-05
-1.132451594905769046e-04
1.051344560423735558e-04
5.879417258873627106e-05
2.022005375313934287e-05
3.106482840727382849e-05
1.810575340268242379e-04
5.979402008770429703e-05
-1.196082588768008662e-04
1.889061192266088546e-05
-2.463324641087161586e-05
-6.886538361698022164e-05
-7.870798213842611888e-05
4.928428030193335459e-05
1.853091895793330574e-05
4.047878129230179760e-05
1.188567275485224740e-04
-3.312150847532752048e-05
-2.104022159387891912e-05
-6.682699035006902874e-06
-6.983331891193586115e-04
-1.713594678517496887e-04
3.773687199056684942e-05
-8.240994607228421592e-04
-6.612004115983030194e-05
-1.032746654876948454e-04
4.073461565996007179e-05
9.165612818602790490e-05
2.119829109206108507e-04
1.104743889888510174e-04
-7.596878789344890933e-04
-1.340149724350743401e-04
-7.703086257277404940e-04
-6.533337260668542099e-05
-2.721051530274796356e-05
1.603562702390922334e-04
-6.493171311889088613e-04
7.563842128975427218e-05
-6.550924241405650314e-04
-6.128093538050665909e-04
-5.707633814800234162e-04
-5.956703811898270660e-04
-1.928211875702230010e-04
-4.390660280357847268e-05
-4.804584476104226988e-04
-1.945229878614165072e-04
-5.612633536706748824e-04
-4.764888685991533327e-04
-5.236537672710398980e-04
-6.601526815498615823e-04
-2.937411838937677589e-04
-1.233212398505523634e-04
-4.293769699552488000e-04
-4.737557929844595840e-04
-3.521266268115088075e-04
-2.475311814862082220e-04
-4.090814569798328763e-04
-1.950654400763770493e-04
-2.447083732970904528e-04
-1.326627529563184139e-04
-1.942135788821447938e-04
-3.759877178791704868e-04
-1.395989523393283832e-04
-2.855587981297821464e-04
-1.640949765111426905e-04
-7.223356707289958106e-05
-2.425021206537845335e-04
-3.275786288589798909e-04
-1.804641786241249844e-04
-8.845715996704621160e-05
-2.113648650728696115e-04
-1.574738750390809229e-04
-1.413734918997363601e-04
-1.081769950526114635e-04
-1.628963788575014081e-04
-1.012718553765543095e-04
-1.465459721055856581e-04
-2.618894935409800699e-04
-1.347451713044251788e-04
-1.940730803763896092e-04
-2.404702631944541120e-04
-9.574784728648538779e-05
-2.341995648668443919e-04
-1.400394942632714570e-04
-9.439049300781788827e-05
-2.136560089302061861e-04
-5.861391990356010771e-05
-7.326516648845564177e-05
3.763663024375943990e-05
-1.352468473782129801e-04
1.414174126345217304e-04
6.011732576341408129e-05
4.367055788115807238e-05
-5.946786118928164185e-05
-1.811547026880314538e-04
-9.719834371811534419e-05
-8.531212464447043039e-05
-5.782899098238431017e-05
9.861261471961716579e-05
4.050199447800490685e-05
-1.245958560014374526e-04
2.440495867410241552e-05
-2.272682735806708738e-04
1.486061706862790957e-04
7.005036204737994537e-05
-1.629772218250477459e-04
8.103294096372157902e-05
-2.909380299178413419e-04
-3.254214447673976181e-06
-9.263542667719941448e-05
-3.487703969013544031e-05
-1.434809738512711106e-04
6.835651802990757914e-05
-1.030058751873530839e-04
-5.810706511788556205e-05
1.485431987892361612e-04
-2.444584838382076407e-04
-3.685545847769917043e-05
4.028940319076576771e-05
-1.079183020276527715e-04
7.295900058484741429e-05
1.757836485585353753e-05
-1.005261717026120414e-04
-1.681567694683459271e-04
4.089359481047599918e-06
1.908403288512997974e-04
6.877241161627573008e-05
-8.961225045623131104e-05
1.999936607644292098e-04
9.671105517270807991e-05
-1.239250358749676459e-04
-1.934972447682804266e-04
4.622192683708918349e-05
-1.335182033019912946e-04
3.238041685638461413e-05
-2.216727383495208714e-06
1.001233137155508007e-04
-6.972888865971026552e-05
-3.622943445599144792e-05
-3.729771990501160609e-05
-4.326781314520893497e-06
-2.227794901315744352e-05
7.256783316377175049e-05
-3.492561492719713195e-06
-5.703340671785857107e-05
1.730773652102268571e-04
-2.600169424021998618e-05
-2.067665559726168949e-04
-8.489842335163826374e-05
-1.898165668394182718e-04
-1.604044276222260721e-04
1.151684321729540728e-04
6.398292129216949129e-05
3.826389468396366344e-06
8.092332489508217584e-05
2.491545268759992775e-05
5.154439208547353783e-05
9.337691645368012409e-05
7.701492246978563518e-05
-1.838571761292671480e-04
-1.478621782163531213e-04
-4.090437559589616144e-05
-1.234615941737473156e-04
3.042486127964022903e-04
5.345057410824961976e-05
-1.568002477155031288e-04
6.341653084045918601e-05
-3.406878246337407542e-05
1.223773777997921397e-04
1.124091831517801604e-04
8.116406082003724991e-05
-8.439252661043748175e-05
9.328926161412398068e-05
-4.188151863504452550e-05
-1.649624144050235858e-04
-8.923367646439539513e-05
-1.200756550929898416e-05
8.210516773885920738e-05
1.706027620331427815e-05
1.957836269190909241e-06
-3.295245445190516319e-05
1.421194655961840699e-04
1.830262953151518956e-04
6.860224247736674923e-05
1.963817071476717271e-05
9.672208992049050746e-06
3.131621249408203929e-05
9.492132737168600164e-05
1.049178202008998928e-05
8.148861468763120199e-05
1.612705800961743426e-05
1.614293965323174683e-04
4.566794467933381764e-05
-8.852334755648554396e-06
-9.333056979444147696e-05
1.842939636113796872e-04
1.011471975315220221e-04
-3.221646053733339819e-05
-9.748300110929097829e-05
5.628940623455446830e-05
-1.766228073141950182e-04
-7.548183812288482628e-06
8.756665720796695670e-05
-1.757334391558894348e-04
-2.196440579707457572e-04
9.829176480671880840e-05
2.783921597694528763e-05
-5.250563579134827959e-05
-9.786958269331716171e-05
-7.899513330701069219e-05
4.686775248258110506e-05
7.876534608899032029e-05
-1.271682414617534776e-05
-7.738029479144015426e-05
1.138387691152233761e-04
1.182243448247021766e-05
4.280113223783981114e-05
-1.788312566916465450e-04
1.590431635672597411e-05
5.035425887711722493e-06
-9.593542939109622899e-05
1.091525504832431442e-05
-3.930662318314837287e-06
2.039209823412299930e-04
1.852851045423596990e-04
1.323484399085048471e-04
-5.117029613936507118e-05
9.160266095472210078e-05
-1.373480457729229515e-05
-2.392545066860016781e-05
1.628208963001621988e-04
-5.620304992421469559e-05
-2.145716994468279467e-04
-1.658856012041315918e-04
-7.494821117330085244e-05
4.359076774666644720e-05
8.644140306606821447e-05
4.543191189751537697e-05
-3.193650947128735601e-05
-5.201995350769507355e-05
-6.376630469948540905e-05
-1.381842342949952333e-04
-1.086411881609703037e-04
-1.755664466617976288e-04
-7.964168914708303281e-05
3.814136258522687071e-05
1.336178929556944113e-05
-1.590744902669465014e-05
-8.741907207600756776e-05
1.660796943208715153e-04
-4.296227033456353827e-05
3.076973047856408853e-06
1.612739250911263958e-04
1.272364035732555156e-04
1.581711701911731125e-04
7.514569674400529097e-05
-1.708670764266488932e-04
9.302455952051793956e-05
4.936044827900147933e-05
-1.501093727980078151e-05
1.422519881481248527e-04
-4.947262001167954690e-05
-2.589681387876988996e-06
1.441704928023323313e-04
-4.057700546264912301e-06
1.896657819663087293e-04
-2.254557105265719952e-05
-1.885690128827241334e-04
-4.863682251766637626e-05
1.014710654684222565e-05
-1.651794565630925881e-05
-7.278685871380898063e-05
-6.521933448850818053e-05
-7.225122324970868060e-06
-6.721166762045362132e-05
9.358053722332202969e-05
-1.368593084614516924e-04
-1.813933222413311982e-06
-3.763108430005951996e-05
4.184021605810348210e-05
-1.604250271455324680e-04
1.327280002907425891e-04
2.397570680449951096e-05
5.740682154216392738e-05
-9.563683255634504953e-05
1.077183889666030275e-04
-3.238797640803332454e-05
7.451931529508476850e-05
6.584047707494532066e-06
3.787022595621315340e-05
1.610754449005299895e-04
1.135868994062301632e-04
-1.368475810699466074e-05
9.068943163132029740e-05
1.042150644011225548e-04
4.937711489014963841e-05
-2.374723764244416040e-04
-4.411751869894562982e-05
-9.774516293095317351e-05
1.206739368885047665e-04
8.678883627301342682e-05
5.635849689373933493e-05
-1.739688048155983125e-05
-8.283164055990764087e-05
-7.414300714196026616e-05
-6.544049824586245230e-05
-3.304877373423364479e-05
-7.656370295007470074e-05
-1.852959786679069215e-04
-1.425441133475468256e-04
4.422307269827772263e-05
2.173666765653169055e-04
2.446990578687732935e-05
-7.367386911794587660e-05
3.795060386184212947e-05
5.833482701055524663e-05
-4.805544312516927565e-05
-8.832604918483626534e-05
1.365616083253478951e-05
-7.513859102967462150e-05
9.930325357015996727e-05
2.277260007410333278e-04
-9.522338964801687472e-05
-3.303986824525859421e-05
-9.586231192755902998e-05
-7.813129923526509427e-05
2.306004281387681934e-05
4.323805270153588610e-05
2.393297855722865936e-06
2.545397619948408388e-05
9.884048795762490395e-06
-1.694028591976588771e-05
-7.373132646009543671e-05
-6.416582969753984573e-05
-6.202874212136132159e-05
3.447637653056504821e-05
1.495036198315770387e-06
-5.136342703649437124e-05
7.986831311496893175e-05
-1.282190575412869480e-04
-6.093956365696501573e-05
-2.068749668943684441e-07
2.098118308538077383e-05
-4.844120943239584303e-05
9.975450603857309253e-06
1.284992881107554043e-04
1.503963794020558213e-04
1.925622916595892654e-04
5.916699666987408211e-05
1.082664268106411103e-05
6.820947096228713747e-05
8.136510662909678522e-06
2.859928373434722972e-06
-8.676597000112420955e-06
-9.361279131081655261e-05
-7.565638332125651326e-05
2.407397983649642943e-04
-9.296393154175692413e-06
7.845516826083010438e-06
5.720126123890356652e-06
-6.186505845891567803e-05
8.680857564084919610e-05
1.731074699049365033e-04
-1.092401482071585591e-04
1.969186687229182274e-05
-2.126886832563471919e-04
3.259635721349859902e-05
5.791544308526206250e-06
8.681928843803429091e-05
-2.003138422585291477e-05
-2.210200639942623240e-05
-6.732898617760700035e-05
-1.514144206435177366e-04
-6.276709557553227436e-05
-2.366568426282877614e-05
-1.341534837121146349e-04
5.983322517508071753e-06
1.761301475808816068e-04
2.035226084144151559e-05
-6.633592548264424174e-06
-8.548606916823496993e-05
-9.235440406904503235e-05
-1.181282699426951954e-04
-2.962571621845170162e-05
-5.187469684121053995e-05
6.914671089876898839e-05
-1.246222144403430669e-06
5.981364954182794870e-05
-1.106171802533337180e-05
1.487753714857707035e-06
-3.455453231573670490e-05
2.593939449228977687e-05
-2.013960523869685231e-05
-8.503125225419305830e-05
4.913657854770309748e-05
-1.672220413466323498e-06
-7.697999333977054203e-05
5.512480795228191072e-05
-7.723844330050007615e-05
-9.910546810868430944e-05
-1.241211543705899190e-04
-7.534823035484679440e-05
9.198117031729084161e-05
-4.540467908063624067e-05
8.306571251021478784e-05
-3.781034033715877676e-05
-3.489407550486623885e-06
-2.469596738676454865e-04
-6.249511955970419714e-06
-5.184427681335180221e-05
1.652146934619716371e-04
7.257676651923839959e-05
1.452378144729592560e-04
-2.977428948990517159e-05
-1.044416351185434354e-04
1.697605094617625184e-04
-1.166301245858257594e-04
-8.895390457152098655e-05
-3.490642357881724517e-05
9.333853598012967028e-05
2.852217159572082995e-05
1.043919932970243411e-04
-5.784204587058097404e-05
-5.225163273770637136e-05
-1.079923845603211741e-04
-2.199767477510162190e-06
8.464657093952714421e-05
2.348089674287613465e-05
3.349054139204095236e-05
4.273034551060652043e-05
-4.731084733348154152e-06
-7.108336001427539697e-06
-1.096180385612083373e-04
-3.171841102702296108e-05
1.154099225912652311e-04
8.653590154908142587e-05
-9.292748038088410553e-05
-1.923279749508834366e-05
9.628005236182759466e-05
-9.700381014505024026e-05
-1.681489552705825905e-05
-5.798022813198941812e-05
4.308762587868661490e-05
3.038976128478619029e-05
9.793657296510821205e-05
2.220785042906632615e-05
-3.854210521162787354e-05
5.268021131697564051e-05
9.669949993825120130e-05
1.466433617356271415e-04
-1.443679740156397888e-05
-8.868912413606621725e-05
-1.009985958060634191e-04
-8.884265088637306610e-05
1.165677437134607131e-04
4.457914084294689171e-05
1.012229441598657017e-04
6.874600092132051037e-05
-4.140605512528454168e-05
-2.857827577940188151e-05
1.025603831003671514e-04
7.170311811433309392e-05
-1.692759102560785012e-04
9.453097208886585532e-05
1.055382920774766708e-04
4.515464305132314989e-05
8.376802731422823274e-05
9.024347616104591878e-05
1.879849859459754239e-04
-6.426382877255894027e-05
-1.355656895570831800e-04
6.729522641937812832e-06
-9.282339629912828136e-05
-1.847823831655031311e-04
-5.356436165974673061e-05
-1.097177857747333869e-04
-4.594699873075975904e-05
-2.730706867140009707e-05
-1.545132284659411824e-04
1.563977134791013886e-04
-2.653356175168650687e-05
7.794547987064322182e-06
-9.938979182471722432e-05
5.923347803658485846e-05
-1.141867611037485959e-04
1.482902604808379674e-04
-4.818466588478902471e-05
-1.026602633033829180e-04
4.680913175221186796e-05
-1.152473863270327045e-04
6.042321825875775760e-06
-3.400273899087048128e-05
4.069897635997312459e-05
-2.405892635041011920e-05
1.599389368783231435e-04
2.047482260820754498e-05
-9.945011936337478005e-05
-5.107852148381340817e-05
-1.488479970611989237e-04
6.744655799647395508e-05
-9.474950617535457119e-05
-9.973291993431263210e-05
-1.684862999497791522e-04
6.368343643255092634e-05
6.217407316408331708e-05
-9.642499640775495395e-05
-6.828776002788628050e-05
-2.962655264578594608e-05
-9.503471957660287539e-04
9.864561021051032380e-05
8.458120096576174102e-05
1.075223555534201122e-04
-2.140860062851603768e-04
-8.342085426595739533e-05
5.669399222123547950e-05
3.884429115222010677e-05
-1.990282950641457437e-04
-1.733832641868825381e-04
-1.232889551662265653e-04
2.780451354376383147e-06
3.492000790072695893e-05
8.979174637364800726e-05
-1.346252555221721123e-04
1.953769447712909121e-04
9.649398899103849101e-05
9.635561013597404676e-05
-1.236227237487207478e-04
1.117689856531296625e-04
1.801891469472846955e-04
1.172146408828015666e-05
2.812759097386474783e-05
4.920271929286814946e-06
4.818392368651500720e-05
1.913672326049144616e-05
5.467257872866184332e-05
3.373032511651785864e-05
-9.421907315187566038e-06
-1.270281737416325489e-04
9.188550512019838664e-05
2.978377215160506492e-05
-1.520577143087813354e-05
-1.314584359117286570e-05
-8.066632319964433758e-05
-9.248477422105926991e-05
5.562619355440670668e-05
8.807537708942794709e-05
-1.526083526558973566e-05
-1.908758620358124607e-04
1.664893387476499642e-04
9.108048508201364878e-05
1.875781025201082191e-04
1.165520131225539347e-05
-1.457321319162710991e-04
-7.435918878748123712e-05
4.651041268602702111e-05
1.572402938835244958e-05
-8.066890694955469049e-05
-7.032031976925415728e-05
7.287274740853381570e-05
1.270074443835832443e-05
6.000921812252758207e-05
-1.865970264169418584e-05
-7.726455332462720351e-05
-6.820812448518552258e-04
-1.866433573920070225e-05
5.523044862383842760e-05
3.603083799703931962e-04
3.810477593695720374e-05
7.788423123790825497e-06
-1.146008769521640781e-04
3.553594551034223927e-05
-3.512867413345868667e-06
-5.521577093848678564e-04
-6.284699208679166594e-05
-5.279746079399713242e-05
-2.343496743722861379e-04
-4.410554403796378646e-05
4.881040622161658140e-05
-6.601507937544088265e-05
9.480518164796260629e-05
-2.105473200011991723e-05
-7.556319111477463255e-04
-6.376141669938585447e-05
-6.523026002927531175e-04
-6.984723566160781424e-04
-1.316725405877899413e-04
-5.224573527685440200e-05
-6.012251524202746888e-04
-5.975840866782858220e-04
-6.312117380720121190e-06
-6.254155622397407008e-04
-4.351324068291447206e-04
-3.092371731838465163e-04
4.641025372773489226e-05
-5.315495542089942104e-04
-3.716770054712527902e-04
-5.921662389879742486e-04
-3.204522270015833165e-04
7.092492057752554629e-05
-3.839204827730636018e-04
-4.681134534966641938e-04
-3.427365437007352648e-04
-2.082198724950938529e-04
-4.252788636643384679e-04
-4.442009835004183762e-04
-2.550074099495513763e-04
-1.798176657553525427e-04
-1.501604219900198444e-04
-2.920086722264588104e-04
-2.796242513349509167e-04
-3.270659367946156487e-04
-3.795808272760404448e-04
-8.224551054448087399e-05
-1.678817658370816181e-04
-2.657963490072635200e-04
-1.642768273187679743e-04
-3.616925498021941613e-04
-6.607082424892255618e-05
-1.180476707589526840e-04
-1.060882941241039290e-04
-1.606681678492299990e-04
-5.722231944406752034e-05
-2.632470892440843266e-04
9.110017383477732084e-05
-2.968731163008335623e-04
-3.119424924877274140e-04
-7.199831012918284350e-05
2.608226359355004170e-05
-2.310348203873015195e-04
-2.649710430804814239e-04
1.030350530151651257e-04
-2.563112112260867580e-04
2.165034573382841498e-05
-1.298609645891746277e-04
3.881192753630238073e-05
-5.684162209032631437e-05
-7.466904524066406547e-05
-4.681591649995071820e-05
-1.764795959412588538e-04
-1.915496566097910395e-04
3.647375337384555470e-05
1.906251782462230440e-05
-6.558800392049488257e-06
-3.833420346244098288e-05
2.294447719879224071e-04
2.817909360811161079e-05
-2.598736581800074103e-06
1.205961488959591799e-05
-1.126331956453215891e-04
6.471978741602439373e-05
3.707276587681248382e-05
-4.488409715632427863e-05
-9.908410549258553498e-05
1.610118127587074409e-07
-1.224575410973674164e-05
-6.449727715709300082e-05
-1.158465029070796635e-05
-6.463110087154348401e-05
-5.475650777285618747e-05
1.012295797045886835e-04
-1.055716187152546174e-04
-1.485674052433798439e-05
3.477786298826059428e-05
-1.175348621178068208e-04
-1.351525245870595110e-04
1.894072029959605334e-04
-1.695284156725609948e-04
-1.186053068838599652e-04
-5.750380197590589917e-05
-2.105164650221360342e-04
-2.514158140576004132e-04
-2.211782396498061462e-04
1.235119321465928547e-04
-4.263308594959154313e-05
1.698526108994126123e-04
4.348790936702296621e-05
-3.742297484821205730e-05
8.225648695995534381e-05
3.654122315421240875e-05
2.112238524909488860e-05
-1.437997327138108860e-04
-5.069196339863648064e-05
-6.710148761613668434e-05
-2.458105045600589351e-05
-3.629094326801262158e-05
-7.985158166637663642e-05
4.225666199310127666e-05
5.830088439443322199e-06
-1.954296371190217133e-04
4.793414256507731632e-06
1.319541557765983983e-04
7.228553320115142051e-05
9.150968800233406659e-05
2.503946922916831016e-04
8.372651092861307508e-05
-1.439573770598494935e-04
-1.925855030974108923e-05
-5.909650507831659796e-05
1.451239992469800409e-04
-1.559260400402889802e-04
-4.445498050382322593e-05
-8.964581057790087498e-05
5.741244603121624924e-06
1.432892759141008961e-04
6.516364929791477719e-05
-9.308922762018655009e-05
2.802359223387070134e-05
4.922953172867665237e-05
8.380586846171885471e-05
4.453408379279736451e-05
-7.655053479619485445e-05
-2.526253606910086103e-04
-8.478813689711761311e-05
-6.025694117631156936e-05
9.155414133875653304e-05
8.337935294608014728e-05
6.098189175355887885e-05
1.546014925964389055e-04
-1.518008376004337853e-04
3.193858282759178967e-05
-1.449694713833770483e-04
-5.217128527976955336e-05
2.209547457228127503e-04
1.486295062742478963e-04
-8.599441575083617323e-05
-1.233850627352919762e-04
1.077964261919423834e-04
-1.563183866160964132e-04
-6.430570002677253962e-05
-5.714882835375241488e-05
-2.895615882172730682e-05
-1.331679272467231232e-04
1.180120569489801261e-04
7.727792130210151564e-05
3.116494647389137586e-05
1.403785989105943259e-04
-4.025495284648331979e-05
3.718997286406509737e-05
8.468619397603588546e-05
-1.709106945940661986e-05
1.873506692982399724e-05
8.204771561093309590e-05
4.643910213178409585e-05
7.789035222231893946e-05
2.993976692533957575e-05
1.931162067243174184e-04
4.037610601301486890e-05
-1.520807484793157925e-04
-1.126169484544899482e-04
1.937154533513337255e-04
-1.675801954251747862e-04
-4.058518602352314240e-05
9.599566988700177742e-05
-1.290420177839026621e-04
-2.957864226732793148e-05
1.411828881605619733e-04
-3.523300919408868661e-05
-3.421677645803833997e-05
-1.754288119349375929e-04
-8.224146206454919399e-05
-3.390990142638514529e-05
-1.204589656863695919e-04
5.637350005483076514e-05
-5.905502181826688879e-05
1.151292088409077444e-04
1.388027372403109175e-04
1.334351708797658924e-05
2.355893554735821125e-05
-3.052355906947115015e-05
-8.128118940667482966e-06
1.242741958577123825e-04
-3.145744169756614379e-05
6.370051999306542844e-05
-1.756322685919896342e-04
-1.910800372724168357e-04
-1.696009169096136674e-04
5.969936484825554907e-05
1.949470993564053210e-04
1.666195207822247819e-06
-2.173598051359733579e-04
1.706485359376602143e-05
6.613837789386911971e-05
1.216178263563220758e-05
9.512830964605524422e-05
-1.085193321326692226e-04
-3.886723060198800448e-05
7.831590516259035991e-05
5.267358333842270024e-05
3.871452576884864862e-06
4.835910588742492244e-05
-8.150370392422782192e-05
-4.744447980519656569e-05
1.348251693846686558e-04
1.369459085741998687e-04
-3.303391405577345828e-04
-8.397076289118938651e-05
1.618085813904009303e-04
-1.605660496344476823e-04
-2.791041196980238007e-05
2.350020012397421388e-04
2.088200653336413795e-04
-6.456238108426541096e-06
-4.172124354654225674e-05
1.488052594846906611e-04
-2.804037322507523414e-05
2.155104841294937657e-04
-7.157126903802117331e-05
1.240542043318438865e-04
-1.474438995544412486e-04
-4.076087442388949699e-06
-1.748401887372716878e-04
-2.139750552543562495e-05
1.374440144929247036e-04
-1.161768080123525362e-04
2.960054564547786809e-05
1.001819618892397764e-04
-1.822503209196356990e-05
-8.028345388961673191e-05
1.032714121043041942e-04
-4.499924111838674221e-06
-1.028296914027132134e-04
-3.258184338205180998e-05
-1.628885949880958233e-04
3.157653846956906773e-05
6.675794680193231794e-06
4.607365434855288028e-07
1.789226245642070530e-04
-1.121695541232776072e-04
5.013023249590538392e-05
4.451738014519690415e-05
2.137386537524424456e-04
-4.475131332987323930e-06
7.285891223208050961e-05
-1.447201942644521641e-04
4.494337667549106401e-05
-3.163756019542369774e-04
-5.185880311044870577e-05
-8.721603961443613444e-05
5.933489073724028525e-05
-6.840914347822246884e-05
1.961463641924678114e-04
1.025878927123740199e-04
-6.004528537852223748e-05
-1.013924996375390727e-04
-6.077731263645757957e-05
6.307764387673828253e-05
1.890578340961585318e-04
-1.513354258643212755e-05
5.587758117380059301e-05
-2.674736901192070390e-05
-1.302313595321048464e-04
-8.258453389038296062e-05
-2.621984158820858416e-05
1.250328053462505622e-04
-2.154619245947191899e-04
4.289473041638021752e-05
1.192490822831372769e-04
1.520119522266833193e-04
-9.523960467041125624e-06
-9.497564952202345082e-05
3.327307934962552824e-05
4.584939948858825421e-05
-1.838119774262114868e-05
1.157399727975709156e-04
2.684309354951842642e-05
-3.390097782871847194e-05
-3.930093725535592687e-05
7.834151154590055627e-05
8.176773349588600988e-05
1.293950912612674812e-04
-9.712134677939699421e-05
-1.391960586730198662e-05
1.101650137835788788e-04
-2.561726822643559185e-05
7.980650972069778019e-05
3.493790736290630823e-05
-1.421606379771250209e-04
-1.179592776286681426e-04
-1.161622995255491152e-04
-4.912098435683262142e-05
1.068023540748054166e-04
6.234655322901136464e-05
2.770783664702862925e-04
9.422352075601412550e-05
-1.346704846324927023e-04
-6.550302731302336179e-06
-8.606630267277101426e-05
-1.743284068868949607e-04
-7.810143548102949212e-06
-4.085038203031634782e-05
1.122432583522097317e-04
-1.167370497997874836e-05
-1.269571045302811028e-04
-4.108893834527937712e-05
1.610513377329928311e-04
3.067559525255568833e-05
-7.317197419576414630e-05
-1.173135172799020381e-04
5.752105867145001616e-05
9.452152717671624671e-05
1.979397017241631620e-05
7.913684211450643276e-05
3.105342899210201664e-05
-1.954006283589958639e-04
-3.982912627376582480e-05
1.340518419001135561e-04
5.548989741877624404e-05
2.450987619560899286e-04
6.730595783680053655e-05
2.020241583395297565e-05
1.574337446116477195e-05
-9.387283659149437461e-05
-6.951160026190342114e-05
-2.025235093640857938e-04
1.456164132774816775e-04
-1.492659996658998788e-04
-1.030028006438396255e-04
-2.130598134390614508e-04
9.957053313706313961e-05
1.316432300748877167e-04
1.152760680284618773e-04
8.300545347699306677e-05
-7.855503425353590303e-05
-1.532682196552808047e-04
-3.204491696179719652e-05
6.726893882493640512e-05
-1.275475366127021599e-05
3.610717565930007198e-05
3.400160173645563449e-05
2.432401630276955528e-05
-6.921136784600720644e-05
1.645791371736319344e-05
1.406922178823044980e-04
-1.877913313250091003e-04
1.610103670486787148e-05
1.814108412317086682e-05
-4.967850463155346405e-05
3.321243977918491772e-05
-6.096876673231689514e-05
-3.248270523695218851e-05
1.438957198977131957e-04
-1.329378288539024959e-04
-4.355713798592395300e-05
-9.507065101079366322e-05
3.852220229539932584e-05
6.920745142060216561e-06
-2.496409969955584870e-05
-1.711653087925083330e-04
2.628939020275799883e-05
6.553376651600711781e-05
-7.630500222182151767e-05
-9.602187081498344406e-07
6.762704332621358324e-05
-3.950950561750056305e-05
3.026935469706724057e-05
7.056458859882214522e-05
6.169373377039437400e-05
5.269953079100782447e-05
-1.448877548315440143e-04
2.062563555839604207e-05
3.084411252622054579e-04
-8.860215967551466200e-05
7.491465082619354244e-06
-1.097009075735986919e-05
1.476600434526298194e-04
1.156136185116026855e-04
9.004957304936112830e-05
5.107313052702665707e-05
6.263171106944239916e-05
-1.058127254013809405e-04
-1.464417896089147413e-04
-2.881804371533327477e-05
-1.369071547205717077e-05
-6.098719426687627807e-05
-1.260374417693371080e-04
-7.276649151750131555e-06
1.923786192030601573e-04
-9.308880252183667782e-05
-4.661622986226229674e-05
4.650197126693815443e-05
2.839402508598576488e-05
-5.726821476409522151e-05
9.739184970501056594e-05
1.853294724855211674e-05
-1.139774999595286482e-04
-4.909720841077409284e-05
-8.797711450785851894e-05
3.346915041846818900e-05
2.313604995812498842e-04
-1.077885343634996080e-04
-7.021180976669083086e-05
5.595880284839729619e-05
-3.435450018009228055e-05
-4.215923834705005094e-05
3.323151046394633460e-05
-3.142098454150872469e-05
7.546707801250388784e-05
-9.049272226112029676e-05
-2.635622638536726974e-05
5.533335155583548877e-05
-1.357944561907406273e-04
1.291637622913317655e-04
-1.186974346129238481e-04
-4.458862361299522134e-05
3.753487287058867141e-05
-1.055051861699238233e-06
-9.078819348863255846e-05
-6.036839031904447570e-06
6.455759439388904697e-05
-1.648339974002262112e-04
1.180875778927749435e-04
3.078597039097934039e-05
1.175993938287138728e-04
-1.363208923421449586e-05
8.277325462335912863e-05
-1.099614552517371325e-04
2.651091992041950491e-04
5.591458160818234431e-05
-2.760635056514998138e-05
-6.855905258628236640e-05
-9.072228241811114424e-05
-9.677141466081893185e-05
3.704184906728759499e-05
4.700856527524632431e-05
4.324901033884500308e-06
-2.317553014364809799e-05
1.287401307964427860e-04
1.376474372516017254e-04
-1.890662702412389685e-04
1.297152911367684483e-04
-1.072313874529242132e-04
-4.317742496814277512e-06
-3.585506793336970576e-05
4.843814885266221058e-05
-1.427522818388488811e-05
-5.764380175887522990e-05
-6.278665678773794338e-05
1.282092120690322891e-04
-8.571107615855245282e-05
6.486293979689475842e-06
1.308869109311326694e-04
-1.935096849400418518e-04
-1.207752633843357256e-04
-1.026779012395692399e-04
5.360495757508746464e-05
-6.263313917268925557e-06
1.239880235429545929e-04
6.997874534333392701e-05
2.071031339528099841e-04
-1.543363183215158826e-04
-9.890495581783679841e-05
-2.483128775358291421e-05
-1.847319644195427244e-04
-7.506918271126874489e-05
4.121332846021613495e-06
-1.877311771970514677e-05
1.473271086573037431e-04
-9.262577213570292501e-05
-1.029678912773720746e-04
-7.706048725324390783e-05
2.833696929271595027e-05
8.994078318205757339e-05
2.753829488204713157e-05
5.024258791601092299e-05
8.441716313773925395e-05
-1.290160344182214461e-04
-9.738059894263725977e-05
1.413202721452795196e-04
2.683286923864043716e-05
-6.652250190815434485e-05
-5.290370119425876220e-05
8.977667600172068124e-05
1.046556982639892524e-04
1.847259005841818790e-05
-3.262633018070986980e-05
-1.245659759830048470e-04
-1.118245402244701304e-04
1.044892465321824777e-05
1.932313537884345161e-05
-4.979819136938581914e-05
1.445449226127001364e-04
3.980287967740948408e-05
-2.641890272684843008e-06
2.309894031692478989e-05
-5.620817088736920465e-05
-1.486528286373291761e-04
-6.505151007296042925e-05
-4.757323583879474163e-05
1.703841318134899669e-05
7.619527539566842611e-05
-8.785077245137557628e-05
1.159002661117809112e-04
-2.473762263913386908e-05
-1.974947329646841693e-05
-3.061533577798775503e-05
6.375680182118238456e-05
-1.447223633108263709e-04
-1.259656415928543563e-05
-7.527926016410451554e-05
-2.072582597125744851e-04
2.461156097531662910e-04
1.559168136901935959e-05
-8.748538625432953947e-05
2.121175843354558855e-05
2.784861550472025581e-05
-1.503541087833909365e-04
3.779882447831562964e-05
-1.786272665661661904e-05
-3.183914757634885689e-06
-7.294094016909043708e-05
-1.247634944733097215e-04
-8.144870529931257531e-05
-3.879208785579604037e-05
2.266416994224159943e-05
1.543441781461357264e-04
-9.746919312948817569e-05
1.577429915354089764e-04
-9.108447779432126247e-05
1.152959093479926576e-04
1.521561291960029879e-04
-6.093518606859801422e-05
-1.254229930818650119e-04
-1.083950623887551675e-04
-9.761232531607929122e-05
-5.794594375486382409e-05
-6.645115758756562953e-06
1.846696648681003979e-04
-7.805226208385652011e-05
1.752438283752171108e-04
-8.430306409460294908e-06
5.935776926325961333e-05
-1.074019132389870203e-04
6.534711959408037621e-05
1.031605645424144252e-04
1.266553448408013806e-04
4.615951728439192592e-05
1.571435714634615902e-04
-4.661429964374239971e-05
1.485463209803601607e-05
-7.538899909520541565e-05
5.759104043749787129e-05
1.143812631143752866e-04
-1.224940558332084847e-06
4.293152353273801486e-07
4.435365010451237157e-05
-1.162195982684555753e-04
-1.174325044795419452e-04
-8.412792420208365382e-05
-3.999070837186583264e-05
5.299940155156140296e-05
9.657689911825271208e-07
-5.210023367354342516e-05
1.685936494756713674e-05
-1.618730176970136002e-04
-1.692700326128241273e-04
1.135340475314466750e-04
-6.217005745739079704e-05
-3.942873106076373357e-05
5.862204333543893144e-05
1.424802229231342753e-04
1.202877334814169292e-04
-6.338376845429302053e-07
-1.199241647190906748e-04
-7.035057054072135926e-05
-9.122854928344391226e-05
1.180481783015597879e-04
-3.930579591324483374e-05
1.022854380556061126e-05
-7.493443411420656192e-05
-1.633464241837984424e-04
2.355425104974686679e-05
-3.770871585854611860e-05
-2.442895499625017460e-05
-5.686667466601608167e-05
7.092976894140562340e-05
9.590812742107614934e-05
2.321415793979303486e-04
-2.267194551492315185e-05
1.406252547605405607e-04
-2.705805092172955151e-05
2.760996919878905731e-04
4.261059477547974266e-05
-2.967476148011284943e-05
1.354226020424112095e-04
4.893301011164517112e-05
5.836425531536643596e-05
1.179813493078374641e-04
-1.417037810103374254e-04
7.682339898902947083e-05
-1.607715257166659926e-06
-2.254899896903536996e-05
-1.202117650516715280e-04
-3.642080761350853307e-05
-2.528654893373617879e-05
-1.389657514475660458e-04
-1.818473959183554620e-05
-8.652814048729768042e-05
5.010446262150910589e-06
-4.453400748643491103e-05
2.691715681072958780e-07
6.099525545571687717e-05
-2.689251903689371848e-05
-4.753161156532741490e-05
1.318638261432599705e-05
1.049293110398245908e-04
-3.401095710195892711e-05
5.242730240553875238e-05
6.237294698842390801e-05
7.353828074159972621e-05
8.095095415824402554e-06
1.521023777269164107e-04
7.750221527730802860e-05
-3.293395623801877869e-05
1.488559677297999237e-04
-3.112159391052993646e-05
8.561272291163428796e-05
-9.176027495379362217e-05
-5.647632205620991294e-05
-5.046962686526354914e-05
-9.355311251201900587e-05
7.204772876609056186e-07
-1.121041785384149645e-04
-3.104446990110577473e-05
4.605161175287034240e-05
3.780892224341001151e-05
-9.789686648032662930e-05
1.877933240045775241e-05
-1.662592956185215325e-04
-6.069582044612417318e-05
-8.000691163772486987e-05
1.985604665660346436e-05
-1.542806916079117485e-04
-6.098749967074696191e-05
6.523280610439470301e-05
-8.795436373329809445e-06
1.348693188660056474e-04
-1.888234645237430842e-04
1.183430195830344688e-04
5.912818551428007880e-05
9.556724706203858767e-06
-8.169715754072028372e-05
-5.520873322975887524e-05
-1.535695136709019492e-04
-1.860723327996386398e-04
8.146695885276610964e-06
-1.243174703093113888e-04
1.455103039163159596e-05
-5.987528892242019381e-05
6.154711100926348001e-05
1.733885354985584607e-04
5.177601149997896826e-05
1.061020208691976273e-04
1.859558315278809658e-04
3.585024717435655476e-05
-4.901529098783308339e-05
6.297824930402470931e-05
-8.324391620884835145e-06
-7.412511527277035935e-05
-3.281576749651877545e-05
1.185327914035475905e-04
2.028445015646215257e-04
1.755221573062566481e-04
-1.520277443309203040e-04
-1.684081976648703024e-04
6.867241135824610025e-05
1.095981149301252820e-05
-1.186117024578960978e-04
5.045840368780774070e-05
7.638095266457858238e-05
-8.818899625900375038e-05
3.300912762470244090e-05
-8.131038814593490038e-05
1.490781739891486888e-04
9.592648547816850591e-05
-1.402784262101508593e-04
1.203165081142540188e-05
6.347576148879583205e-05
2.740073389522132283e-05
-5.541760031164503364e-05
-9.556440055541709066e-05
5.181072064557350777e-06
-1.987685308957024997e-04
-6.968631277032603325e-05
1.328859189926937510e-04
1.124068274855725398e-05
-9.956764948268406886e-05
7.779575673845686009e-05
1.174838627004254468e-04
1.214387414688828997e-04
7.906234899499288090e-06
-1.381166359278506925e-04
-5.101290838962405213e-05
8.988074602858284971e-05
1.524721324723124570e-04
-6.282924675915030821e-05
-3.538962592502094190e-06
-1.165627345937898226e-04
7.724178662066785565e-05
-1.412220892713901161e-05
-5.016153227396887482e-05
8.404547372367354187e-05
1.034573074359811551e-04
-7.746799125416041444e-05
3.654094191040410336e-05
-4.347244569407868241e-05
1.422109440643018127e-05
8.946145168980984579e-06
1.983581300627206175e-05
5.655654320545583461e-05
2.957245704606428516e-05
-1.372944869536278829e-04
-3.051385364326117823e-05
-6.767825527024718562e-05
1.269107199403361774e-04
9.938915182344329959e-06
1.420784187789358088e-04
4.468522167943997847e-05
-6.936532713248318182e-05
-1.354697673302610039e-04
4.371958817273695477e-05
-1.662146032009150165e-05
-4.038981905817855565e-05
1.067690423242750598e-04
-5.909111933855611397e-05
-9.226910585646697755e-05
9.025419994582366829e-06
-8.635747968544911740e-05
-2.272675647622842860e-05
-1.352735934628123576e-04
-6.048716861465327149e-05
6.519702225309764547e-06
2.468567050352406885e-04
8.074024287282302505e-05
-5.780057903322333531e-06
6.733279362845699071e-05
-7.910078829040841097e-05
-1.857778506091341340e-04
6.357263930844512514e-05
2.537064495186557240e-04
-1.262829963822850233e-04
8.523554441663005619e-05
-1.010696123895976541e-04
6.073851585287456993e-05
5.282111901869258072e-05
-2.608808421298993593e-05
-1.431392333124171219e-06
3.862099524770195257e-05
-1.154141634774402198e-04
-2.625464010437649932e-05
6.763225969468000494e-06
9.029709753792767863e-05
-1.654349992560037497e-05
4.640864995194803598e-05
-1.064824390213563659e-04
-1.628085798676771672e-04
-1.239864179237925323e-05
-2.111612525120932254e-05
1.491444259741100508e-04
-1.382617424349697003e-05
5.564924434099847251e-05
8.368754866162829670e-05
1.279528684465977879e-05
1.740063007121448152e-04
-5.301217254522796646e-06
-8.423927895878381136e-05
2.247516935255600362e-05
-1.319485581137910270e-04
-8.052348650285826406e-05
5.928179215888893080e-05
1.544510682086011773e-04
7.469995064042965428e-05
1.425262274456179126e-05
1.959819559838956891e-04
-1.811084792287295906e-04
-2.937382585974154662e-05
-2.192129803567838047e-04
3.132411709535686889e-05
2.144724346504418345e-04
-1.172735965427431818e-04
-3.294818976479444453e-05
-7.533101890739000463e-05
-1.840162110848931438e-04
-1.067524823341761773e-04
-3.691476448907769368e-05
-1.769392963747869638e-05
-2.667897318590915212e-05
-3.877853364954279587e-05
3.139215741797942919e-06
7.591257630177328524e-05
1.403490360072159068e-04
-6.536338428561137956e-05
-9.910268911818036674e-05
-4.225179495184133927e-05
1.232271866535968622e-06
1.069770236284991164e-04
-1.194996486158673846e-04
1.452982533221487805e-05
-1.985377010861202700e-05
6.596783655958270176e-05
4.008163048510052039e-05
-2.747068147029451776e-05
1.386974375295596106e-04
-3.471185236898255194e-05
2.120895241252012089e-05
-3.713032852076699868e-05
8.839801215614745671e-05
-6.030585169490632530e-05
-2.505097015193299682e-05
-5.681750368380100193e-05
2.093280849219594374e-05
3.904521919337910124e-05
-6.292923366663870310e-06
9.980042666298406372e-05
4.720840361946286357e-05
-6.752659978991530198e-05
1.004329060174492734e-04
-1.328626679142700100e-04
-7.020233086619356345e-05
8.177654281769478918e-05
-1.442989709968080301e-04
7.211694748668462233e-05
6.679713202386185195e-06
1.100585769689905921e-04
-1.027352072685038990e-04
-4.958392628787795293e-05
6.018031311397108098e-05
-7.363412492762559712e-05
6.276828748016457127e-05
-2.918579681779954991e-05
-1.609722380097934093e-04
-1.148427393410220214e-04
1.308017718577878592e-04
9.612205687065350328e-05
-1.182290436850340338e-04
-1.019668562354978877e-04
2.660759864777745921e-05
-1.036297714330894934e-04
-3.992388869231083901e-05
-3.149357475818977733e-05
1.747844371902788376e-04
-1.778443157819347537e-04
1.208189699571357666e-05
4.542929658582267518e-05
1.070145291219768671e-04
-1.004901604461947231e-04
1.243645373615227382e-05
1.262101713595740214e-05
1.767231247661521710e-05
9.345205614048706071e-05
9.738809999369558141e-06
3.686832545708086813e-05
-3.662897445625187115e-05
-4.444354991097580629e-05
4.498806325315344429e-06
2.290536918759854626e-04
-2.008787783280231091e-05
2.968625104202846023e-05
-6.732411424692572987e-05
-5.242483613852127967e-05
3.931305678196842418e-05
-1.772676021045495635e-04
5.020014482144318852e-05
1.683835468293751739e-05
-9.162930956033896429e-05
-1.179792055569129792e-04
-1.633166417848240826e-05
-8.673737005474312133e-05
7.612452917553525096e-05
7.212799472876532301e-05
1.992315409378849704e-04
9.045553340937054752e-05
2.810525471839624322e-05
-9.508564028206741199e-05
4.232132206808978974e-06
2.771105719995973657e-06
3.777156750507064799e-05
-1.440772514957246869e-04
4.909986285654192547e-05
-4.070468369001034229e-05
1.150791253346783155e-05
-6.929770785082569457e-05
-8.498399297752963792e-05
1.644165430407501093e-04
1.484811761913437822e-05
2.989062103394415133e-06
-5.888797286340071314e-05
-7.155605058691927398e-05
-5.615554659284415904e-06
-6.392292821632033671e-05
-1.480527682141122860e-05
-4.696176294156743247e-06
-7.229639441377137799e-05
1.600589211877488074e-04
-5.991392080481071684e-05
-7.534617848416248786e-05
-6.663267919574776142e-05
4.463528268562558124e-05
-6.745410154290302780e-05
-6.256165945193765000e-05
2.496985294469465915e-04
4.296177030111355557e-05
-2.299788889106636769e-05
-9.909532215768176956e-05
-6.996969483990646624e-04
-5.752841833313219047e-06
2.310688132922352248e-04
-3.067312496642580051e-05
-1.704049858065690971e-05
8.081026176553480600e-05
4.694627746469496530e-05
-1.669376622150190039e-05
9.130277768053315782e-05
-6.921891001330659923e-05
1.901696064519732359e-05
7.377063128533832830e-05
5.429571967212279296e-05
6.332583111545175033e-05
-1.480541510346718322e-04
-1.337743647344718427e-04
-7.065674008188288242e-04
-7.106950350474107317e-04
8.478675549441291412e-06
-9.044943179005991186e-05
-9.191809272984715349e-05
-1.158332903657743125e-05
-6.822050211359901120e-05
-2.187987251901393315e-04
-1.061148330630693680e-04
1.298476714331412354e-05
-6.759750054730473542e-04
-9.011653278518550619e-05
-1.370322879588469616e-05
5.299294259978737099e-05
1.736257840466773870e-04
3.245572509494165642e-05
-6.982025298052336277e-04
-5.584753562330091372e-04
-7.443737541462661566e-04
-5.704194342976248418e-04
-6.432544737181458781e-04
-5.547736219441787167e-04
-6.306449085625084059e-04
-3.670509966723265426e-04
-4.550280700500936634e-04
-3.651388705974790224e-04
-8.720832913899241037e-05
-3.735320823211103649e-04
-4.010420769666906706e-04
-4.688240264292509955e-04
1.278891205116970112e-04
-3.917816399811523370e-04
-1.787043837291998254e-04
-3.649018996695924544e-04
-2.227704525410091792e-04
-3.104247724611990176e-04
-3.648544438409529367e-04
-3.518255141792781481e-05
-2.651705749753222475e-04
7.435835665974640954e-05
-1.024510039487458294e-04
-3.723437952127424660e-04
-7.497155084748182948e-05
-1.414646092280841857e-04
-2.496127195667284353e-04
-3.380216118486170543e-04
9.728874132233208404e-06
-2.086246923695963618e-04
5.666793527099802106e-06
-1.425745011163535934e-04
-2.573959828241764248e-04
-3.583709147738500930e-04
-1.291557574075909566e-04
-2.411329682917241128e-05
-1.938059660521785114e-04
-1.239572454375094607e-04
-1.386379610535998144e-04
-2.429174352133146246e-04
-1.609051788966497779e-04
-1.040412149617569472e-04
-1.706334593409204205e-04
-8.325333210339121203e-05
-1.619816142928601026e-04
4.937589923143772592e-05
-2.163707215544645240e-04
8.767358635198374366e-05
-1.302904209868293553e-04
-1.027480208907665738e-04
-2.451646948674781994e-04
-5.207292654026224402e-05
-9.542919290304221059e-05
1.370034001279096426e-05
-6.806919484162055479e-05
-4.132246719359191365e-05
4.200625306007421876e-06
-1.147679994992378854e-04
-1.243371017640220670e-04
-1.586731143630036762e-04
1.034564099163356234e-04
9.974069054875790935e-05
-2.888072090734107394e-05
5.613122973853503493e-05
-6.201128567076839892e-05
-3.036219946770762857e-05
-1.414520262626729719e-04
9.406350989460949652e-05
-1.734943033142457929e-04
2.173745206737918653e-04
-1.692664096179856100e-04
1.458416851331733547e-04
1.153362825064801995e-04
-7.639351398015028225e-05
-8.995979011332041618e-05
8.503827493933388485e-07
-6.078521159577779327e-05
1.931780348046036904e-05
-6.049953542704080301e-05
-8.029015573327414413e-07
-4.867889734868979741e-05
5.917398700730274271e-05
1.518086705423725808e-05
3.923907551148692356e-05
-1.039874098460522300e-04
-1.124437678182907668e-04
-2.954231816325344866e-04
-1.696599076981087978e-04
4.927909017268401726e-06
1.016281882254583147e-04
-1.396993092911868377e-04
2.386880736124839494e-05
-1.052140644518015339e-04
3.598156262142733171e-05
5.712561459875492456e-05
1.380134602403871235e-04
2.907301720181144504e-05
2.095059112623024049e-06
-8.891789616114925178e-06
1.521780502440156187e-04
6.831033164211889285e-05
-6.935028649542215840e-05
-7.339268977480186990e-05
-6.679387183652752960e-06
4.548653876751248068e-05
-1.172810155347471988e-04
1.516382710684675962e-05
-1.979398693014567903e-05
5.981418543124850849e-05
-9.680967915027739897e-05
-5.839644467189540318e-05
-5.773128486399212937e-05
-6.197155016806611368e-05
9.377909178806249999e-05
-3.110962028793209184e-05
1.693817412392254862e-04
-1.103944741955802773e-04
-4.394301147759757507e-05
1.074786109612057975e-05
-5.826336736299561543e-05
5.263875451971088403e-05
1.861505544743456066e-05
-6.458389413121817715e-05
-5.187075100153965256e-05
-4.031454148027701759e-06
-8.757915313591297692e-05
-9.987968367520510941e-05
2.287901393608586379e-04
1.138103872915554302e-04
8.484638565654259673e-05
-1.903383877579211084e-05
-1.677839462783636804e-04
8.434135671377662442e-05
6.826770436188513114e-05
9.426860202371868382e-06
3.377111994039148544e-04
6.586875601344187238e-05
-1.176270316691547564e-04
-8.347699491388779151e-05
-9.483075586759431668e-05
2.912437044854988843e-05
-2.581248509880742794e-06
1.960293776648012500e-04
-7.469071005637456951e-05
-2.827339186316841474e-05
-3.703969772851151203e-05
-1.487973513457182715e-04
1.299693231192140992e-04
8.818854997982519426e-05
-1.034013650083631832e-04
1.741491927861183028e-05
7.721759438130335447e-06
-1.611662944558471444e-05
-2.646581543869148999e-05
8.259423146554772661e-05
-1.941626343830795033e-05
6.460525946444330733e-05
-7.686123807006941063e-06
-1.035667016623796445e-06
-6.979027171685181215e-05
1.325789857437081055e-05
-8.517314143001862201e-05
-5.002143280780015929e-05
3.536398395411695212e-06
8.055483660834287954e-05
-2.283871523226320846e-06
1.461070380045391305e-05
-1.306024045146584852e-04
-1.355650739002213718e-04
1.718528118446144097e-04
-2.593078429223573706e-05
-8.726864611932056814e-05
-4.040387186503773898e-05
-1.060735766878550341e-04
3.145672242178868910e-05
8.462543018387522675e-05
-5.741677356508733277e-05
1.154672138722220945e-04
-1.215934222667783195e-04
3.334126582991050455e-05
-3.837098163009424042e-05
2.933541107901078995e-05
-8.826204571518608843e-05
9.790261332767930588e-05
-2.579271960179310049e-05
-1.331119311207594545e-04
-7.795581337703404189e-05
5.865357338461944315e-05
2.660302706737249895e-05
-1.019403087411615324e-04
4.567310950935431761e-05
-5.292366057057815105e-05
1.332066390106148200e-04
-4.194779715274687124e-05
-7.420607480160345637e-05
-3.673185990947560724e-05
5.505377361459797632e-05
9.170560089410132636e-05
1.622610735677231723e-04
5.339234827425626978e-05
2.037581677369244306e-04
6.709007723792845170e-05
7.694849078470009378e-05
2.651652084613141013e-05
8.384765235150479082e-05
-1.091637482478737678e-05
-1.912100806074442379e-06
-1.821675297502281467e-04
-1.192890170075016243e-04
-1.106820014686849235e-04
1.080339427131160971e-05
-6.934581749107939517e-05
-1.815780836399553898e-05
5.251604157681474832e-06
4.685079013263033799e-05
-8.959140528195361336e-06
8.962340833433755341e-05
-8.192790870443164100e-06
-1.224143411429637354e-05
1.273940084458894350e-04
1.450208080570077713e-04
6.215391420737767340e-05
-1.861377860538101061e-04
-1.411380316078461854e-04
1.045423960711075820e-04
2.818068556389751237e-06
-1.570081636200017282e-04
5.375472582571238654e-05
-4.270280674751449426e-05
5.088038506120251526e-05
7.734068294488666609e-05
1.258686013854675020e-04
6.677314457739606801e-05
6.277964015068677561e-05
-1.219801562751253758e-04
-3.597644151490277239e-05
-1.212078352053698373e-04
-3.643642681030080795e-05
3.749092074129113477e-05
8.493775321368260411e-05
-2.701132745637446449e-05
2.636153080217971124e-06
8.919438912670183534e-05
-1.450192932018853732e-05
-1.271817502100519050e-04
-4.842690182856364273e-05
2.784675337236678028e-05
6.463325569039067022e-05
-1.648541783431054517e-04
-1.859019656062445273e-05
1.642220521390268750e-04
3.912330293792407255e-05
3.112164844267218975e-06
-1.666420964528528607e-04
-9.775162463278914309e-05
-2.353354199482689955e-06
-1.158974554102052117e-04
1.289684511351530272e-04
6.764641409498352012e-06
5.471687037197290856e-05
2.264896006822465031e-04
7.910535573638027655e-06
5.684969652494652225e-06
5.154566188363476231e-05
-1.176307544030964299e-05
-1.242475340974436720e-04
-3.177178127256669922e-05
-4.593709477547251179e-06
-5.724190569198147775e-05
8.005029845698660392e-05
2.480552960718873938e-04
-6.211259796516537034e-05
-7.885772591862631048e-05
-7.084194693750392241e-05
-1.569080013553239301e-04
2.296355452104118308e-05
3.674225876059096561e-05
-1.393502305181724206e-04
1.037897197557800570e-05
1.494616439839608409e-04
2.546743607472192416e-05
-1.454583704290622636e-04
1.029871284365312892e-04
-5.349530767299624030e-05
-9.282015002613276146e-05
6.837146147207035461e-05
-2.267102123875658045e-06
-1.318064357093104465e-04
3.689550452886790777e-05
-7.308219584609716832e-05
-4.234111799480633562e-06
1.927062061971656121e-05
6.087796670425126222e-05
1.103270783067778568e-05
7.544128759956980851e-05
3.144610331519964036e-05
-3.337864495078363407e-05
-2.992564572217116321e-05
-6.784384276984300154e-05
-3.731089309318486231e-05
-4.585778322066464606e-05
8.132168612050316193e-05
2.531791458802593931e-04
7.803075520076467611e-06
9.095224660821183045e-05
-8.709968785316026842e-05
1.138874248533620610e-04
-1.729402026475904206e-04
-6.612961875169137997e-05
-4.620720790295360114e-05
-1.094764474606889511e-04
7.103470869425193535e-05
-3.075105653893569433e-05
-6.136939875261246023e-05
-1.338222422136305751e-04
6.393867128771111766e-06
5.486190900405197722e-05
4.474957355298244461e-06
1.559278778087019946e-05
1.107312492138448435e-05
-1.400270452414301865e-05
5.127950759531032892e-05
8.505574735748990445e-05
-4.047998812002018358e-05
6.489193606638277135e-05
6.877608473114890262e-05
1.058448668776439571e-06
1.082590417414202921e-04
-1.196845570715008547e-04
-7.789840121696984978e-05
-1.035654145118932667e-05
7.613196170521479233e-05
-1.585871029711326087e-05
2.456373737682251984e-05
1.299675579679830260e-04
-7.170875590485747812e-05
-2.115343243137118360e-05
2.328540366477017701e-05
-3.054940453565928570e-05
-1.420416773523127524e-04
2.067615704313173613e-06
-6.254090574213239909e-05
7.751359177936059642e-05
-5.996888462820549947e-05
1.214496286008645595e-05
-2.356203970884281762e-05
-7.411114549415853258e-05
8.012625729870332411e-05
6.873766006043342380e-05
5.669651324816744382e-05
2.952198045743924349e-05
-3.927494098466563857e-05
-8.439092762912325145e-05
-5.369034182753087633e-05
4.975602899388859832e-05
1.359312467663321370e-04
-5.860965380662203232e-06
1.198562084197804430e-04
-4.535795654357785233e-05
9.443250128953567209e-05
-6.751654672130532166e-05
5.496694836469570225e-05
5.470627097413666449e-05
-5.163253649120800866e-05
1.867534425099538157e-04
2.055517904023958752e-04
-1.113352039781097160e-04
-2.357116633945153942e-05
-1.636822890587449076e-06
-1.238947530544680300e-04
9.520094227061775681e-05
7.302487582130831037e-05
-1.371535282441039422e-05
-5.223989697941606888e-05
-5.419834098862408794e-05
-7.532205161590269527e-05
-4.467177829696131615e-05
4.535696368401932038e-05
-1.063709630531137369e-04
1.834317693275952740e-05
-5.027571932618362874e-05
-7.824219252197436966e-05
-3.629238483905874996e-05
1.423834590005198250e-04
-3.740027081356980576e-05
-1.154287784447792791e-04
-1.840728415208141820e-04
1.216015779477371637e-05
-5.000913568216262350e-05
3.787465007304471459e-05
-1.284086532396987645e-04
9.538867546709211946e-05
-1.459206316773528796e-04
9.042002654445808357e-05
3.404475354499302984e-06
-2.039929752026940304e-05
-3.974447747484851587e-05
-2.442636149377516348e-05
-8.907912268361927767e-05
-3.030468761801025367e-05
-1.433261091510511969e-04
-3.231494027115260786e-05
6.510198666143716224e-05
1.099467719595804678e-04
2.592761200284458573e-04
-6.870514461268691087e-06
8.331122946856775273e-05
-5.171758808375526308e-05
1.429043158927600422e-04
-7.102558499527828471e-05
-7.215443192085199025e-05
7.374717249591940086e-05
-5.186907223246096672e-05
-3.363014017969150526e-05
2.366562924593702781e-05
-9.594646459421396348e-05
-2.082452506646514595e-05
-8.646695100232495296e-05
4.655444578447063886e-05
-7.542053331193806110e-05
1.468320063682641580e-04
-2.761141794817127082e-05
-7.897851687084167451e-05
5.994857416423447701e-05
-1.321026219171468503e-05
1.662612856406408461e-04
5.319367322195872063e-05
1.172705573813543625e-04
1.715720188242853277e-04
1.747399780340529730e-06
1.006444930554445703e-04
4.251886217963484415e-05
-1.581655542137882120e-04
2.986006352337132878e-05
3.028128383388049180e-05
-5.403072329958157451e-05
-1.097896073838394606e-04
7.894823066662698396e-05
-4.745028543114907497e-05
-7.222957726828897263e-05
-7.886037508005249396e-05
-9.122465139981565576e-04
6.582713323766743198e-05
-7.199624652016252575e-04
1.103081417202479654e-04
3.243546670281530675e-05
-5.057554155487358686e-05
-5.756563397598511456e-05
-2.009917518813896962e-04
-1.235109099431816373e-04
-7.902896740779052649e-04
6.696836431580850834e-06
5.226248044675797528e-05
-2.913031797103448576e-05
1.224987661805965254e-04
7.751225850003852272e-06
-3.310596081305426978e-05
7.403253483797653136e-05
3.350196662984273974e-06
-1.164171974728808821e-04
-6.410021960203431048e-05
-4.587781374370320013e-05
-1.197501479868693107e-04
-2.636302432744105058e-05
1.032144960772216779e-04
-7.774223006618321194e-06
-5.463929305417935590e-05
3.277629138716964048e-06
-2.249192927978132159e-05
1.482987006981070354e-04
-4.684800971373416007e-05
-5.517705333909759570e-04
1.203284208578938945e-04
2.051955384969420681e-05
3.684981694409544665e-05
6.082412092949639616e-05
5.430094174486013936e-05
7.324787439483168528e-05
-1.462731132124889580e-04
5.489727274250019495e-05
8.457750392897574749e-06
-3.328605421597194842e-05
-1.108945686189557258e-05
-4.893669032927519442e-06
-1.957966173560338142e-04
-3.244234021146767281e-05
1.112129778095026972e-04
-8.966579099105175422e-05
-1.611921377979038902e-04
-6.249055596170980851e-05
-1.565381123271649690e-04
-6.827216397923322432e-04
1.022436983172127675e-05
2.522015334182364171e-06
-3.182449396633344586e-05
-1.534913525107806142e-04
7.723353485649939231e-05
7.145874745581930426e-05
1.864379883127749795e-04
-5.477182761546728221e-05
-8.051872899707459424e-04
-6.214928916030200304e-05
-5.104586421675333255e-04
-5.634869813450221494e-04
-6.050486479347873779e-04
-6.613262577451178414e-04
6.900119454795122049e-05
-3.797902980305578819e-04
-5.965277538282551511e-04
-5.546457310361584602e-04
9.416746233512335968e-05
-5.984458340062311218e-04
-2.402232375999129369e-04
-3.270478484416997105e-05
-2.130952398759849932e-04
-4.278053276283568592e-04
-4.246078777299849079e-04
-2.830150355210800687e-04
-1.346419868408216388e-04
-3.431372162241312965e-04
-3.461971443067689736e-04
-2.921985289656763517e-04
-3.941345954747233274e-04
-1.608212599624721597e-04
-1.012340508411494329e-04
-1.031235454263018696e-04
-3.104448574383986007e-04
-2.593461226085319224e-04
-2.225630254652846696e-04
-1.883169659587299730e-04
-2.202790682130083310e-04
-6.653875411542043783e-05
1.227011620902237553e-06
-9.334914018015583040e-05
-1.678066146743854457e-04
-2.156038419779422852e-04
-2.286760895698851772e-04
-7.697335480426257235e-05
6.478087278689166845e-05
-1.394144364986933953e-04
-1.589019985583226197e-04
-2.514589067942348379e-04
-7.457318193555182134e-05
3.408722020001454095e-05
-3.670421430615518156e-06
-2.253791539033142446e-04
-7.593200779110309060e-06
-1.460889433762114292e-05
7.319959440713469368e-05
-1.628168116563885918e-04
-1.593223133748376797e-04
7.854152677955398404e-05
-5.529822064667506233e-05
3.480111091182955344e-05
-7.744504073757047706e-05
1.738821344832914122e-05
-4.016174829067584590e-05
-8.383246542870968516e-05
-1.228105303401618397e-04
-1.805554137273685487e-04
-1.289362432162974846e-04
-5.374877379504252803e-05
5.769294965064675776e-05
4.025707072105989912e-05
-1.269996233038059026e-04
-5.843559208174371907e-05
-4.891819088115191680e-05
-6.861397669306342319e-05
6.459673830088147990e-05
-4.287191084751612125e-05
-2.337197916945270708e-05
-2.779242908827119425e-06
-5.573873998256853449e-05
-1.928229134327749526e-05
-5.900632774528965867e-05
-3.978787678459646821e-05
-2.370100819095453923e-05
-1.517838038615614970e-04
6.025546407478266276e-05
-1.649787530683960587e-04
1.143926357345799643e-05
-1.418223376479224686e-06
-1.488038950083418208e-05
-6.770452578013605070e-05
-5.205680128051063613e-05
3.955225556708169484e-05
-4.446606946773338874e-05
1.184028456873379706e-04
-1.315221287406667737e-04
-9.846110292860111256e-05
2.056967114942881045e-04
3.117790365864766980e-05
-4.621759044343226678e-05
1.662156073015653326e-05
1.014006803922147217e-04
5.713396473415383373e-05
-3.348735975674769366e-05
1.451255356863388106e-04
-4.020428670645934474e-05
-6.970193477551442905e-05
1.876904879004567578e-05
-7.114570027682052362e-05
-5.358410679699075291e-05
-3.211474989657780852e-05
-2.292974612287438136e-05
-4.318503775061767403e-06
-1.327682248075761598e-04
1.382830651186747421e-05
4.154480005699865195e-06
-1.959897621034662514e-06
-2.420603109617772459e-05
-1.208862288972804508e-04
1.390476991640173974e-04
1.148336370040115267e-04
-7.562502836942506320e-05
2.294243544639323925e-05
-9.654199277774289057e-05
-1.151270438384952770e-04
4.124912535963277396e-05
-2.759679348584787381e-06
1.435403154456105755e-04
2.625078463131689041e-05
-3.898660408601585157e-05
1.025933470625033957e-04
4.216176867022711086e-05
5.082723038356756962e-05
-4.893236994787527689e-05
4.298642470675255261e-05
1.385525807872833219e-04
1.106459135861026279e-05
-8.312313993220651171e-05
3.211616991055348392e-05
-1.881195675631517153e-05
-6.138965746859296004e-05
2.000933006351929386e-04
-6.831688860269384252e-05
1.608306393879122752e-05
9.171688649128023195e-05
-7.183589825480120772e-05
2.323873067011791524e-04
-5.681813041351222788e-05
-3.630314849901121856e-05
-1.491399510357814952e-04
1.907748083575019075e-05
1.006227296450667237e-04
-1.872561646800395270e-04
9.553714474134570298e-05
-1.907884055313959295e-04
-5.295522139591623867e-05
-3.285638024307207383e-05
-6.031928135446045072e-05
-6.520843775223439387e-05
-7.112170734168416614e-06
7.873127760473024831e-05
4.822330116112646866e-05
8.831295744133136748e-05
-3.550129201620244249e-05
1.046803409716948966e-04
-4.760336398066942115e-05
-2.928408076542312019e-05
-5.044066559389440385e-05
2.096469302028594465e-05
1.322369613347812965e-04
8.718300008370843956e-05
-1.564654535425198385e-04
-8.487896607332571640e-05
2.566320030619234280e-05
-3.928915338980494987e-05
-6.372888697347206999e-05
1.192120388340816851e-04
2.935176058555624101e-05
-1.177831711559083688e-04
-1.369676991705825054e-04
1.625764795157176026e-04
9.185913792030437090e-05
-1.595244292690577723e-05
2.203018919848484208e-05
5.381093476083401910e-05
-2.236848621644733134e-04
-1.091862792372405160e-04
3.383620183961176883e-05
4.556814737380079997e-05
-4.209051980508477040e-05
4.179263398494322701e-05
-8.279315081752943305e-06
5.071690927681572736e-05
-7.991815615511661808e-05
-1.208731193366444410e-04
5.457714643933854980e-05
8.597797547296033539e-06
-2.786298061563497356e-05
3.867774689393123355e-05
-2.262364614818243884e-06
1.646393918991860702e-05
-3.382111872860105438e-05
7.295977539611170240e-05
1.511200400884421177e-04
2.056699130481140291e-05
-6.511527425764201699e-05
7.237308544690678597e-05
7.400548319248143557e-05
-9.317417287795515539e-05
1.275929713954794801e-05
-1.675945440496548160e-05
-1.999509218503624382e-05
2.104253511364843286e-05
-1.016195020096911721e-04
-1.425266730573584333e-04
-1.117429284691464437e-04
-6.464928508927000525e-05
-9.636261751462924408e-05
-7.199996445818865939e-05
9.502797619158586924e-05
8.377681093903581737e-05
7.989780452362732163e-05
-1.033698211728597242e-04
5.524946341300916437e-05
-1.180796526923254651e-05
-9.452601204261008264e-05
-1.979481700573507250e-05
8.922219637949303740e-05
-8.990789545426003577e-05
5.414224162313845313e-05
-1.026423011576524022e-04
1.837949722831827126e-04
-1.586935095689173149e-04
6.903216991658749958e-05
-8.445829759013093337e-05
1.105590555821413164e-04
2.571834712342199673e-05
-4.664930670946824108e-05
1.434135252508132795e-05
1.566946980044846434e-04
7.698442057490586837e-05
-7.032699647674827456e-05
-1.396054601796501934e-04
-1.979954909669361762e-06
-4.382533573561826973e-05
-3.044322170323180562e-05
8.593244198080249188e-05
6.841273920605839265e-05
1.763937171424694963e-05
-1.503592953185479920e-04
-1.737318288667125100e-04
-1.211358695060219638e-04
8.227937272450430232e-06
1.513240614666658127e-04
-5.406846205249210406e-05
2.111306422364209656e-05
4.640415852106754082e-05
-3.383541851533683112e-05
-1.066565506383870631e-04
-1.678413449688520760e-04
-1.029853491256837842e-04
-3.673993287398085789e-05
-5.290946314020173808e-05
-4.370806336640029792e-05
1.039425458127634497e-06
5.238377565485598079e-05
1.052984150410659893e-04
1.847286055688686409e-05
-7.813693231929342133e-05
2.273252494681110005e-04
-8.869920843403799975e-05
9.659602988140343085e-05
-9.453378858684317572e-05
8.151979849520073597e-05
1.690682500251247983e-05
-4.560105836839451501e-05
3.435968303146959404e-05
7.032502496453318225e-05
-6.167212788149962165e-05
-1.207935237800812720e-04
-3.248526265380117926e-05
-1.298495383797675757e-04
-3.198768544891736983e-05
6.193398814732036370e-06
-3.479671887917896669e-06
1.098156373323331674e-04
1.526006564408639290e-04
1.410640194916491597e-05
1.167274691752026990e-04
-7.679969827640866734e-05
-1.885210516912359132e-05
1.078825751486456639e-04
8.679647539852710411e-05
1.440552199979636149e-04
-2.152246473487678705e-05
-1.629954587242109405e-04
2.831671307393012968e-04
8.670043261003834809e-05
-8.004060033204359742e-05
-1.142988759236963773e-04
7.305663090427746997e-05
-6.636238708455677619e-05
9.780712313404901206e-05
2.539217682562764364e-05
-1.535066655305423284e-04
-5.312197611649413357e-05
6.602995684626400668e-05
1.452946221675136841e-04
-2.925118613789706929e-05
6.480961550164887099e-05
2.424171834027311938e-05
6.700471333135704730e-05
6.218918899283018531e-05
3.928023005632482378e-05
2.555492381067749134e-05
6.037416990773955186e-05
1.831341888990965588e-04
3.433298542860041661e-05
4.248664479414770095e-05
2.832534426445926310e-05
-1.654848972217264427e-04
-1.538649017382323451e-04
7.831957449520037418e-05
4.693829975171875538e-06
-1.076104009380178067e-04
6.604362437958821642e-06
-2.140592001053834604e-05
-9.563148680475772512e-05
1.338001040043502435e-04
-7.054373631387036796e-06
1.212516865233067176e-04
-4.078145283944549493e-05
-2.739631332354268079e-07
1.196622670151278569e-04
-6.877585489551857085e-05
2.133927200007232735e-05
-5.837409950440513985e-06
1.383287750526639289e-04
2.287777897600035918e-04
-1.112181570303186982e-04
-9.661331125237885260e-06
1.064020802783787817e-04
-1.225461645691602625e-04
-1.543212744092685440e-04
-3.904468102952595284e-05
7.752038766375442648e-05
3.767770255780525216e-05
6.858528925754666143e-05
1.176249310886892327e-04
1.826940862177840882e-04
3.846779975587673377e-05
-1.108390045556544110e-04
2.620429553788946781e-05
-1.433394238768911108e-04
-6.968388411545836474e-05
-2.453896881302188338e-05
-1.045113230174143736e-04
-1.512427802507460928e-04
-1.268877223604438203e-04
2.143175352958578256e-04
-1.960340686075390433e-04
-3.946698341277644846e-05
-2.105823355662709618e-05
1.223021504905475636e-04
-2.954483675387388414e-06
-3.576917703209264867e-05
2.554583329138540018e-04
-7.254949010124055577e-05
1.755757125127139215e-05
-6.600228547197777192e-05
8.766986473307426667e-05
1.258325188919732910e-04
2.942316061286943574e-05
-1.610097097974279084e-04
-1.160867593241497536e-04
-9.668553935959154884e-05
2.984539004266019424e-05
-1.411126843074804048e-04
-5.575495265713123285e-06
1.059353086705780921e-04
2.334685424146136398e-05
7.360374710898312479e-05
6.507952715320840546e-05
5.395195035554264647e-05
6.399189065888528526e-05
-3.850044792643239622e-05
-1.125914481953937962e-04
-6.105983553642796804e-05
-9.432168253802146994e-05
-1.456697237942140345e-04
1.042545067228225510e-04
-1.039910494823790378e-04
1.317373245751511147e-04
8.070747908184086063e-05
-5.069970022658488291e-05
-6.810278691088034902e-05
1.567882304103797580e-04
-5.691600552046634915e-05
-1.139044879902530774e-04
5.878021261964521402e-05
-4.418316071147399054e-06
-5.446290128738272681e-05
-1.206268457173206035e-04
-1.385194306655097507e-05
6.689211801579992786e-05
-1.266052971122688003e-04
-4.278403689264286013e-05
8.583845036035111739e-05
2.328567530845888380e-04
-2.060081797323981372e-04
-1.271461724495257883e-04
-3.080362170148538714e-05
1.324921728274603013e-04
9.376809044952735817e-05
1.712294023985550797e-04
-3.240018515194954623e-05
1.285424244978616837e-04
-7.325829164664275823e-05
-3.922450979972878115e-05
2.799388724866332429e-05
1.805848621969729064e-04
-9.711840281044736541e-05
-8.129842818847014065e-06
-1.041518573380939772e-04
2.200705653631582942e-06
-9.572786534841033290e-05
-1.512757117227662979e-05
-1.901467987439726002e-05
-9.528416600092660515e-05
1.379947650091451232e-04
8.656589225728828602e-05
-8.790068451761703624e-05
-7.867179267529619317e-07
-1.783828163207488727e-05
1.010337836365167945e-04
-1.985081415234991550e-05
5.113277168170162992e-06
8.249228831796732888e-05
-1.951476804664630503e-05
-1.023965520713068827e-04
3.981864980935031416e-05
2.719339589881289044e-05
1.639967842961462773e-04
2.848542018322576741e-05
1.145996442059317411e-04
2.127086507360573893e-04
-1.533045973268829987e-05
5.382895606668879664e-05
1.157784710891092113e-04
-6.268265495022290164e-05
1.486547753848444595e-05
8.650637268246922371e-05
1.611273301926230037e-04
-9.723806975056470555e-05
-7.043198757629318086e-05
-1.192911262075137800e-04
1.886324501065147219e-05
-2.365708888782652974e-05
-5.450449479510409819e-05
1.131349223207334641e-04
-1.498825603862853888e-04
-9.911614492077314362e-06
8.121985758436014319e-05
3.570748640640722626e-05
-1.288968830568295166e-04
-1.869501650449387727e-06
8.148835874008872801e-06
-9.350512405436060869e-05
1.358556380773001909e-04
1.244255164336248025e-05
-4.419283319543569345e-05
8.841961192693355807e-05
-3.978998924646711955e-05
-4.786728961695377896e-05
-1.006998702479558434e-04
-3.877858108469618275e-05
-2.454906198998933894e-05
5.070286776260678316e-05
4.678153867155362950e-05
1.014733003857928682e-04
-1.645577865002362391e-04
-8.259999069673165477e-05
1.291484594543758759e-04
1.425083088070752191e-04
1.024098137050694313e-04
-4.161629182384514117e-05
-1.883509149123746657e-05
-1.252868621305326603e-04
-2.983911157360554539e-05
-2.169827892998648375e-05
6.452462911649210395e-05
1.277820824880337416e-04
-1.443128580830419450e-05
1.855846977212860109e-05
1.568919523713213583e-04
-4.851232915712104640e-05
-1.524397355238415758e-04
-8.257292580866178744e-06
2.417341189802084235e-05
7.343656640498567758e-05
-6.153727761440741842e-05
7.818030809655834358e-05
-1.215286217971116084e-04
-1.226866466465990847e-04
-2.618783836164183577e-05
1.678048214764133904e-04
4.626959485390117003e-05
-6.529933719808969454e-05
-4.223073728211055379e-05
1.482024347412387512e-05
-2.435594063447832781e-05
1.415693335093865904e-05
-1.676427786032800129e-04
8.513058565166866049e-05
-6.737558728192393582e-05
-1.047500534899225454e-04
2.570336926711884093e-04
-1.450406060435465989e-04
1.113248404041860412e-04
-8.792112502310286016e-05
6.577782403193981296e-06
-8.241504280772735005e-05
2.144455864135132455e-04
1.842087836670728329e-05
-1.641170516296835209e-04
5.288595147057578269e-07
1.118826117962567595e-04
-4.749226830508217049e-05
-1.241154417875965502e-04
-1.568180284097118408e-04
4.320676444823773592e-05
1.022671254644798175e-04
-7.166760097072745017e-05
4.838244006190140551e-06
1.094559560206542716e-04
-3.188980362686972013e-05
1.084227767582980899e-04
1.323714543583760339e-04
6.464706021522040303e-05
1.024230790483902210e-04
-4.589560752450390965e-05
3.565438524557306701e-05
-9.161911017902129336e-05
3.007675175097787271e-06
8.745227673764957620e-05
-2.862245817385066055e-05
-4.441891189347978814e-05
-4.421880191210848310e-05
4.762356307230744831e-06
-9.208306204860626271e-05
4.855471977581118795e-05
-8.251067527612856417e-06
-1.450328659894625566e-04
9.309340013398169171e-05
-6.072297894118499717e-05
9.578821303269713979e-05
3.858552380091319052e-05
5.098130211433375209e-05
1.168527309450457542e-04
-1.277941073912489188e-04
-5.877797715788625265e-05
1.540986131443406663e-04
1.617703508687150411e-04
-1.233487819846322520e-04
8.048220286590009672e-06
-3.875726226776270524e-05
-1.642522681415944713e-05
9.625808613103059377e-06
1.089920756944567410e-04
7.420853664165906667e-05
-9.616988586812301855e-05
1.728314308474752497e-05
-6.319534185327888693e-05
-7.200106147410444319e-05
-2.234107292363416179e-04
7.234840722384854711e-05
4.855342848791633265e-05
-5.698412320492141211e-05
-9.038315224214059807e-05
-1.269806268122864628e-04
-1.487933727119412084e-04
-1.158769988226485999e-04
-1.364785478975198512e-04
-8.437564292585458131e-06
5.362138012285640804e-06
-9.079487742187068602e-05
2.207432931983122244e-04
1.573000056077831740e-04
-9.612541984384692249e-05
-1.003454975721578896e-04
3.739962025419717759e-05
-9.018052769526589566e-05
1.780069361344081131e-05
1.985194180000461511e-05
1.452184064016391153e-05
1.322779496327819773e-04
9.538066597655418908e-05
1.388090639975495747e-04
4.433851667404477000e-05
-1.907018257128081484e-04
-1.751371607713623964e-05
1.696824313009723259e-05
4.233867754864558005e-05
3.592323577420860958e-05
1.778636279128311811e-05
1.526570977256057912e-04
-8.097122009669679770e-04
2.206782880709534883e-04
1.258303311135211667e-05
1.221606794644570387e-04
-2.501279699659438266e-05
1.733616600959266723e-04
-9.304842873391336918e-05
3.336374535569510646e-06
-4.216541234171496539e-05
-5.003548025933602077e-05
4.911179231508171222e-05
-5.297988323369578459e-05
-8.165106148900101116e-04
-1.698188068944259899e-05
1.517259321319420692e-04
3.434607769359473485e-05
-1.033853634154690236e-04
2.688400832329222026e-07
-7.249105007768231633e-04
-6.482096273504453152e-04
-4.549398426513522487e-04
-1.125743691270461458e-04
-7.288482554914598420e-04
-6.135249288643147315e-04
-5.753034944533815497e-04
-6.607830982220983885e-04
-5.189580869743280495e-04
-3.937584126569510022e-04
-5.996258946045426863e-04
-3.906441658418652470e-04
-4.364999389311539869e-04
-3.099583996363512359e-04
-3.901133884672264686e-04
-2.972609029624940385e-04
-4.191092952314456020e-04
-3.442203843716644960e-04
-3.247924594143640443e-04
-1.931899667516520896e-04
-2.065882584914959571e-04
-2.616817789949644991e-04
-1.421739000758361787e-04
-2.916072355092830162e-04
-1.954074894882161626e-04
-2.018492229930156389e-04
-2.803947906018929796e-04
-1.761476834993020845e-04
-1.847369203629221197e-04
-2.220087842245238271e-04
-1.694120495914709277e-04
-2.160820785331765258e-04
-3.680380544733311758e-04
-4.781385126145428226e-05
-1.482957667412395937e-04
-1.190608417680454875e-04
-1.486793200820728570e-04
-4.216536314775416402e-05
-8.445183664174712827e-05
-2.331242854223633423e-04
-2.684104361758811393e-05
-7.467916748805655347e-05
-7.830498015908865940e-05
-1.488260908521375141e-04
-1.432697958116659282e-04
1.643241016435535194e-05
1.411918225269833531e-05
-6.105911471134162119e-05
-7.443132701893654020e-05
-2.839865858273595651e-04
-1.464317216568726955e-04
-1.144013000244090486e-04
4.708122041093747921e-05
1.015123751908038536e-04
-1.088443121776044761e-04
-1.844206731433847011e-04
-2.338433894648543187e-04
-1.668715876342597695e-04
-5.998746044855971941e-05
-5.910605026353474154e-05
-5.054633512430420930e-05
-4.428725146640608647e-05
1.959720397328786084e-05
3.605570222868852793e-05
-4.138968860688136135e-05
-1.371888267315357439e-04
-6.313020006082840474e-05
3.298643078766758119e-05
5.254825290973132385e-05
5.100638849273682660e-05
-1.332784093487849241e-04
1.410422056464697652e-04
1.910204296811557790e-04
-7.717685265252628300e-05
-3.568116471157240394e-05
1.358969682413930389e-05
1.413035696188666814e-04
-3.037503487216767356e-05
4.537247093652279565e-05
-5.220664951435737916e-05
-7.657266881825113231e-05
7.457293828744969335e-05
-2.095777255343547253e-04
-5.270944408779695812e-05
-1.237821925003091924e-04
-1.450979270076905637e-04
9.140649973290094663e-05
1.713626627740229096e-04
-1.850394522603780343e-04
-1.537660760422122452e-04
-8.845611584185107348e-06
-2.920756890911134870e-05
-1.725275799405615330e-05
-1.459948132649946666e-04
-2.452094125713894155e-05
-1.764231668975279851e-04
1.879056123119460578e-04
1.702144658381073196e-05
3.078907219892640233e-05
-3.573431106916864048e-05
-1.802914255232689339e-06
1.090952110772912207e-06
4.779546521836446120e-05
4.014185388767523208e-06
2.192590548163866822e-05
7.427917564609295108e-05
-1.618831230556856381e-05
-3.847235386475095128e-05
-1.611397601632681372e-04
1.462212334373948329e-05
-9.230441839094058866e-05
1.945066739622645750e-04
5.916604641040265009e-05
-3.157084711643190337e-05
-5.240695049801280932e-05
-1.514505243722800488e-04
-5.242979396091804309e-05
-6.456412396525932284e-05
-4.469727247676105264e-05
3.193916928676222768e-05
1.264412249526175732e-04
-3.275451066771493415e-05
5.777490779393032461e-07
1.369585469454017964e-04
6.879357830860474795e-06
-1.296589216640152875e-04
-1.167019814937937568e-04
-8.774339576753699139e-05
-2.150710934622305777e-05
3.054918383103916171e-06
5.611025027327257517e-06
-2.805111508388988308e-05
4.999426585772873144e-05
-1.527086087864245267e-04
2.121878990622631616e-04
-1.261392033112621871e-04
2.151463707646634674e-05
8.379433997165670661e-05
-7.160693229487555516e-05
2.185635255721836618e-05
1.326652192953222623e-04
-1.954185308673661711e-04
-8.690270087947101309e-05
-1.445479296583516537e-04
-1.386859920583448336e-04
9.376812691304554394e-05
-3.550843299130800268e-05
7.945004777942873562e-05
-3.834484859687511943e-05
2.212510921781921352e-04
5.942895951780612562e-05
-6.998473524596959266e-06
-2.464802214238371970e-05
-3.599382061091203260e-05
-3.081798708274195925e-05
5.115633881097299360e-05
1.385532084462627730e-04
4.322125687825413310e-05
1.326560008873953667e-04
-7.039150035233177581e-05
-5.842144770199951873e-05
-8.679745798371448591e-05
-7.956767315803626311e-05
5.000028459217812732e-05
-1.428278676019807369e-05
1.105507020543358395e-04
5.373801460793656395e-05
2.038607043647907939e-04
-1.524229035710712753e-04
-9.541225939018257865e-05
-6.967308401069841745e-05
2.280016456936496654e-05
3.791575784450386557e-05
4.447415711355080851e-05
5.653893381652182132e-06
-6.670426961099270126e-05
1.802844503484913653e-04
-1.632896623273472926e-04
1.899049712495334390e-05
-1.018721982857973441e-04
-5.067212835821004078e-06
1.891421019711322753e-04
2.129872932783471971e-05
6.248640439682318190e-05
2.639169017190031482e-05
1.515727388233376279e-05
1.099152653360713591e-04
1.664229251096902148e-04
1.773417770957653626e-04
-3.861644401768645331e-05
-3.444553838455169571e-05
-4.588690804988987935e-05
-1.066634167606367621e-04
-1.510630269293777546e-04
6.102237489726533760e-05
-1.645012996415957181e-05
-3.269587747725059401e-05
1.137999367430324798e-04
-1.778801216894733422e-05
-4.157292431872557776e-05
-3.864191280233530285e-06
6.330772703695781360e-05
-4.399100796044272247e-05
-1.282596256810217294e-04
1.081417326379942919e-04
-2.620196392125862702e-05
2.289921003801291413e-05
3.819267922963278717e-05
1.192580947830645450e-06
-1.835577471660573682e-05
-6.122440004635316263e-05
1.851687327613500916e-05
-4.057734313256602260e-06
-1.588787307434153418e-05
-1.470787242802981752e-04
4.007847447811023543e-05
7.946734002674421830e-05
-9.007015045959307754e-05
-8.602788919365521151e-05
-5.828840676023800180e-05
6.833392025885387294e-05
-6.979840698536316044e-05
-3.194682125370157491e-05
-1.219797148112221276e-04
-4.132664531537273619e-05
1.693279916720565108e-05
-1.002720653765405576e-04
2.931047338464437270e-05
-4.559417738770610431e-05
-6.005761205476224391e-05
1.165549426901452330e-04
-1.532424707222057017e-05
-6.629991336299927043e-05
3.590082803152419138e-05
-6.183868808700239307e-06
-1.568664132985652244e-05
7.845945741597262768e-06
-2.140733245380590870e-04
-1.354942168118565820e-04
8.759409948745667271e-05
2.041440038239134580e-05
1.288776388807645146e-04
-9.441366750950756683e-05
-4.025013459857030874e-05
-3.345507922649776898e-05
1.030546089286244626e-04
3.056791649861928647e-05
2.560789611321286346e-05
-9.590182764205534241e-05
-5.470159768469577948e-05
1.046975836890628938e-04
1.353098455400921949e-04
-1.982393276824818946e-05
-1.471015776948316010e-04
1.234418548927966217e-04
-1.231107341325323042e-05
-4.218446016861031713e-05
8.795242184883567647e-05
-6.327357088918542810e-05
-1.332344340337419903e-05
8.137888045093272075e-05
-2.843252370759847517e-05
-7.607595672057497471e-05
6.770197440305491436e-05
-8.390609700593307750e-05
1.002287568823626555e-04
1.205850394942428777e-06
2.893405051201746554e-05
6.668442454555591041e-05
-1.375610639441626477e-04
-3.708022762404171018e-05
9.917362258739866217e-05
2.184135947488733643e-05
5.363355368772214929e-05
-4.991564338263663537e-05
-3.321179533058966709e-05
9.941758630147678316e-05
-1.917405870482085376e-05
-4.421287896484547711e-05
-5.671042718760040878e-05
1.410921420682401443e-04
8.704141318177069419e-05
3.674985242415357181e-05
-8.906565051974541338e-05
-5.552756400204308577e-05
3.015622636617254181e-05
-9.470329945230883352e-05
3.362980981700565544e-05
6.989731083382513517e-05
-7.125918680625227368e-05
1.117505824667541558e-04
-6.269654901126537477e-05
4.951425249184606916e-05
-1.746635127951165549e-05
-1.644794873229195483e-04
1.126630763817632210e-04
-2.290139532021795931e-04
-2.985112382233157080e-06
-5.098923488174163606e-05
6.513768649529351007e-05
2.123242926124679019e-04
7.454086433213770513e-06
-1.021659858183785914e-05
4.749192956354198830e-05
-3.212073210690619989e-06
7.600884087288276567e-05
7.656129013116478080e-05
5.383547488699399526e-05
9.191703673984058845e-05
9.913586899034181440e-06
1.292429209979408151e-04
-1.019394888159090020e-04
-1.583043033521092615e-05
-1.341759091452276564e-04
6.645293101584678040e-05
3.722161529371697934e-05
1.331172506241574743e-04
1.197562748681570811e-04
-1.210833259300856746e-04
-7.953839441858155557e-06
1.616523355029640641e-04
-1.299639545311243646e-04
-2.263843228973596135e-04
3.014040078677239110e-05
6.128881664895958364e-05
-1.640254762393633095e-04
1.188528735852679058e-04
3.178160915102820258e-05
-8.494190868128516326e-05
-3.958037447751470907e-05
-2.852153260759805335e-05
-4.654774486219355147e-06
-8.998342156185002588e-05
-7.881015179177499014e-05
7.675808858389859791e-05
-9.887093129218384280e-06
7.881614231188910575e-05
-5.637559585184344634e-05
-9.020824320177772790e-05
-1.354608758280153170e-04
7.632373506768218611e-05
-2.134990845655323756e-05
-3.049749073040068794e-05
7.551595699062737957e-05
-7.601270652790862359e-05
1.888940200794986626e-05
9.060602674443392395e-06
-1.026572246353395992e-05
-3.636666970661614224e-05
-3.378568466693467460e-05
-8.741834215597673750e-05
2.414774347353043204e-04
3.391981891478624124e-05
2.219350568600262177e-04
7.355279765138080818e-05
2.005075255946366574e-05
6.763687700523605267e-05
-9.011322364093900630e-07
-1.990462290534884750e-04
2.847797923618476285e-05
1.847906429829928828e-04
6.926008863572875906e-05
5.053484502437463935e-05
-1.331115599983626432e-04
2.020988453858260013e-05
-2.869328886612954125e-05
